0.0 0.014965980903497286 -0.0787499986532156 0.07866025614341098 -0.04795504442768138 0.04115707546828094 0.016995109727921492 -0.0033973186948421355 -0.016820903438504415 0.001399350505863663 -0.030448098975916514 -0.0702234472590597 0.12398923934200244 0.06654132477652967 0.019188886998240312 -0.052902315955550706 0.07159762625044619 0.012630171176676834 -0.05567200744041171 0.039322323077715174 -0.05719458945990655 0.001570631089092551 0.04376201574119448 0.015060525005997602 -0.024335369720028727 -0.04346699006867326 0.1289438633421499 0.12432763338592565 -0.04467727251397307 0.08933017921817742 0.03194919751978293 0.0689073107153983 0.1026299083060954 0.10261513185959856 6.409553417610148E-4 0.02067343657621942 0.012587398605014864 -0.0324251641824612 0.0674130419225206 0.019591045114644413 -0.0050201523734244025 -0.011628174831082458 0.1272068970566796 0.047178065720576985 -0.03959912858282759 0.07782102625585868 0.0448311745937936 -0.03835664023426412 -0.005297012528568399 -0.057674490535133315 0.12083005902204642 -0.015189552775017255 0.056244853457104324 0.11201401869410567 -0.002023723523560671 -0.05098602331346298 0.06132356145828058 -0.05504665151653392 0.0380403728623344 -0.033220503390953844 0.034702247047054983 0.05821937560276175 -0.00726811884105624 0.03668902168225543 0.09310164607192013 0.03597670402501991 0.051329304776119994 0.027391531995542444 -0.007718367143449696 -0.028300277531511226 0.12295547046364674 -0.06509576212023654 0.03773250600312475 -0.049675406440762813 0.04884237199683102 0.06068741948550006 0.0814221548104195 0.1158142033004198 0.03851897701359768 0.10938267929273805 -0.05228859509607164 -0.06703296915868828 0.11483585209611584 0.05474299689420463 0.007514195493128458 0.08979916552729776 0.023170378284809414 0.0669673788052327 0.08062496538862554 -0.043578832513693044 -0.016067705822941095 -0.02952623472537298 0.08334840204357895 0.12273099248795497 -0.07608258842604311 0.016464462095492967 -0.002172569589836366 0.07308167710753537 0.05667589294277949 -0.018027137270340984 0.13293554182813164 0.04656674958062882 0.06049619150255694 0.059457035720187706 -0.04100372973122986 0.024438917325581396 0.008721435874233893 0.046159511852363534 -0.03303963600529553 0.058656701190650626 -0.04761438200698238 -0.041233504853312265 0.056480237904407794 0.0098303371651486 0.019157114074612052 -0.03722330046718176 0.08314342560338624 -0.055896589868022026 0.08627413727733053 0.07364337210959872 0.061910579721016885 -0.061517931392065336 -0.049437256861522394 0.08256667467680268 -0.026659520152538287 0.06845431044867616 0.058712641296854134 -0.05401755759622363 0.10944590861558982 0.056628509694408996 0.020396211569991482 0.018657593432734217 -0.045392694553715515 -0.023195617140183238 0.09468052288696131 0.00718316150389625 0.007400048760042847 -0.05207357066367351 0.10623865568084116 0.09355193972049976 0.07302554599829565 0.08063416981137256 -0.041367224548296576 0.03238275160099823 0.01539494360779447 0.013367653892814777 0.08246092716352642 -0.03431269116123125 0.08016466706887324 0.08221524695126374 8.339916502805476E-4 -0.0012390056168375772 0.07555716977035899 0.08438205000849743 -0.04913742781994178 -0.015573152968437849 0.10967654375834023 0.04572451685557588 -0.03037989081757094 -0.02653738128161808 0.03045157368599434 -0.07196323078193714 -0.04895562535990361 -0.0555379054891369 0.005953807536030641 0.0026718856058616995 0.05710572091326769 0.10391100323881036 0.027408906483805576 0.03515501183803259 0.06671873228229845 0.10594445657729806 -0.01094502206018737 0.10625335455516309 0.11350738457681989 -0.07037811271224269 -0.0025092026747518797 0.033141872523412885 0.05676494408756867 0.047094391626341936 0.11266485325626907 0.0777734600799018 0.006929505877517078 0.10113640071745682 0.11704390499682883 -0.05028248137616072 0.11144418568522241 0.1068570853231484 -0.036328629641275215 -0.05737868645888814 -0.05202762257994986 -0.054733788338355654 0.03797589236628638 0.04187864395518024 6.378879513681792E-4 -0.042265893735254245 0.09398091762241689 0.09260144331798628 0.04885468617124844 0.03973250458618733 0.049390741522743524 0.009423233740191946 0.12016779682400994 0.08771675992454854 0.09412843294570371 0.09777209064671318 0.01085847872249597 -0.0678475934627753 0.008281908814305737 -0.02630483453650612 -0.026872156321371313 -0.06366193560463365 -0.05467633917665434 0.07213303834005681 0.040383445619784505 0.09980264766147742 -0.02157336974531688 -0.009259850143483864 -0.0443040929169162 0.05216905270597714 0.01652010834543358 0.026901014095988798 0.001866662968246171 0.083506294489622 0.07087483217016925 0.03321283850337727 0.017106258233853384 0.07098175152763898 -0.03709034815801517 0.12546816221813778 0.12525355438410332 0.02854069081618197 -0.054121113659755055 0.0612063291839611 0.009229103142496854 0.10106056351432538 -0.006765867178357109 -0.0248407146219465 0.017921237458248203 0.10608687432248441 0.03391660379838151 0.025433326603066346 -0.03436444641239416 0.05529823785637945 0.006820369899995824 -0.010297801729083782 -0.017794871310357414 -0.01167198382819341 0.08633406742660059 -0.04585850478717483 -0.051489897833268954 0.10741955476711215 0.12881927013995373 -0.05535484213390311 -0.0511633905642305 0.013508048778161657 0.11328642565232803 0.12410498180801591 0.03088751161733619 0.009845973159558633 -0.04922967577788577 -0.03428024342383733 0.10257442378153116 0.06958197503057956 0.07993129908156767 0.09613775591321361 0.12384265711291384 0.032381107510546576 -0.06997129601156739 -0.024882887301678237 0.0488033724530943 -0.005314160104172252 -0.041525583339739075 0.03958477447608361 0.11040534637974991 0.12094318003153591 0.11730090925734644 0.09613830626010386 -0.02015815982385076 -0.04638108100554548 -0.006479374228150348 0.11644989072314918 0.10687699918240917 0.08969147424828823 -0.020790709285447722 0.08680006815800757 0.11819602211259164 0.08126583122086771 0.01991681250467633 -0.025317797723566047 -0.04006447788003975 0.049181997473354666 0.12047957642057343 0.022890041056699312 -0.060886368715476404 0.01605505954270089 -1.5955301247217926E-4 0.0645571738060632 0.08770389015485666 -0.05983239197641859 -0.05166470432195107 -0.03735756113299273 -0.06388321749309227 0.05749275299490218 0.11663767246990858 0.09241836178102104 -0.026943975069576097 -0.0627221960647433 -0.02240125948510839 0.07198414221655235 -0.0034482381827289597 -0.0438211308671465 -0.0297939233145824 -0.006247243235921864 -0.03948702769631051 -0.011922777815498699 -0.007896407591378276 -0.07060994578291836 0.09608199285340854 -0.038145742810146877 -0.021276952845582644 0.06266767043129612 0.04256466553249172 0.06485352147615213 -0.016031993553942844 0.09990485053223146 -0.04900027353245115 0.045261442603051906 -0.042915966855984186 -0.02578940466636058 -0.007830014163252071 -0.04766227894911726 -0.04848386862495103 0.08142988634228569 0.02358448141605678 0.12240955204495588 -0.04611824049660783 -0.06549096522652303 0.08700415350551262 -0.03298753146496197 0.08479519796009265 -0.030442562751613684 -0.035328603976033685 -0.01873698399047766 -0.004071683931000383 0.09964183740987315 -0.0056088806864605075 -0.031420085721266665 -0.0470556964797011 0.09762787414388709 -0.017852141995577147 0.0953349983538286 0.09942438188505068 0.0402933174580306 0.11679909819823588 0.038830354729025594 -0.0097233641972793 0.13204409867283 0.007813508048030342 -0.05262438633169198 0.08548469371531557 -0.00767890458606666 0.059812438030327035 0.06345176532257932 7.298811542474594E-4 0.06724570718578832 -0.056934192875313705 -0.04994638413333552 0.09412819694042589 0.04809648297633253 -0.056388259406525205 0.0033922189686175015 -0.06516452739340131 0.006260161390488649 0.10760084699976538 0.10296716221892459 0.12848683552508264 0.0024306989015190537 0.04463366945630222 0.07562946061410829 -0.0255971731039285 0.06969641303148867 0.06006653355858752 -0.01200129304555718 0.12358040211198205 -0.013506954887639004 0.12760888456525074 0.03002688054423484 0.08865329668037383 0.06211261449267577 0.0600671504609579 -0.03765117278438822 -0.03414067933446627 -0.0281400056334543 -0.048044730532154176 0.061573581261975596 -0.016240598471021765 0.05667509688576801 -0.0717517393118638 -0.01681678180792076 0.07792172663162626 0.05946072789845907 0.1287761820828381 0.026489305357837407 0.09672888355199585 0.11961378120395219 -0.029729882022297906 0.11095131338870445 -0.010395633881122274 0.11096334968748038 -0.042524733056248154 0.03885326725649218 0.0074268941213185115 0.10416463198639894 -0.05042666981751947 0.07477981542184453 -0.008087516160050772 0.11918558173037869 0.11084253139262064 -0.02582382271959341 0.067059692172045 0.07116286763696444 0.012579240091726902 -0.05402624173856113 -0.059592904835980794 0.020715960477734503 0.09911265127381148 0.07275894427002233 0.017120310560368487 0.03448643697925339 0.026426590172389818 -0.013743121908303202 0.11280200516353338 -0.05664785447186483 -0.05079662066522766 0.09766052106776209 -0.051285429876241434 0.008669130995390635 0.12982458264862062 0.006227727182548946 0.08387855146611185 0.05032966018633906 -0.01233159634775313 0.10239518083308705 0.07602142127259195 0.1278318110636416 0.019100840903624714 0.12375943267644822 0.07260892055343114 -0.0040409064592309835 0.08918426881085173 0.05659998424711713 0.050901126014809575 0.0013861211375347663 0.10284472263471 0.031741254626019406 0.12911109921899863 0.09059824517017527 0.07282397424120791 0.025769177909476988 0.02278036337965958 -0.006935240197614986 0.036439663402243694 0.009620343645018157 0.0698610838808008 -0.014272187499277705 -0.07530295096240348 -0.021565286573721865 0.016427843759480927 0.06944062956300645 0.05909408944646398 0.11556270107855804 0.10702768622331543 -0.03413647865597752 0.0670853143247455 -0.004732175875441262 0.004242847753601496 0.022458842039122653 -0.045882984024428905 0.0205861478482387 0.025179274737336485 0.119143770952752 0.053827806405028884 0.12271423555990019 0.07976763550513895 0.038120667955144245 0.025435758499747 -0.053062024258260475 -0.018392697293962833 0.04546262236932478 0.04460514597606457 0.0794098518977272 0.04619559298448565 0.05228650820508601 0.03866872729628218 -0.06504022107019193 0.060093896921608235 -0.06706437719897067 0.10954672366759845 -0.023169629307736625 0.12897428005296646
0.0 -0.05050116302303727 -0.05007523887766033 -0.003632904016607194 -0.07628327615525934 -0.07256423964866097 0.05783671329135179 -0.09367921605194927 -0.04064346019196002 0.09660491691697429 0.018755424229708106 -0.09659894617593767 0.01954533258957733 -0.021028789075524412 0.09557242125323465 0.07667075451763622 0.057668425863507344 0.056079937675043684 -0.09739381943297101 0.05821952131257743 -0.001749693436258179 0.09240341859789344 -0.04451007969196048 -0.00252793028165077 0.0028984094998202453 -0.011382611448844962 0.0693305998103956 -0.08755603619406756 -0.011856922330210809 0.08774785771958615 -0.0660394477599192 -0.0458570105971166 0.018873702378490995 -0.07981611135172834 -0.04913647970627378 0.04999233628880831 0.0025646750093596404 0.08362419674746108 -0.032529842943097007 0.036885701622962896 -0.05652510367146722 0.06880487942147986 -0.05683071003705236 0.039931171506734364 -0.08103072152404803 -0.06720188900280222 0.03629672516356172 0.015985633851321512 0.09381797871958233 -0.05167510572595018 0.08479002619606033 -0.09236121517151075 -0.034933588395733225 -0.07444652596360218 -0.05869770751264652 -0.0010909802795033008 -0.053325305764700785 0.028606059351982016 -0.09160641411234625 -0.06668846864891541 -0.07373032482953695 0.06976866727381206 0.008982605286989465 -0.052400389304908826 0.09264862332769938 0.05902680239552807 0.020504551984167244 -0.02638005681354519 0.05023942586412386 0.017818906898765127 0.07697402616191831 0.06799463096111302 -0.056482873067470865 0.05974808851585647 -0.03188774237004949 -0.00807959588262952 0.039319737948439376 -0.01599852549422537 -0.0835414262033567 0.0034653162404789106 -0.026953507733800078 0.04202565043785486 0.0010348750972872939 -0.05768452474635724 0.05836660829052348 -0.027409388839773757 -0.020031600774408603 -0.02867605837935 -0.057901205318145826 0.005232397443877462 0.012850474636288634 -0.03597977432425288 0.041439958479552313 0.06286492227927618 -0.009716014481082128 -0.039021912745414916 -0.008491199704483629 -0.013522996961833594 0.07338699709513277 0.09750631899172005 0.06374450153203579 -0.09189440652913763 -0.03537630654582789 0.04591160549107495 -0.08563523759630956 -0.050969220245455145 0.06964690266766921 0.06267677822013515 0.01399662663826906 0.09969540551810221 0.018417115329246184 -0.005219258899747156 0.05938944269820315 0.015557680080381914 -0.001276997222264445 0.025363773507708742 -0.061310808355850926 -0.09413535597294738 -0.02716358253158571 0.03375196129663652 0.05104031115872182 0.091133916545632 -0.06534185397949158 -0.08222366562793726 -0.07623733245765983 0.05637457149887201 0.038653459880206686 0.0485443992835326 -0.06559574932316939 -0.04368873895281656 0.09867873292411328 -0.0852524573415139 0.06819174061112235 -0.07534909938140824 0.07893507052315485 0.0465374655997223 0.04734330616390853 6.078256675032118E-4 -0.07866818096222367 0.03471506065344132 0.022770263986349307 -0.07732184976843937 0.06914309666892121 -0.022892821190561713 -0.057747623446970445 -0.05943076138503896 -0.0657773155330871 -0.09070574161401257 0.05650936348362928 -0.05408025985436183 -0.023478369231305862 0.004080681027474886 0.0977517227664774 0.09371119491056343 8.090346922367542E-4 -0.04695569738328991 -0.07323415647840233 -0.04612360003365759 0.035514582045531484 0.02211823018368947 -0.07694311954227387 -0.08906503197015825 -0.04586168856462379 -0.08789548425174232 -0.09772964743689704 0.05710853780179362 -0.05750621002134864 -0.020849675319031355 0.07056895841774743 0.09785065549117283 0.09305473128581179 -0.08759296284727953 0.020147063120146178 0.07757084013041621 0.07615545571160157 0.052163404499910276 -0.09164567916078975 -0.08346427907838919 0.07075504030613547 0.029900876408769872 -0.05366193167451965 -0.020291472350911804 0.050352586624990675 -0.07470386187748457 -0.019403147404645882 -0.06863860703038366 0.05238726335837668 -0.0508036027011622 0.030617291373304045 -0.013955460335072112 0.054149675701235606 0.07542120713960618 0.015524666504562093 -0.015853565486586077 0.04149376706418775 -0.0905518368170285 -0.021012874939940265 0.04056540085392871 -0.05390818552659709 0.0015194033613002977 -0.0035433369541422455 -0.03908325835668776 -0.04887989631992172 -0.05546721580025103 0.05309844352442053 -0.0011997303656950953 0.04981464667803967 0.09855454231219815 0.04622350418891866 -0.058422732201545466 0.06846879516428334 -0.06419980001336756 -0.09054232826511364 0.037045727640214604 -0.050152623337708875 0.09714792575547734 -0.07073421367421616 -0.051472323333377465 0.004499705243597746 -0.07317845538675505 -0.053905806265547 0.09503498103765326 -0.08106502138914318 -0.009571866921376015 -0.0020023435933136657 -0.02331749302394187 -0.0934997180478827 -0.04804237800435454 0.0724719139074591 -0.01950708405895274 0.0796788592720983 0.04454870638568709 0.027275909586801733 0.08982415878313463 0.04927133047166382 0.07245319400873892 0.08408497860768444 -0.0593306477728552 -0.037614804463845714 0.08492508667107321 0.09032118081065368 -0.04897956433717268 -0.048722088831082935 -0.05338048067910002 0.060368899681031096 0.042410313245017345 0.037654054982242585 0.03868834761018186 -0.07679219498218402 -0.025990377238651885 0.02364430044406908 -0.022663019397716477 0.01475024047997997 0.05514395492777868 -0.08443500095886391 -0.05472525339501717 -0.023829834180608897 -0.07280538001023883 -0.04940335227904749 -0.009315854455491712 -0.012968381821828023 -0.08534164134181754 0.0724063545667524 0.021987786030988 0.08154661087894968 -0.039818359073841576 -0.04315146483819342 -0.06460468319301763 0.0894039352767419 0.008881684916167518 0.09627020161183722 0.08391703255296692 0.07837517418116152 0.06381768724511791 0.08019595181344347 -0.08296611898240165 -0.05371170314810548 0.0811269597088135 0.006023852979420707 0.09378283667011231 -0.098536487183278 0.02872356182635971 0.08766513475971113 0.0991830711560204 0.007425885051539197 0.06597475038835626 0.06488667919949945 -0.011070098357738534 -0.018458921922890295 -0.05351375769874492 0.022540910025735897 0.08024164036337786 0.047866063255688346 -0.08490804471848774 0.09127051359731492 0.06400656959090159 -0.09302063146602801 0.05954424631685146 0.09531376134842642 0.011311962765348224 -0.030851773067832003 -0.014936806842898512 0.08076827853342486 0.07718522569354064 0.08235431589765882 -0.06067647889813975 -0.07642834248330542 -0.010502599331100426 0.017660097010839163 0.026432979987074556 -0.0898155458934486 -0.025103147835847314 0.08686474172661676 -0.016384221063444046 -0.07333999750399894 -0.07183873999784883 -0.09998441400704572 0.054186018644017675 -0.07423705267459005 -0.001400298195869898 -0.05673219106068766 0.004758774494863852 -0.07050770929928835 0.03700989071750954 -0.05433043088081023 0.08399460379448698 -0.08144426063779045 0.06909071350477755 -0.035801924157609175 0.07272944520212432 -0.01619591059856279 -0.060596142570848846 -0.05950362209389391 -0.005940457340397151 -0.0520803428373416 -0.043485931227550914 -0.09485032763842426 0.017067963688874546 0.057082012974290136 0.024763935529048778 -0.007825986569538687 0.033783243083479825 -0.06893366451612021 -0.03731879938186067 -0.06309182141300274 -0.013227743290811583 0.0385966671117694 0.0016911030643518843 -0.08296750419798693 -0.022266690668257136 0.0363443848991814 -0.01372189332905277 -0.0067861203512535745 0.09179140592039145 -0.09939620389033144 -0.058103854630375554 -0.07166335713310923 -0.009646034753534038 -0.07920926137495837 -0.03529156855411962 -0.06264746233631464 -0.03415300008157361 0.0017786555603018506 -0.021980495181072757 0.08953649482040207 -0.04340629336219675 -0.011885491316328614 0.024603575764530095 0.09319253322174828 -0.0750756641785574 0.05771282431930641 -0.00391046234818726 -0.052170199173904225 -0.07600029121647192 -0.032333250423812326 0.09271472648054027 0.04004442312325185 0.03805701649936846 -0.0177667161173517 -0.06767324500669294 -0.06730319055865859 0.09018909035029216 0.007535178309287641 0.05961525227465306 -0.031196793667578437 0.013289771038840784 -0.054034387490870625 0.06855633818553122 0.08739902846261899 0.09816238983038306 0.08878298052991812 2.0497499561580867E-5 0.020426333668718016 0.021685418981499283 0.017943523188377275 9.320362917803054E-4 -0.08042263274622515 0.08277972095989633 0.008381574351697216 -0.0940189454917913 -0.03156793544839065 -0.0993647033103121 -0.07983715053075034 -0.037149090881985175 -0.0788743176194171 -0.09747871906435504 -0.07667606072965541 -0.05495577683448778 0.03106648229261666 0.024269351785372456 -0.040006371055610765 0.0050202455401370805 -0.012163534909081536 -0.05093083489989579 0.010904615379745686 0.08165701413128071 0.023950735326631445 -0.023866482624207944 0.049570473950914545 -0.08772091687800786 -0.009485410893083995 0.024387817764250752 0.046421246605602956 -0.015661075165493046 0.02844721196518593 0.05873497790846541 -0.01582964856686886 -0.08511722550553463 0.03598182861594826 0.0829134518176132 0.0867656312147008 0.09553029937828131 0.07344684252775485 -0.08162266806587377 -0.05618565933014231 -0.04595264373875162 -0.09124823763296426 -0.015702168930641303 0.08588551368507322 0.09506763033356361 -0.011193126284069974 0.0637659834683679 0.08527673744418715 0.07797991785219369 -0.018238317968374593 -0.07667540173653378 0.09547167920425442 0.005085773169719407 -0.07733319685149175 0.03385770939623853 0.08211143448268993 0.051581853456148435 -0.03273093017508716 -0.08300614479220857 0.023426925031631837 0.011681590560825197 0.0373460751322075 -0.03325056189952136 -0.012180908793634482 -0.03905444493003334 -0.06103365885219013 0.030514832272470177 -0.04338641871712506 0.0015382689205297728 0.01917768150818501 -0.016611837565417384 0.01565812190456825 -0.049951164859474866 0.009938002183810773 -0.01725462322957233 -0.07548318587269483 -0.09542889778528284 -0.006661227387390153 0.07608442793022874 0.041103138409227996 0.08531271294043286 -0.07401881449112563 0.02719514721437863 0.0349487755451634 0.06696842451052043 -0.047517097513251935 0.05582806656294581 0.02988058406456462 0.07233968762303133 0.06524587255580691 -0.019321831340050152 0.0978773396707219 -0.07513564075155595 -0.050082534113582704 -0.005533765092736134 -0.08308303656354743 -0.039413838169635514 0.05993835270361525 0.07783445036671416 0.07832469608315831 0.02832395744532204 0.0409112027058022 0.08741171634939549 -0.08833525006953465 0.05553193734319328 -0.0602210553560455
0.0 -0.07369762380040297 -0.07084777634600088 0.04303404157053212 0.02849528746222424 0.017437493338784305 -0.0993855835565287 -0.007855183927006126 0.09473624588337284 -0.028718595427397395 -0.036047374437109064 0.04455808343471043 0.010214231087777942 -0.004634041463607533 0.06963003333720674 0.0723032406944431 0.08300434798444611 -0.037413397670890275 -0.038650951436633135 -0.07244780893162883 0.01384232139794632 0.04508534862841579 0.06651027572751786 0.036139942915368345 -0.06320149002641028 0.0867856806746716 -0.09203606465888753 0.04332626152014843 -0.02053936739952751 0.06043026961428466 0.025146303766846928 0.02392659261080149 -0.012977229296048678 0.0658044745700995 -0.09826969285555182 0.03698374835368981 0.043795875793344013 -0.06830752422616004 0.09072571601317739 0.03500252963838607 0.0022836265621973273 -0.01574585210479254 0.023515078312191073 0.06344240293975453 -0.06338256259871929 -0.01657825718972837 -0.014329847577286003 0.021421291512934593 0.009993825207218157 -0.041447305939787744 0.06975111821349769 0.034343207612114623 0.04905372896094798 0.05643705456611234 -0.05586697637017826 -0.09339992323812088 -0.06685361661208451 0.07035680500586908 0.04578928552066128 -0.07522486420682095 -0.07253846085233895 0.08752603549605034 -0.0012967859117799796 0.009642962894238688 0.009934894363222119 0.015505838593295684 0.04766779107014868 -0.03760017365628816 -6.087974949144509E-4 -0.00889727529238063 -0.08390316138295512 0.0022715000676354763 -0.04873594939732598 0.09468316453533154 0.035054092715471136 -0.04497688385113839 0.07636360637945133 0.05192814933247175 -0.07731979986746203 0.0107356920243242 0.029330238733015768 0.08268106036028458 0.060876573826172925 0.01983589521260476 0.012497930039112079 -0.028587795427487295 -0.039829858660101386 0.06408216246457671 -0.02312813115131869 0.07785800652873745 -0.02310819232899096 -0.051812637061192865 -0.04042060343261072 -0.027180824894581124 -0.0598806025065396 -0.01914464078858505 0.08462356666495335 0.09912142667036597 -0.003033694016132349 0.08088460898514285 0.04232829934375623 -0.027625023741576105 0.05822449429685636 -0.036823491963672836 0.05100931268404163 0.014259739555047557 0.012373599181661366 0.012497721696370687 -0.06751980021692686 -0.06136099840672034 0.06797471863863908 0.08395316459995722 0.08050271386360666 0.015698133403456604 0.03405132056189414 0.009597508301904215 -0.07563533420084467 -0.04447814112018316 -0.04539845790576918 0.06193920923051119 0.057171739172448666 0.010865936662683734 -0.030774252648763614 0.08236455272415955 -0.08605259159021246 0.09151939489077168 -0.09158651020205906 0.07730017248347468 -0.036731506638538955 -0.0645003269453436 0.09524307727585027 -0.05696545555826565 0.014026354989726084 0.05288209399303889 -0.01648191151494044 -0.03854338949027279 0.020546025852245006 -0.07033355186600927 -0.022988446538510177 0.0872779545941002 0.04953444995252371 -0.045313282383204964 0.02459211921473231 0.042923084554508134 -0.099473676811143 -0.037074022155225886 -0.09261004007303833 -0.050391515257159174 -0.09319438688399653 0.016987305913102796 0.06135753911455802 0.059412519238961986 0.008333018076959187 0.049952980185354656 -0.025168618248273836 0.08484944277180609 -0.07557949566894842 -0.05370357389822507 -0.07736597621468842 -0.018149666864416866 -0.08252831376019419 0.058120122753491654 0.02078231293763015 -0.06634064024953351 0.028860897979517436 0.0320101770533584 -0.04161406554472449 0.06298902221961808 0.024899142412686426 0.09062476294190108 0.017720134363281237 -0.05466726752013656 -0.0535545330823668 -0.07491601326153943 0.046151970866895264 0.03552364376424291 0.04869163043915706 0.039563828201661044 0.027912441004733446 0.014007643377449086 -0.07713573997727285 -0.04523782541339186 -0.06355368847084511 0.06276310067404364 -0.013883431969675411 0.06481388430901733 -0.05162977897913333 -0.05009174912289514 0.006154999737341807 0.07099935889291029 -0.007442878490016666 0.05802913525472292 -5.287737017388716E-4 -0.014922810401008735 -0.08396822998430593 8.5665308549078E-4 -0.022446780246475576 0.027631194187990482 0.07687614556270378 0.06740003082261517 -0.07122996131447903 -0.09487718741163925 -0.08399071177739965 -0.078280152298687 -0.05262961768017792 0.042877674731017834 0.06019044596639331 -0.05975638718113954 -0.0722651099139078 -0.07727753041076049 -0.05417029672985425 1.2817654687104219E-4 -0.00675137124806402 -0.005968502439722495 -0.05252633402386722 0.040613789135843514 -0.03381645137696064 0.0798044254012317 -0.029700325672183905 -0.06133040064139233 0.02508667768985645 0.036404712737310024 0.07414489993109802 -0.09755220511971019 0.009740527772435725 0.04276449763544324 -0.07958861341232192 -0.05692886321522242 0.018637791952600485 0.0355258122440843 -0.05465486688052064 0.01995554273033999 0.05461087120699323 -0.021780198286446395 0.07803709869923395 0.02475965333434546 0.046257550901860484 -0.08727483875817804 0.03830691984318291 0.077470014613882 0.05543706923077424 -0.08159463646285203 -0.08734829855903803 0.04465491288520845 0.08588605606353186 0.04925646198628483 0.021768216647497396 0.08980754165001242 -0.024594769847606432 0.02525675227338589 0.09450265785632142 -0.09063817425033778 -0.05093900653545907 0.013973340289832673 0.00970169704616694 0.08858760105194577 0.0463679612691939 -0.05184759942792064 0.009270526495631842 0.023850472139281723 -0.0725111801601833 0.052239139532858386 -0.04090423195271258 0.07386066116926726 0.025040653780156408 -0.031523038633362796 -0.024959379672420068 0.03934741729854199 -0.007518809197833612 -0.06228723203765181 0.011327528632122094 0.0035394980114245023 -0.07233988502165259 0.06766063718482854 0.0947211021599208 0.006716353626197866 0.03736407746316259 -0.04878867725325589 0.0250943220908679 0.09068556866958766 0.011988124806659728 -0.05650109842014584 0.06895201824249855 -0.07154511204554884 -0.061306455292822776 0.025297798229705043 -0.08176422051549032 0.003474459465461849 -0.0143259464150437 -0.05567389168537389 0.07060456722308003 -0.03200867853175626 0.019345650388805355 -0.024774626201639796 -0.08652347915243377 0.04498965240872546 0.042912567003943525 0.008530482161406339 -0.05912898556985625 -0.019558595319363617 0.09610992638665142 0.03927406567621686 -0.0484173162344447 -0.05775267152105546 0.091474574302215 0.09354136186013773 -0.046535389803278676 -0.021433471949871163 -0.08264100818034442 0.04825211782779151 0.05992204056307851 0.08102937215178466 0.0695860486273763 -0.0051849661452727375 -0.08734453203235773 -0.014501911640570297 -0.0547853058256709 0.022669117595739696 0.08181780218768872 0.009996313120775466 0.0842480626171237 -0.05278820614818019 -0.08567625026405368 0.06567112239802977 -0.05758590689897221 0.07476252745753625 0.026052010343589282 -0.028984934608932866 -0.024256664798883512 -0.08788594526564618 0.09722107129725821 0.010343840840643714 -0.0023862594614039445 0.03803711351007724 0.004366515412856348 -0.04304192300699908 0.05842024443240093 0.01120417807628804 -0.06035907419132279 -0.0014541351970461386 0.07258721889749989 0.05292569038211903 -0.09064344061468144 0.06749654359709245 -0.08304795639873137 -0.03358863724019999 0.07961072977563519 0.026726511551375676 -0.005144731637083538 0.06355323438350938 0.06455309227608905 0.033389210246160955 -0.051683309843769884 -0.024958714953183192 -0.02627794309176555 -0.010594824672621253 0.015263617827166343 -0.050153550852340176 0.038136625540874186 -0.08962314561845813 0.0065372582487879805 0.041978210355200496 -0.04952252045062247 0.08293520279315131 -0.0747097841121721 -0.08430460090843804 0.06621669884691231 -0.09694779364058975 0.04149707628138258 0.015775196176589124 0.002014198241915885 0.09255937288445829 0.040540527613979 -0.09568838544661394 0.07623796920045181 -0.04201570132430737 -0.007692205370833732 -0.003977646028419601 0.040059075541558214 0.07822839683456476 0.08022306113030958 0.004634453053201107 0.09835596720304265 -0.043220715221771205 -0.005287146667994777 -0.09463257920985035 0.06593182694346308 -0.06732677948832887 0.08341129551519294 -0.041068119726826696 -0.08184727394295713 -0.08657166821766081 0.05515741323968659 -0.09249662877801079 0.07733892198014086 -0.027909178102461366 -0.03638742240376061 -0.04669874929309288 0.005271904108594239 -0.04113051886903175 -0.05055001979326735 0.06648065582990084 0.028330792919513792 0.0632820392523182 0.007351231137535413 0.05801375254684815 0.04402549606554021 -0.049738167640764046 0.07735423448964246 -0.002497484428796784 0.021177508387722643 -0.06298396976600323 -0.09892654215770405 0.08747772613084998 -0.013714667721700005 0.08211599436126532 0.05683189297077118 0.06074290880793157 -0.0427526791204399 0.08687900997614886 -0.04321800396732474 0.04542511134286217 0.020389226102461758 0.003608536935543083 -0.02686506217572862 -0.0733177830317689 -0.03973580287898886 0.03150587793131543 -0.09201167272780586 -0.08851175007370744 -0.0640017394921957 -0.07943821666640208 -0.0035995965189501433 -0.0034568367638858205 -0.02334467193226196 0.02024515976838094 0.05295742005387444 0.05345320559627334 -0.03784360886373866 0.07668588370390858 0.05761016239327621 0.09677259169083921 0.062267691877890136 0.036948119781961275 -0.06147519368760933 -0.03932912481358624 0.0886435900404133 -0.059779589808376415 -0.06221256594837295 0.07681403061915748 -0.08877758320977186 0.07494950898840272 0.08077080519250346 0.028763512632134447 -0.02899703061748525 -0.025425956038702013 0.027232473232346177 -0.031450176293679924 -0.09894152463882529 0.022490622506857044 0.0748577917940676 0.04453837130901009 0.09750591425388155 -0.03319668816388413 0.0026252337762227157 0.0645216538002095 -0.04461739499800455 0.05562707052057797 -0.06527887955247105 0.05699204155944276 0.022829332730884166 -0.06675230001236487 0.008102120510469324 -0.014778337988289314 -0.07854117818826323 -0.07562826791532509 -0.05491893649733808 0.02096782320228341 0.03917197007897083 -0.004011939237482512 0.0693917458107852 -0.08587004762103218 -0.044128923783015056 0.06070369739360551 -0.07595141519086793 0.024458599081737878 0.05595976495479241 0.09295574521022895 -0.011996034966185384 -0.07639864211747208 -0.09099726618099845 0.04005031771482634 0.07909019251847768 0.026034994620004692 0.04706357651942275 -0.005648378457210321 -0.09363755031523746 -0.06545088699935223 0.005041179449378291 0.09096235027363345 0.08359336218602073
0.0 0.048749792505437234 0.07889075522367495 -0.08765029833281063 -0.034370749944101484 -0.08415926560773634 -0.01955193619203753 -0.09950288862602324 0.09284147929253486 -0.011647134990944163 0.09017171654580461 0.05788421573985672 0.07159301943398416 -0.06849900395673106 0.08416671921087399 0.002856549607375483 0.04295986459528084 -0.08499946764341917 0.024093608155755425 0.04745692696059134 -0.04317754212741434 -0.08294245225539716 -0.045480657005240295 0.002778249271607608 -0.018578217736169966 0.07692641498256034 0.05851050893902823 0.09787450826523139 -0.0641263420772264 -0.024990414686188483 0.008113761839299571 -0.001593947184933997 -0.023590983809864158 -0.09179368293960684 0.09839361521279519 0.02799098812837511 0.04816583527662105 0.0623595109634896 0.06796953618626225 -0.07039564482416175 0.052395470433211494 -0.06245262486497637 0.018799680214986694 0.03754047606430613 -0.02803311418181348 0.08417014661647601 0.028750325807136046 -0.09323043180203068 0.002239900933673364 -0.05337995147401907 -0.037303332518896115 0.0173633865442758 0.05138033849953649 0.005727047171306843 -0.09558996477214426 -0.018664295067246497 -0.05143950836079228 -0.058903927836268175 -0.08504024681744844 -0.054145065077088925 0.07697039984798906 0.03331607001379169 0.023236316028846585 -0.02949782480088517 0.04810351716661598 0.07016889698169906 -0.028544179229332 0.05505005559395312 -0.09020098660351478 -0.062428076476954926 -0.06809407788348268 0.05475850548540365 0.04645449675485061 0.09633069543261777 -0.009239594813385862 0.054722632934198906 -0.029343388541453685 -0.03857308091239554 -0.037280823329638405 0.005550194134745168 -0.0822678065010495 0.06793435576191359 0.01308138828184563 -0.07735658197640537 0.04162882060734108 0.06638157618380527 0.08448771928187038 0.039191431372997104 -0.08203533872318354 0.08500466712898538 -0.0434326530739456 -0.08017186209486625 0.07571630077004246 0.04594642506431651 0.05547282553309549 0.030950422844527897 0.09591830571673893 -0.08084934676324469 -0.05098537554547778 -0.012046827195685311 -0.013474170743112551 -0.0260587126839341 -0.03290565382409774 0.06204589128169727 0.03149428606504148 -0.02007390214030387 0.03886287788765619 0.021350209522336988 -0.09675302019134256 -0.06415063377932505 0.08205096485660243 -0.01989774689898763 0.0595993096125598 0.09457866655798042 0.05429474518188712 -0.07039228536959485 0.0342277913129746 -0.01574495295195584 0.062249937499498115 0.007371693144254843 -0.036690020061770204 0.06615133548418811 0.01447328949522636 0.09554626610905509 0.07755448860566719 0.037596143016578876 0.0017520412283111159 -0.07376205998207597 0.032635587100620755 -0.09271535042404633 0.07276631621528032 -0.036206029794597305 -0.0904132513222339 0.06749574528746852 0.012457356995107902 -0.03201494356102029 -0.04104232275566467 -0.09037168600908943 -0.03044843794826904 -0.03394525823744221 -0.08622857276401019 0.007948130069054635 -0.05478370568370164 0.02262300435856321 0.06969078539131737 -0.07545514334199593 -0.03185128375596308 -0.0949514574263985 0.042662746528617373 0.09746531969486752 -0.012913293137202117 0.09580294885503285 -6.259193309033767E-4 0.03921599120067207 0.04491097295450211 -0.08614518425690097 -0.009725664230845255 0.033940316228339734 -0.09350974780598856 0.0065233344144396965 0.02274692907396822 -0.05285432762407987 -0.03401081734054119 0.0716315659167108 -0.06087745159088305 -0.04305888832189187 0.06712908637442744 0.07912034750666397 -0.02564229856148395 -0.09144907344677447 -0.05400209470453999 0.06446979713507009 -0.01013924729283261 -0.04493339871324858 0.07283358524178052 0.005216228253696276 -0.025556403802824118 -0.0186862435691747 -0.08037831210188368 -0.018193136374862445 0.008649523370930029 0.003990013675558748 -0.08903226516775319 0.08135769153155034 0.028880279651639557 0.0298712616822924 -0.019498264093362805 -0.011011611919706218 -0.043210005848840924 -0.08891235449754978 -0.07187420465828494 0.0211372516372324 0.012738329818344149 -0.07259191891186174 -0.09999384102566894 -0.013310512667138077 -0.013349286688995265 0.067039227542634 -0.044796878089102224 0.002941372576197282 0.036258052585087436 -0.012788417541783753 0.004287185297664628 0.05674741172746803 0.07592494835338745 -0.05295992807100876 -0.04569687760581769 -0.017729163724168204 -0.08981128703301296 0.043358831533640896 0.024303079089301155 0.046836845872597205 -0.09273151439670146 0.0120544918989101 0.0704541229668656 -0.06795402490310268 0.005478106193581411 0.013615146873647371 0.0849821695859592 0.04723737422534138 0.08361220321062782 -0.0024423952630620027 -0.03720340611318347 -0.050299982329364105 0.059845558170009944 -0.06660170841671852 0.006624322412329908 0.0548344439431232 0.047598151846476894 -0.06308005349229447 0.022479285651935396 -0.0341553665032784 0.0840032043974307 -0.024215033542982878 0.09845287896058855 -0.01339449566048874 -0.024120764091879673 0.06572095542685513 0.01183050758632595 0.006395232980665813 0.09909904131357655 -0.06773563871807675 4.700151749353343E-4 0.0490871137476914 0.060975377357356836 -0.05375626395176521 0.019595255262911074 -0.07865456826855206 0.026167450067494408 8.118642165939743E-4 0.05268066921967696 -0.06655799022190137 0.06983382565137225 0.03783166202473373 0.07760677309414576 0.036147281164395084 -0.029968627801631106 0.0903523235066375 -0.00889057616951612 0.06154504060330701 0.06194751087669753 0.06003522516135676 -0.03168705018442497 0.05389277758583322 -0.03907057703100543 -0.09133338876354531 0.0811504968446683 -0.0343997293563916 0.02021624880941303 -0.09083215397734873 0.09244261475961701 -0.07353836769003115 0.042282780278795756 0.028905392404275698 0.05543154031645672 -0.024041432726270295 0.05248164695703117 0.05770462451471303 0.08940604032615265 -0.06540943981700763 0.016493560118914452 0.0288287128049782 -0.09187816263908347 -0.020407014836066398 -0.03510852100340632 0.06916075136396829 -0.04472494583244778 0.05565425299655827 0.002114949009451028 0.01458886571082213 0.05485571695038466 0.06101727302566251 -0.07248376748478343 0.06876741280562715 -0.04203928899846772 -0.09191177284930929 -0.04121242583693081 -0.010391733728225244 -0.07502862611072561 0.09899766849949113 0.02490655805586056 -0.09303868881186578 -0.08629321956922852 -0.06268180674158591 0.09872007950882969 0.002181764976966691 4.2168634774435165E-4 0.06994398050714476 0.08186249909210216 0.03932777117034553 0.0551513988084317 -0.05291901476019703 -0.04574059151287045 0.08840273816652922 0.07119439449800835 0.09272536015040617 0.06760029941163512 0.09977858279048665 0.01249772840087883 0.07927191271326645 0.04510360312564887 -0.05434251385239833 0.09416217564665744 0.021779550099495323 -0.08047184400512775 -0.001053702994165684 -0.09122521706090805 -0.029979521794697747 0.016563593959877734 -0.048730536236259406 0.0672069128682235 -0.09808457435630234 -0.005743413638492137 -0.02586927553978524 0.04712160829355913 0.08924646598615077 0.0672479520521713 -0.09136120226190264 0.06425086982748854 -0.029671054435191302 0.02215000848035062 0.04332035486794614 0.030711372078188998 0.022547539305086572 0.06397440964673931 0.07591698183751033 -0.009465675519678751 0.06834820342578177 -0.050435514383954265 0.08728032103047598 0.07600212223277997 0.061763991469222734 0.025744751716976155 0.05708394271196046 -0.04109153847556684 0.0038062580153926384 -0.07989548097877784 0.0411411494847195 -0.059725426750804285 0.028709756736490344 -0.03657037029251119 -0.020657601628878378 -0.0923614553324927 -0.018359086638483735 0.08680721665325666 -0.03406069335331732 -0.04207640820973038 -0.02717103701569734 -0.05548538257142979 -0.007921887728250643 0.020231361017096744 -0.005596111072078899 -0.061847602353295277 -0.006446673266216785 0.024510203915266718 -0.07578969650451327 0.042221906695062955 -0.015425522079130533 -0.04405765980349928 0.03624618413485539 -0.06718616634971925 0.08400227620450254 -0.054398226276084975 0.09084779278367955 -0.03171635166297074 0.07788233871720643 -0.037180282368361225 0.055420505083472016 0.009237327464461681 -0.04644313739152291 -0.0279352010766689 0.007510951950699327 -0.06546737075429761 -0.01760251914401728 -0.04872149572842222 -0.09465859401610105 -0.03653406836826918 0.08444039017337249 0.08373795640318785 -0.07529761892180349 -0.09284583176258937 0.09095025929524994 0.09927478330792286 0.09024284717122086 -0.09390637022829779 -0.032712341551458954 -0.0738431862905258 -0.01863940532625666 0.05035517060579994 0.07663685345882412 -0.06608136546612696 -0.016784948871663485 0.09491446007647578 0.052230852833153124 -0.028080593824292316 0.0016817485240202268 -0.006045365733923294 -0.0015788419306089763 -0.0754076665364296 0.09572314810082022 0.03441781436141203 0.06476874161637758 0.038345515579038064 0.08154190574796136 -0.0537688582307788 -0.03264721241112767 -0.08421073865628784 0.056178568693396075 0.009861556777161662 -0.04380240598882386 0.06731116772754756 -0.07388659066365395 0.059455579017101995 0.023869542947371758 -0.057503475390077524 -0.03297103931297818 -0.0955808160729723 -0.05709874597919605 -0.09027918147955219 -0.02792438913666216 0.03441763859952565 -0.07622538830929954 0.06795382272294426 0.0699257396432641 -0.01996951394088141 -0.005298143451010304 0.06614423866053248 -0.025626209295195324 -0.07200091795401156 0.07320351556768487 0.028483798422122147 0.09620289741627117 0.025408759418937943 -0.021496962475066994 -0.008042333820816344 -0.024107469974217005 -0.024371684328908017 -0.09638237392838674 6.912216742586547E-4 9.722910913615157E-4 -0.09193565421059072 -0.024500320513495363 -0.08595563615865663 -0.08142660685460337 -0.002049769597900597 -0.04939644480100361 0.08766608097103415 0.07512757998979264 -0.025086998353688356 -0.08623928497582778 0.03010933886836681 4.464342391196502E-4 0.041737316323156276 -0.015025214002528972 -0.06518770321605927 -0.02744498016810537 -0.023356278618266973 -0.07219113500149901 0.041344521333551515 -0.06741718971637421 -0.054053346621538316 -0.037966675665511665 -0.061344631728865465 -0.004414610062585367 0.027626235730953602 -0.07712669588716521 0.054383382213963716 -0.057971180860225485 0.004738191865526278 -0.04890958280323883 -0.054841341088861364 -0.030363639788913016 -0.05961898153972268 0.05288694778359207 0.04649470767288502 -0.04691956307259149 0.050684208273428344 0.04352615862951856 -0.04460779505523416 0.05928793912073477 -0.025517118804173122
0.0 0.09417728485989209 0.05949560132823628 -0.04314641104474959 0.08133769561931678 -0.0728791037308583 0.049788878523109883 -0.059921175074834715 -0.08955681133435137 0.09902908468417104 0.018794527102920858 -0.04623685010066564 -0.07217180620833576 0.07040418740561266 0.044293880729987516 -0.08644778821666162 0.057798379704856344 0.021420753175262534 0.07755192218334456 -0.07474509712995207 0.07777177722690738 0.09483166440394608 0.0706736111046874 -0.006571181174487201 0.05160611703948546 0.06376652727180583 -0.005001630722969172 -0.029429888176382125 0.07443401950138925 0.07962959056322867 -0.07091361094375163 0.07162651509342519 0.013184037034466904 0.08861021835931158 0.03300581526628675 0.07751538585149277 0.10317502129752006 -0.06593748574159165 -0.08635159189701525 0.03738080963202164 -0.08693087714965403 0.001811599895956769 -0.080973867988168 0.029134767070186907 0.08696919837364846 -0.08378245635892133 -0.06931798753927608 -0.004148928812652103 -0.09060876991782427 -0.11106204982272479 -0.07771921802578516 0.056769396601624944 0.04600962991351633 -0.03581827112377442 -0.061317158675689015 -0.07151184483496531 -0.04983529118408594 -0.005998162740625842 0.030879558168553707 -0.04781953879014637 -0.11500842659210131 0.10802106754002228 -0.09806507989739169 0.06297796614234515 -0.002264851632228856 -0.050473220143921665 -0.06426183241761049 0.03573776532000305 -0.0543016723067645 0.04126943094796323 -0.01613381316220647 0.08452661559841494 -0.003436961641137663 -0.07077760952084325 0.10320821604915832 0.004541697267130306 0.024525497673900904 0.01600021945556467 0.045018677749799646 0.10582206036343589 -0.008599196562548117 -0.03868784993378395 -0.11476343903109193 -0.06155190354926443 0.03060849817030112 -0.08824440035417508 -0.07398448957075754 0.056994963140273594 0.06129116379628728 0.017758225210527463 -0.03329774006831512 0.05795974721701792 0.08084586111546169 0.09536159655635085 -0.03143518051541658 -0.027156846925564557 0.022524037876397538 0.09158498174972235 0.06512911717912401 0.0876429755165244 0.0865671343963829 0.08610907486466875 0.06280225175610678 0.05690429965232187 0.046558613132192964 -0.020179260800332548 0.09346240256998566 0.08011872863471022 0.04234325475987532 -0.08975447191777979 0.07488921244533149 0.1109698137626547 -0.003393243192885892 0.013962578104334425 0.10356171763484692 0.016159428981880636 0.04007153691892692 0.07769070709710893 0.043283167119759866 0.05459477146740907 0.05594051074441548 -0.02386243163746114 0.07945151348488667 0.05033582902362439 0.0919710533990107 -0.09042165238692208 -0.08899530698664673 -0.00940863405150315 -0.03425879200859481 -0.0010254155468660735 -0.1165912977270533 0.013720819823964617 -0.004923340722124969 0.007666442429165027 0.053409909144117536 -0.018514389039110415 0.010725929534178906 0.1041392166660064 -0.004129388519069623 -0.08534293832164183 0.04873569284028759 0.07538505538501382 -0.0430424550406037 -0.017812793933801904 0.08298811018877485 0.05140206450836122 -0.042566472255126414 -0.003093277451373727 0.04617694717305199 0.017792994252899815 -0.11827130805289361 0.021255311444225197 0.08884666486941523 -0.07621277605864255 0.07755480165802422 -0.009327971629729776 0.06608281690852424 0.07130951272398388 0.030275476069032695 -0.06338502035333207 -0.04159672338796038 -0.04848838092342893 0.046022018863669766 0.012998605866200663 -0.006909931023135895 -0.03526074172972887 0.10223233820669776 -0.05985541163293289 -0.047869180425116904 -0.09716813778902975 0.12560627021375667 -0.03224171516865215 -0.04329092456863023 -0.07102255998642665 0.03608126728457977 -0.015946911306152445 -0.060527433918352455 0.020513265450199665 -0.04664607992924569 0.04921890665659616 0.0784622695967146 0.0248831597963386 -0.07716210556190055 -0.04840506535962487 -0.041799710321489374 -0.04658554889152822 0.036612153727760166 0.03150663837432043 0.013025562948359513 0.06549163841350204 -0.027182264318399044 -0.06741736966618499 0.07361204324809174 0.07883732488589847 -0.004683753599270493 0.08273562331316851 0.007929446118526595 0.09698090352492834 0.030222484076670802 -0.097069590190656 0.03730157520737752 -0.03407040587224472 0.05210187022395113 -0.014345618264882835 -0.02033024158751406 0.08105041301837816 -0.09230491847694465 -0.02955491914773688 -0.0302549444341083 0.013851943577803952 0.01734325186539143 -0.020521854307425997 0.07473310897212586 0.08107804819520324 0.05927904410173686 0.07780626612220864 0.02255380057364058 0.04855655963627883 -0.03637008932619547 -0.01961026715996479 -0.06332515580672733 0.0011912473214714414 -0.009691076058150836 -0.07163143408819073 -0.09338822201792371 0.09794467535854057 -0.058920683305763104 0.07210819942181144 0.09340327642114651 -0.022103859763976982 0.08758998531957529 0.032199286098796624 -0.07107090136230794 0.003994228566255367 0.02861233211964487 0.04332616003991866 -0.0741448877215882 -0.02183638073979363 0.06753238670990189 0.05177235524784487 -0.01488851403996108 0.017513070308898145 -3.1519100836814975E-4 0.012498562055232667 -0.03846156685725673 -0.0768481655096632 -0.08742570179724787 0.05591176535955089 -0.024078959509936795 0.030185529868730028 -0.062184552439585775 -0.08333200851605316 -0.0064660255858036055 -0.03829727170498193 0.04990630322078691 0.1023005223838843 0.09237372301352943 0.014173785834955707 0.008410093371177894 0.06931783419908678 -0.09444213914572339 0.0074259575232136985 -0.0824328434058578 0.07847278782369987 0.0823336003490867 -0.05946980596955455 -0.025139545644848108 0.042545086373384035 0.12465273812939803 -0.055315130635710176 0.1118049001992583 -0.04794262869847881 0.10394057079360375 -0.00455325076147502 0.06378743337016761 -0.061697373561715466 -0.042505303961839706 0.10029163559528531 -0.10361824531999222 -0.04201354643763563 0.07575140958478416 -0.0924904717707432 0.05509092931984538 -0.019029993914608488 0.02187902134273409 -0.00391129793284551 -0.08297226096846128 -0.05571724771380061 -0.010207337134163694 0.026034369069692486 -0.029656195072247923 0.05998826997007165 0.024590547145259337 -0.06416472807531133 0.04347141271431779 -0.06596882401993978 0.08311917955231118 -0.09086418433474222 0.01951092660451876 -0.01333535939234978 0.07517587138625605 0.08154133362749713 -0.009121283988402 -0.11039728334891591 -0.03952637912997291 -0.08398442480563639 0.1080424451496477 -0.010178468297217946 -0.10879254572338383 0.09165092547911895 -0.05676877530302889 0.09774293201351698 -0.0748037792205061 -0.006423703638669922 0.022216344461823325 0.011539078668288977 0.02134402475054168 0.014443698880373305 -0.02406045470871318 -0.11382020875407384 0.07098474378788229 0.01006390116939376 0.016149617101799827 0.08532356998003339 -0.07144988158728387 0.025724773559911353 -0.0056376531660887325 0.051698780026998556 0.09826684615790084 -0.002189229193887184 -0.06264463335861947 0.05175651665701536 -0.1117497200097683 -0.029109129949671526 0.1119727336505606 -0.07151334154427771 0.05565690776420862 0.029791019956203032 -0.04022322682166961 0.02842227890855043 -0.07213785732651759 -0.0711449764025377 -0.06225979689466398 0.03419319787359307 0.071168434982638 0.04000095473974973 0.07315009005429997 0.00802486745455713 -0.06344575469067835 -0.08068387338464844 0.036694293958008904 0.023137009172882698 0.10733096869305625 0.02322679116209486 0.00949136636869756 -0.0021443602762082513 0.0546725915988109 0.08208877971322232 0.05428199635325015 0.015057325701488431 0.10164483848729498 0.008251672704985946 0.06313866320684818 -0.03839546536848345 0.03407319282657942 0.013321116859809492 0.02435099849208775 0.07511779644623015 0.07463683115739382 1.747031723116503E-4 -0.0672868389360643 -0.015194080537725786 -0.0034320580825860612 0.009009581453210921 -0.04215424076378862 0.06722137584792894 0.035175974157489576 0.015816428047109258 -0.09680427899251828 -0.09212716802748568 0.03394049528422768 -0.10478410052050686 -0.055538589199120914 0.06463934187958918 -0.06531106737490772 0.01903716294710647 0.07955005444574068 -0.08513989162128478 0.013041473398902836 -0.08263657054667162 -0.06823866217195076 -0.05964335008553392 -0.05762252380804884 0.06633922840515628 0.017206494501002624 -0.054016928222339645 -0.06928808397928535 -0.09218683541961732 -0.1266898401696233 -0.062345082878330176 -0.038908568977500974 0.024071056373879546 -0.08605582717436204 -0.06257497246164251 0.026396854839454392 -0.04454882417088502 -0.09638613551754979 -0.04960391691069956 0.08451797197992447 0.049319869388185326 0.007619791315351674 0.04156743080560412 -0.04721802140124744 0.055737658905867134 -0.03337213398273365 -0.024191926182066954 -0.03914377194283626 0.10166570266268983 0.006806008631112347 -0.0629019119236422 -0.006892477816999915 -0.0075938269057532785 0.09291236244893623 -0.09122770360565634 0.046443795484100284 -0.04129880662374005 0.09824057067006557 -0.008062672332742863 -0.02042100121120979 -0.08533166041028015 -0.05165836758690993 0.02537963688127586 0.05175430016529988 0.0067954951672156766 8.669801109020915E-4 -0.020665507308974828 0.05039560126524271 0.013568831009032108 -0.06382274860966043 0.10319777724977622 0.10517424284090653 0.05207611381735549 -0.09261318420971552 -0.049059817413628894 0.05765688543141821 0.06303208669536788 0.05328403390407467 0.0031407068817537217 -0.09512919738993345 -0.02595416457883498 -0.05372828050898553 -0.08946147978870472 -0.08686184732515544 0.0480146205156912 -0.11926092708305402 -0.07447449720963893 -0.028565728237549062 -0.010270245666136482 0.0909087786164573 0.013525474851759207 0.011860814529167625 0.08668356915482893 0.024602103194431145 0.0236332225525524 -0.08592363177708695 -0.008146678519324872 0.012276790503072638 0.0675315101749676 0.0799313238693839 -0.032376060930656765 0.042003365772614425 -0.06403799972529431 -0.023689774173690892 -0.02416271338024978 0.06320111637661865 0.11241410369103447 -0.0723670832762712 0.05132473204115976 0.04358158960649306 -0.011094298030822397 0.06743280714137424 -0.028977387401051245 0.044508648757153185 0.11204581196270065 0.12680286281220066 0.11120907012255488 0.023833816388175746 0.027264264508382284 0.05237347508816196 -0.0724638243124642 -0.08123871483570598 -0.08659796229218301 -0.018418863430512807 -0.10496317477794352 -0.002150656407751728 -0.012380697633214494 -0.013150099327806712 -0.08229186367192401 -0.030862079301250143 -0.03140591393800229 -0.05196807036303908
0.0 0.011355252906417673 0.01030474643265461 -0.0022727063184905805 0.057037166742574585 0.03349368708197148 0.007853308540685569 -0.05846044522904526 0.043471626950779274 0.0807092826947928 0.053210967558547095 0.04618976022313481 -0.06471537983769833 -0.01957774217723765 -0.026111732194488646 0.05285390912151 0.08016830524199217 -0.0565193987507014 -0.03482789044361917 -0.09507853155508605 -0.05713444192021187 -0.02297678155820332 0.07579873093692904 0.08121604293202489 -0.09723722713644667 -0.015583218133364996 0.003107283516296161 -0.0654904479981753 -0.05753662414098824 -0.03726121069219315 0.0073768788272718655 0.07613339136385705 0.02176440554203464 0.07576079886072343 0.0336223233823956 -0.031786532047286875 0.002244027717391517 -0.05623308862730004 -0.04211858453651188 -0.08537708043699176 -0.017891007531456102 -0.036382124549207445 -0.07271530022363185 -0.05548636526525448 0.05979909847924214 0.07595126484785666 0.06666573688078634 -0.09190351444391748 0.06421937191368823 -0.03420052887471042 -0.07966747710900189 0.07287239628070288 0.03962239882559063 0.0013583558939753715 0.008017046467100788 -0.04279957892056919 0.014807174836577286 0.023297907523207498 0.03457991179891265 -0.06511026281271877 0.06774763089711211 0.051595343476689065 0.05749644172145693 0.05739199973478379 -0.06584344995749603 0.04347341201696467 0.07282819617075656 -0.03540504274315917 0.09106887820195486 -5.040713930684615E-4 -0.04267172795500565 0.008406960581088155 -0.058151227040993896 0.02308312407110262 0.04920730633228851 -0.015470996931566908 -0.09671783395398204 0.06407432101883428 -0.08678569221839341 -0.03890739138446254 0.058281041362598596 0.016086624338973246 0.07116938742208812 -0.0645591863277097 -0.07949137705153837 0.07232110946211481 -0.02938155128320802 0.07786287032916611 0.04351923984634412 -0.0699425834457141 0.08377438185832209 0.007430300861642702 -0.05091611975993422 0.04688311390404398 -0.05163579478269909 0.09372350349620912 8.592985843361295E-4 -0.020702264889000288 -0.033342697901350304 0.064183066667625 -0.008518830660720955 -0.054572163396904745 0.033341659035564075 0.007468140211669985 0.0880286641551429 -0.022337967410465745 -0.07642790527328139 -0.05739949637799396 0.016556884589031567 -0.05411837262747439 0.015596047407134356 0.09063811508648831 0.08029393238543406 0.0475939820117981 -0.03997754702145749 0.018335992087511577 0.09336432076177717 0.05666229512644985 0.05845477059072465 0.01762707457086711 -0.025994975808310783 -0.027073290408618944 0.0018056520561817724 0.025344038716688194 -0.07121074503935816 0.03329141046939446 -0.08400999419511278 0.011828538896805393 -0.08540087321872039 -0.016961110224596676 -0.07502940847038005 0.0939057620750258 -0.05315673734758098 0.009713351372511336 -0.06352674596673896 0.004162097303851919 0.09238981155537271 -0.008702110323143594 0.04379588697098635 -0.0421120188547562 -0.07258733966029647 -0.004671346687140671 -0.018888759656758472 -0.023337760911629785 0.07444364433568401 0.09733859467161968 0.08435524398600913 -0.07541593318973305 -0.0813677126909183 -0.004108248850341112 -0.0809129156436059 -0.09097472791276882 0.09244338374719166 0.029739660147222152 -0.0931956027015568 0.036464853199156294 -0.0811137715137912 -0.00949616861551271 0.08249804355508397 -0.0384046426927196 -0.040046212218045524 0.045575177544457585 -0.029502473923781497 -0.04967500359898365 -0.013299709571406804 -0.08856669066334913 0.04389194365223953 -0.05123451319502921 0.05106450352683717 0.09805154246028755 -0.03781985399753068 0.03728600388850503 0.07147863937676968 -0.006932036214754203 -0.013560014590645403 -0.08506166153645911 -0.017589728089553308 -0.029629355096775625 -0.06152007573691441 0.06326846355542032 -0.00825839135408371 0.005184520013462188 0.058992657358555245 0.08202732772183088 0.0246541018050183 -0.008831202629859841 -0.09329909596718773 0.08054625270449567 -0.005588977174363269 0.03550465111870679 -0.03550578679485826 0.06188795270447647 -0.022081792522913923 0.08603161113829266 0.0451128166745246 -0.015421237494652254 0.08490639471536812 0.043814649625326024 -0.030226878124367085 -0.0033577737366707328 0.020111638605624635 -0.031139597371348526 -0.0032731626228313937 0.0037656763156253825 0.03397816193884057 -0.0767477900450835 0.018143535803061245 -0.002379331521330408 0.03267508351088619 -0.07188297900795096 0.09582240705296463 -0.04057331755408014 0.0255848898977791 0.06587695528848028 0.04976555085424797 -0.05913436069404055 0.029195292320015637 -0.09845019084726517 -0.09485891682875965 0.04675668491057386 -0.035835877305020344 -0.08875234623461432 0.08866139418268393 -0.06629674831803115 -0.060976608562391205 0.03620978985308626 -0.05837402439597826 0.06797740576916322 0.01609680041742767 0.09121571774981532 -0.0038830185024470443 -0.07326814948084233 0.04155982921636173 0.06534222618718025 -0.005472657080337756 -8.489295249230477E-4 -0.059483163049982093 -0.07113596301595902 0.0776377575762636 0.057961305815830005 0.0812949727970256 -0.07655054998868066 0.01881698077592521 -0.010447596349163368 -0.07569355681720805 0.06346323665061096 0.02503667980649582 -0.08637872859024259 0.05055035621572143 0.02597007817884936 -0.02055927632541897 -0.08049567289342759 0.08861331449192522 0.049854444335799136 0.047952619140024244 -0.0820153870794407 -0.0874361378543783 0.034768480068043395 -0.04311381747895731 -0.02150602703744578 -0.0424927250774132 0.02152075633517969 -0.05002704319140723 0.09108778059739817 0.010096007853176006 -0.09991352073317701 0.09977504593527678 -0.07506817648399705 -0.0433551691426978 0.06360097904178119 -0.008604566966197852 0.09529554191607617 0.012453281319101228 -0.09489502258938164 -0.04943534434503237 -0.003092881574424361 -0.09191598577883482 -0.003815679750579795 0.0643306256468589 0.0950900199612233 -0.07159607825006203 -0.06590100430331369 -0.062119078427684854 -0.04893480940366926 0.015285110737777066 -0.0555619914308162 -0.013742891148474295 -0.08537123360355903 -0.06746104639562861 0.09276801808129506 0.07155108058392001 -0.05770196003020962 -0.021835088093886373 0.0723330277548436 0.0584243673341133 0.045738676478886714 0.08875120198123165 -0.022762850512359295 0.036551047689107136 0.044159763861900875 -0.06961778997223567 0.08645000405707207 0.07847045941082495 0.05143245737240382 0.07789844913897448 -0.015890940764692607 -0.09808414366896066 0.0466925223730604 0.09794606494161648 0.024233794737674993 -0.0026384560334059004 -0.06289116234687837 -0.079670276747091 0.0973430197467206 -0.02100737124952355 -0.0054590542630659905 -0.0047531710825396145 -0.035964585807313126 -0.011536804108674595 0.05889055376342081 -0.042349682156018115 0.02258625680850236 0.05042392882080163 0.08362156971123919 -0.037674475215515174 0.062402893594275116 0.052209457635469886 0.07978898756141015 -0.02438799800269796 -0.09266929009604419 -0.005202418326985703 0.0978147526023175 -0.06743509038423089 0.040071445796846517 -0.06009386685493472 -0.07690910279439561 -0.0014005916245715677 0.05411456591373223 -0.07631718272444461 -0.06896826836611714 0.06763656291555759 0.043851317164181586 0.005031680833922747 0.046230881264918644 0.06441274451559673 0.09026527236846801 0.0032343936811704 0.08145384745304243 -0.09359432895581671 0.09830538171760464 0.059115414606188105 0.05836296574833505 -0.09916474973781793 0.020359888566015935 -0.0839517915193949 0.0468328980896309 -0.09561242942278472 0.0024122431543918688 -0.04997518935555428 -0.09759076466638897 -0.005438798412229717 -0.03879969259273324 -0.0010750791923480885 0.05706641150359407 0.05317836345911078 0.08926510580682889 0.08336477319921035 -0.06239310850077269 -0.09441397042513525 0.024645655244236606 -0.024239158759928423 -0.015766453468259584 -0.09887901440498147 -0.06677342389538488 -0.05571255145119148 -0.08576167461010675 0.04504852526065725 -0.07721276257461529 -0.07988464238804333 0.055923123352760534 -0.09683051739225573 -0.04527142494180379 0.023995121395991734 0.014196457839841331 -0.0028353106583686727 -0.06370757011451311 -0.02096392118585491 -0.09556879982205918 0.09718408250477803 0.08700777836360596 0.020440153344849443 -0.027321202224487265 -0.06816540774487974 -0.07130629418524954 0.04555400695520359 0.016439932617947642 0.06073263718500532 0.010214892653125418 0.0768427871265461 -0.04604715326821978 -0.048182949117112545 -0.03567708707693036 -0.008226411973961512 0.053392898387161325 0.09703175679592804 -0.07459198347049421 -0.07957894424631434 0.07081792425158412 -0.05512594960555582 -0.021311734533624185 0.09614083713991384 0.05119567633030642 0.08975949196338989 -0.044361424988434386 0.08783867082920996 0.05649131896120543 0.09187614410189604 0.09231392741711583 0.018920148085635663 0.05940393094099908 -0.09950352757455526 -0.09487579587555882 -0.080205636789203 -0.015841042003270286 0.07768698130363486 0.007116492624450285 0.05508890545843259 0.006887355579509868 -0.09715420883976061 0.07126899523506591 -0.024190797563775915 0.03670080139426882 0.020060113119946432 0.09278782537224414 0.06811062343454793 0.059159462261136414 -0.07490951842169336 -0.04349118712083456 0.009029015561725612 0.07283399412051361 0.022063843294941612 0.04948739774920699 0.022028821523277717 -0.06893207517077166 -0.01847796155071489 0.0012520574305915494 0.047668830504710075 0.001902500448012004 0.005057466266067512 -0.018862692206740403 -0.003825349795584229 0.029663765160956618 -0.009536179969678038 0.08589336431092398 -0.07269252048196989 -0.06367838900193544 0.07253902520716518 -0.029357741128761203 -0.0991724578793666 -0.08866568215597169 -0.007830069094568404 -0.08949928518384116 -0.06916047397625989 0.08803868780374749 -0.07119434922273127 -0.032754847338103854 -0.024856235971428345 -0.03906684819501911 -0.09490126570663451 -0.06723658122114423 -0.02321536084869752 0.03751029971501982 0.02738704469971312 -0.09821896353928104 0.01624859968918836 0.04243799217480962 0.03922427016488597 0.07750344230782116 -0.008089487070993162 0.08943378137008157 -0.027973171560036758 0.09183919241405128 -0.0196790995635239 0.00556678521674045 -0.09509175419692212 -1.2059178647912117E-4 0.030425193390522992 0.06409216452923996 -0.08173837347362643 0.04654258441090778 0.03644310920495736 0.03341077291058828 0.009664535294615861 0.04769844450984387 0.07149213853167696 -0.031042690448045918 -0.01981097224913078 0.03927850156754181 -0.026364860777476268 -0.09714092462289868 -0.020082338568129854
0.0 0.03540006090902989 0.05141364574220603 0.03993511377798123 0.021373344689223667 -0.0279782236742475 -0.01440805483969157 -0.05833403398658479 -0.0767774199089685 0.06674265771318866 -0.06709361071516262 0.006980696046428425 -0.0796753261398227 -0.08852474657751518 0.03844341682074515 0.024408564539445787 -0.010971732718007762 0.06124613521042799 0.01956440102606824 -0.02031075328117718 0.06745358667628301 -0.04231191403374997 0.07332457213402377 -0.03620230215300989 0.09083047065254066 0.04334098219454188 0.05797502313890107 -0.04601760620197451 0.04099165510381628 -0.08457339898350712 0.004505660872007891 -0.010886263727568984 0.07757059774808034 -0.06474282339719582 -0.027841749228824986 0.0935130153211752 0.02173208939697925 0.07268681317314751 -0.09043133326642885 0.06778123280575901 -0.04391551005163286 0.04073859455249618 0.05486066645369206 0.04740746791111222 0.05898856632333763 0.07514866879657303 0.08149152575393073 -0.0848995856454716 0.04261170904299863 -0.06933320349752391 0.0037043563668412716 -0.03666443721774318 -0.08512308974317886 -0.060757771074748675 -0.03333079084875264 0.07552000427621688 -0.0617322630520024 -0.017295339439443197 -0.09720847780897704 -0.035861224777103684 0.085800424423116 0.057218227751461265 0.06906530533343189 -0.06405857368487816 0.006604249457100184 0.07535299890763733 0.06637740606989798 -0.07841968276059069 0.006225968546130015 0.07754258963244057 -0.013903123061832057 0.023534927973098918 -0.007834315206427772 -0.07093531461173981 0.09795501675287935 3.0425309227678776E-4 0.054908749586777855 -0.06749040300732084 -0.07344716915533891 -0.0515941383010171 0.013585931466784995 -0.049467754549072554 -0.036432640822635254 0.09777499424166461 0.02364694413985502 -0.08326699195136436 -0.03262566632361559 -0.08386508722189286 0.06483557576370058 0.04416694741249316 -0.021212515741676097 0.0818444123253344 0.06783768515485247 0.09407410501300745 -0.02963961487851162 -0.08180972761554557 -0.020564556374072354 0.08248350086854464 -0.0983830554887132 0.026618794834040088 0.0953129763946862 -0.018967583627747253 0.039271027120932445 0.03563589066467068 -0.02390486271178821 0.020012218965451467 -0.09778240275945896 -0.018618011924552536 0.09527312469705371 0.019144205829021516 0.08659686931446553 0.07777585133728157 -0.022246185427825776 -0.04959679887252939 0.080412355123467 0.06437267820480172 -0.04673596938893623 0.08775137172721967 0.0747062370065455 -0.0033947619958736575 0.05323084533639377 0.0341613224455696 0.08475767344660282 0.06521230511283885 -0.0792124723912914 0.0013656623064649681 0.03324579587845586 -0.048182598107952807 -0.06863451978761122 -0.07660915337937274 0.06663188189838129 0.08415360560691656 0.009708330505222032 0.025173525608111813 -0.06530038735776894 -0.05622464708002744 0.053384228493366354 0.06080187017571778 0.09596477097270889 -0.014033310297996399 0.01758127962885822 -0.09722301897481703 0.0252015269101023 0.021294522842056282 -0.08216928469980622 6.367959515062721E-4 -0.09524031842799592 0.021431900179754867 0.06644256851025412 0.0062952406493976265 -0.05160181124965771 0.020906004375292525 -0.02326186549150472 0.08236672098057626 -0.07304428411782948 -0.07360709687772614 -0.08673292477225646 -0.09846544596543393 0.08656161523373643 -0.028053188959977868 0.09333552204665299 -0.020670525830139272 -0.09002909517585563 0.03617881654023239 -0.0554617511068793 -0.058375447573272114 -0.09651272843278176 -0.0428030480997206 0.024705094918166026 -0.04167152092172271 0.010828836804504124 -0.07533077483593581 -0.08432028017873927 0.08183617079245478 -0.0477951848158291 -0.04089375533106903 -0.04575881581258193 0.011320307636593585 0.07144597693074237 0.03600631218160125 -0.05163524710581434 -0.01428604796684943 -0.07255589855595464 0.08172962583912707 0.021898133117463595 0.0773044705076412 0.09659112016847163 0.07241426564427084 0.06483984271256085 -0.02603853642114949 0.026532630616770386 0.05583755069755375 -0.022565662788227983 -0.08100858505158476 0.08647764571855268 0.04443277266503884 -0.09060748633616056 -0.007291327855113938 -0.0942316306654893 -0.07114878931613705 -0.02900634522453116 -0.021699239339774204 0.02952454274410643 -0.02598653251101267 -0.009367866916906387 0.03375595112390786 0.07037035020357216 9.044424941643397E-4 -0.00778994593009763 0.0920251424413488 0.0703774946188945 0.09345507903201886 0.015590693208208176 -0.0014379422506126116 -0.05367497287824159 -0.04547671209772704 0.05247622508898711 0.08646897622349073 -0.048530370234713745 -0.03383023434381127 0.03944767574066174 0.06204147413648936 -0.0868038908298735 0.09728970458755687 -0.08379094209155331 -0.07117974128934407 0.0750094400434983 -0.030240076195254914 0.004923033030953733 -0.09646053231904117 5.730694824398891E-4 -0.08172176296610988 0.08581257804619505 -0.06569713368419433 0.09657469333278404 -0.06995070504214179 -0.012132446737983915 -0.0010025778526628892 -0.07374360801745955 8.622345342549076E-4 0.07295603243626511 0.004055250907057065 -0.011238930596766228 -0.041833549194241745 -0.04462045179571577 -0.011096710343937333 -0.022107466221368777 -0.025881032522439326 -0.05130305514677476 -0.028398900645029437 0.013827674426017816 0.06559656979721448 -0.08296245795291962 0.09076308668387406 0.029318240677151747 0.028154191756408015 -0.07742876952465268 -0.06909976958741099 0.09080594194238867 -0.06346396796297156 -0.08924111575566251 0.09142875369770745 0.013086192497797786 -0.06881799376354109 -0.012345993352867443 0.033914872733132456 -0.05294272912172181 -0.05733392936725339 0.04988290589452918 0.05091768492971385 0.06749180032817045 -0.055461642771228274 -0.06712081974643408 -0.006616316255275215 0.04032673343053664 0.040682542894688756 0.07205442650110314 0.045079403754561154 0.043391163077566686 -0.005881842579297122 -0.04147226526580817 -0.06425072745135396 -0.02174196732590715 -0.005072012857873162 -0.010101979538312267 -0.057424927542534816 0.07352267268005022 0.005421557706823302 0.07538696921985724 0.07212523342098537 0.0998126576328349 0.08504052796671821 -0.01943066860754379 -0.030287766855592008 0.07659352889412929 0.002086405297887589 0.0343649686807668 0.09228788938774488 -0.08331877789085013 0.052603834455825005 0.012177002599602763 -0.04556274414957276 0.05072273384663001 -0.0763596226797493 -0.026859496488876977 0.0483166191903521 0.08746760341748414 -0.05408010696507469 0.04744382825088164 0.07531480288753384 -0.07538137685140121 0.09545878548862136 0.09582952956292548 0.0332093104342516 -0.06779592312930399 0.03195291972203665 -0.014735831848749548 -0.06844456389863796 -0.054506040127336446 -0.03951540846315376 0.05124931006605021 -0.064392811559186 -0.015818479339320263 0.08585513763695474 -0.014210827460623854 -0.08726773405806804 -0.046813095966834924 0.07491173543322083 -0.015569633137356695 -0.0334149608639448 0.0641500386122264 0.060195833268726046 0.010613482117184547 -0.03608422324206065 0.03618751544483645 0.07458824903568376 -0.06826036301260313 0.09308852564019113 0.0019334580334099821 0.012411529833401033 0.09823847124670929 0.04045324598314895 0.05963946489710925 -0.006691846393971565 0.024397753245303397 -0.08661930665329265 -0.039599488776505126 -0.07665308556294428 -0.0828780884673947 -0.01675552038679136 0.06326268855921235 0.08627586793963479 0.044236482921505615 0.001822755255372871 0.049242705421225996 0.010706018524608285 0.027660207490352695 -0.08303018067844092 -0.008277599066358055 0.052197342953235165 0.06817298728510934 0.013977609373455324 -0.005233555606400764 -0.09009540260358613 -0.07473379803475776 -0.04145019351140767 -0.01891683251761181 -0.025366670227920565 0.027929553171258975 -0.003957021610973249 -0.09876685017197584 -0.06629824462515835 0.016486353733598136 0.03084043918920068 0.08544529709783635 -0.05989578205923958 0.004271286928077697 -0.09328929936673935 -0.08047852196267397 0.02650562140696408 0.014779865231327793 -0.02790487538161493 -0.04578173046708592 0.09752937353269583 0.0862248119930818 0.002565544437814954 -0.03625969306024748 -0.06696317425361753 -0.05123970634958087 -0.09516684033460024 0.03956253484484834 0.07182525674640405 7.236091065368072E-4 -0.0316836541814068 0.0903322621326896 -0.004384260460823131 0.09186965337023065 -0.04284199899826407 0.08677383542490044 0.06070269069082676 -0.029030628236541456 -0.03096425403829413 0.06551316321501557 -0.08340651966590816 0.05264684743266765 -0.08192022161010092 0.024074477322382742 -0.038453119896762304 -0.03916741775964275 0.09060975696215803 0.03552323211567146 0.03731040204859931 0.052475747629815356 -0.015590551056725271 -0.047426302428907316 -0.058528231114587166 -0.05874604389798544 -0.0896061731374765 0.05279623803180253 -0.08569831103278686 0.027152437957346343 0.035394935458088084 0.022197247768752995 -0.03548451434589395 -0.04953447091763839 0.025100268912191637 0.07492622350326875 0.041252190362374264 0.05325533257713125 -0.01720263043403336 -0.025974235316208488 0.02987142058767625 -0.01855259923208115 -0.015318733914882393 5.96321931821242E-4 -0.092309808490224 -0.0853534028191721 -0.05409789129928602 -0.03321286745675017 0.03358341718281388 -0.020147131928789586 0.033094246792916615 -0.07121905637927123 -0.09767355066398008 0.015993553498821894 0.008888456165017697 0.002018091925867216 0.07813304397314219 0.0682887541776255 -0.008962592999395821 -0.007253087986053286 6.413056240551912E-4 0.07020203996662477 -0.07874416116958086 0.0065099444327311184 -0.016482101379669642 -0.020347897368012083 0.010830749964209643 -0.026096981855858806 -0.06147786147892005 -0.05739794401252725 -0.05434192126597566 -0.07594152752590773 -0.020080619888387996 0.021755115915974343 0.010480334020654444 0.05526673707187907 0.08234942054369865 -0.015918105213745884 -0.0657649880893335 0.01798825869578602 -0.08638141850948465 0.045657846270983016 -0.07182765442077912 -0.057260527457539095 -0.008075323774065557 0.038270192171592 -0.0020598034713745356 -0.050307491387783815 -0.04531515726555342 0.027381408384117983 -0.04655013025075377 -0.04174073386131521 0.013563381928564627 -0.0962155267161091 0.02917868609365784 -0.03591496434684356 -0.055686003018971156 0.04038425790520653 0.0987593115974644 -0.019698215179296874 -0.011840643813663898 0.07727482339529143 0.06796835285640382 -0.02805936152165421 0.04956548096121402 0.003456511090004444 0.09721046435938893 -0.09411610509170457 0.07939022207791108 0.09388901907565525
0.0 0.09595257300698237 0.05449758946652297 -0.049124427430292245 0.09014151383011387 -0.09272483531364417 -0.05952381974529913 0.012557474087744713 0.06199893213554866 -0.004562450544852478 -0.020992723124363177 0.016229793375136012 -0.07070565818274431 -0.08954069169371202 0.09908252725615574 0.048206837216035275 0.027896554793526346 -0.011878335137930865 -0.00765437873864859 0.09542703509963915 -0.0738219276037351 -0.08199619626935661 -0.04724213197806591 0.055920913301520464 -0.068985008741725 -0.015883596743097278 -0.03164672986193201 0.025827184264853364 -0.03267507703102368 -0.016192787251565796 0.06853247529419015 -0.011046314017970016 -0.04759499781632997 0.006823342211352848 -0.01723078976675954 0.021215580454486987 -0.003661303271564137 0.02662971334688305 0.011874887214133378 0.054641362425761564 0.07283289525572814 0.06387130331624427 -0.05569931418233492 -0.037766586538984195 0.018074603276191425 0.04362359302541394 -0.04455074763984511 0.09491111648091075 -0.0727591232532287 -0.01719236725413252 0.02393275558889786 -0.09389196175917852 -0.029954019296232454 0.06784228513838617 0.08575511476735681 -0.08759343580745566 -0.04418518388814286 0.08546441567435628 -0.07929712112594188 -0.05836282898236734 0.09366975604572392 -0.06808153637810005 0.038106468934632154 0.04954081838340865 0.00484681765428889 -0.05482164882108887 0.06094729975786545 -0.04166198305461027 -0.06795427716342012 0.09528547639132698 0.08081551337679782 0.053939749313017454 -0.04520488682477997 0.06609327440449214 0.04899717681862942 -0.0792070158293919 0.07869842515023898 -0.026737842104104514 0.07230740114887635 -0.09794317327457479 0.029819962376767317 -0.06925042177432002 0.042811236383408696 -0.03554953662200505 0.012214823443246911 0.031186902797500388 -0.07874273058934543 -0.029428948748632167 0.09452134955824928 -0.09204204493706605 0.06385357560040628 0.06184878007227859 0.03541729005640007 0.09671270029599979 -0.026026105879181416 0.08068312316744414 0.08196200789026326 0.03306843997970199 0.054027700136721674 0.00931582254752418 0.010679666886600506 -0.09552376922243283 0.09623586145958621 -0.00831594897930428 0.03159304931426013 0.03325536043384819 -0.0741365391275828 0.03626974146345807 0.07047312247096482 0.06832070798533829 -0.0719206921889774 -0.08250461776029122 0.09288859354412712 0.036862184895129435 -0.06548260998221911 0.05208017850908869 9.040140992656875E-5 0.020776560432394064 0.024332801166508267 0.09860391712499697 -0.001499344268303296 -0.012037718635546257 0.07383618356447413 0.08036052686479217 0.058472394917559706 -0.012305170728793668 0.056532872212979285 -0.09292382284251122 -0.002253388423312408 -0.07103334585521576 -0.005053305954145951 0.060500295527501 0.03633065404336164 -0.023083671422961402 0.04889974128267574 0.044014922218449215 -0.057399656351649946 0.052418227011419655 0.06724093165096115 -0.0890735579911005 0.06160230251941126 -0.0829461647029765 0.07517967288489832 0.03751483115055987 -0.0033755047713301956 -0.09357880721759688 0.07827870609096974 -0.04895048725580778 -0.010949663756359446 0.007474098008219132 0.07833869437220631 -0.03180389609071768 -0.05773726444774714 0.05609479218955238 -0.01301518607000339 0.01052061131103782 0.039322951017071145 -0.012217755917733164 0.02098555779377495 0.09263372477495677 -0.02628783394158328 -0.08638044787288242 -0.04274973534924247 0.00824109893301507 -0.012081587491078405 -0.07361296478138878 -0.009970385639502574 -0.056014332516187995 0.08877622126732379 -0.08225271822252643 -0.09069229817892357 -0.0070340981742853526 -0.06080673544095157 -0.09246663678719327 -0.026916989186753587 0.05967638443642201 -0.06651439179872334 0.09518498667155437 -0.05841958929302925 0.01645726131874438 -0.051009099596810506 0.07543877955055522 -0.09420982785778498 -0.020114415656197038 -0.07569801260593795 -0.08181050365329597 0.077509317072916 0.08528230747702914 4.894693813385781E-4 -0.0791225194270776 -0.05823580917352676 0.059248049556757054 0.09279874221722587 0.0677951038244601 0.05020533903282082 -0.07401719986663857 -0.05816952440559589 -0.020378171417708535 -0.0783008500558148 0.01532415465101715 0.05590707834432451 0.010448242478326875 -0.06903478637827135 0.03567703191400823 0.05992401604111719 -0.09251016658672671 0.08320009557309724 -0.07214996518033645 0.009017344634890012 0.038061256213130445 0.0667897568714361 0.039599464682511104 0.010395582540601953 -0.02181948169371245 -0.09682774864772373 -0.09236120038948288 -0.0656333422337073 -0.032776875860676416 0.05275744272663935 5.653688438918142E-4 -0.08138244787591793 -0.015424689778964884 -0.0129024813913802 0.042786178076269415 0.08669822968266297 -0.030464881577263972 0.03354494298492314 0.09778128530257787 0.0536122718470082 0.0881894110580165 -0.08986246071741166 0.06772895420827418 0.05469204422301649 -0.0974584648458456 0.04774630464330404 -0.010561662280289708 -0.04099013354950161 0.07489354541773902 -0.014171594437229817 -0.018146412206092838 -0.03938536265387525 0.009590183289842638 0.019153923171330994 0.09109773484044345 0.0739902542256268 0.09416527184223045 -0.002475675653607623 -0.08833536401942702 0.05237471873396615 0.08454153526364039 0.03515128312638874 -0.08273977796928836 0.07660765809089212 0.04521670116150148 -0.06183161624112446 -0.09984960965223906 0.055016152573880456 0.07047443022220626 0.031491620356224104 -0.05403817941044576 -0.025809063079723 0.03488200431932975 -0.06672109527590545 0.06531726508022348 -0.05891542557578221 0.02121929344363986 -0.026669183142940978 -0.052208143392571585 -0.09046380796517861 -0.013476428744035304 -0.09933815374302929 -0.012588318969902701 0.03707001922004072 -0.03387551790091514 -0.0789976331093145 0.061746696570170595 0.013285764358941632 0.078995019904083 0.053099868899438046 -0.043481737355518975 -0.09974430671918769 0.027608856048492753 0.03591555681620434 0.020822451119975105 -0.00393948855022995 -0.03805396168101927 0.006868082245324175 -0.07957721776126024 0.051319611996266695 0.05544979978065975 -0.06284946146510291 0.05047405540718522 0.05054038257483878 -0.0655462320068696 0.022467686977377818 -0.09776748427632638 0.03846546125583647 0.058081090839898986 -0.07778059321629105 0.0359773189979154 0.027838033076016372 -0.06676982143198679 0.07164582641852849 0.009152448650238676 0.054243662167209133 -0.00871411677031729 0.08921687811153595 0.00887058494796733 -0.05175767438330657 0.06377121971666083 -0.0418724213455836 0.07592784881624956 0.039106392468554074 -0.08580346876285408 -0.07569703101186841 -0.05707692356597165 -0.09892696228961612 -0.09584910197732144 -0.012121477032777286 -0.04237676983284207 -0.05830883135866381 0.0548492770055905 0.0316546723839847 0.09710434464620704 -0.00809719390714897 -0.027099679322849568 0.07352222401057679 -0.08554479803201945 0.018861186247606743 0.005637377817825223 0.0557918727326108 0.0396986504355136 0.02645862216414327 -0.06773106411945114 0.05760486184777083 -0.01894400601208107 -0.028219052498803257 0.0038013001249138645 -0.01858939163006877 0.01859026896963678 -0.04660647908620812 -0.09744040430605805 -0.04250461126836751 -0.04966593648743634 -0.05207702454263934 -0.02546092167067092 0.019915050305756576 -0.0741254636747165 0.04812667831824022 -0.04220745913129858 -0.05965575929941996 -0.07966773881618666 -0.05039939047012161 -0.01708716180516777 0.050799287527109716 0.027467485413351506 0.07654221454549026 -0.004147136551966621 -0.07855555417592813 0.08064098308114914 -0.04899867747168658 -0.020471706305336443 -0.06804146911633138 0.08296178126444137 0.08421112608218767 0.03346490831201346 0.09102230818728044 -0.07090084561485883 0.05363288562335278 -0.0821832846513194 -0.0726441691675529 0.06501252096477309 -0.057292701191205025 -0.08024248276562994 -0.07883697574800207 0.03846236330759556 0.044657006044788145 -0.07381104204833422 -0.08264461070065757 -0.007224177625934705 -0.09450785400070655 -0.025484142907646 -0.029790692932165463 0.01848200330194444 -0.06726962365211142 -0.021428415660866715 0.06103507784466225 0.09283237341504066 0.02425515825737236 0.0917349001510526 -0.060434584154670026 -0.001787608314178235 0.04011305122715861 0.021683291221811646 -0.05675401440665183 0.08398935733838059 -0.019392871445740936 0.08474393247283518 -0.09982958156729312 0.01947812971879692 -0.04191623226229269 -0.026327568000609605 0.08633201171624402 -0.03336743011615338 0.05726555670562286 -0.008440919536636532 0.04846036578727633 0.062331440422593726 -0.03880715514874254 0.01962155098162867 0.0736563163298545 -0.04659894258618656 0.028063364948426983 -0.08910080095328524 -0.07884504306707063 -0.06375210060350392 -0.002457435507244185 0.016904367345090793 -0.0751446546369011 -0.038379650191315 0.004236478185946496 -0.09397890053846236 -0.08767158145657838 0.020222210991812026 0.020011923105172497 -0.06193510052029304 0.09216442022529253 0.0993231760150875 0.010351210481321704 -0.09633378198109013 0.019600245429497454 0.0065280874511417925 0.06435543227519272 -0.041036436652442505 -0.09457028522347558 -0.0844594752929519 0.004450294288172313 -0.0685693017026058 0.02846443181202654 0.03917112751913249 -0.09995945895397812 0.024522650366911827 0.0843329318677081 -0.01972149997006621 -0.05333799146648484 0.07518816547418 -0.00778784208863155 -0.0641425510471025 0.08108767615942508 0.0876904161993608 0.09421180725151704 0.013966694259921489 0.0269927863973366 0.07685424949611128 0.06472635074100266 0.06266880137890199 0.04140294255990129 0.07026469246323797 0.056862505681890246 -0.021625536360405387 0.0298233758652571 -0.04877453051361498 0.08785510388812831 0.045476949529362015 -0.031210682500653397 -0.09177530072586648 -0.09569647259632437 0.006081040899811735 -0.09820335565382057 0.005292969631607761 0.016238109346457724 0.046782010210429936 -0.0672159844848666 0.08345564858820709 0.06097638061937846 -0.029593890591834107 0.037139065015020206 -0.03459284609103222 -0.09842786488471506 0.03829783551739163 0.08147085532812093 0.07196456756443476 -0.01926194244295712 0.0676579930246426 0.04675367998609334 -0.07006861617903429 0.09218394875688765 0.08297238658095521 0.034456614688428894 0.06533116246893858 -0.02761396952432782 -0.07655517988473273 -0.08783848598621868 -0.032506873168032316 0.07679054222420884 0.046873113949822326 0.013808161035640032 -0.06412613513469707 0.010138389176628293 0.028994593928470785 -0.09336750586309783
0.0 -0.06333795354738814 -0.04406652540841978 -0.07035596146226382 0.056082648264136364 -0.07175796833432524 0.01945095844445005 -0.06950168558381405 0.040382041166537375 -0.024794592931663112 -0.04410179873460039 0.08983717463426291 0.013256202128593061 0.04900312174235111 0.04299352332282827 -0.020162246769491174 -0.04152656438834748 -0.008366082816474774 0.09743194090184329 -0.017793655998980695 -0.08645001104616608 -0.04561577298392301 -0.0414224656370019 0.006516067704451053 -0.01792048575719668 -0.066403098011655 0.04242402928405789 -0.02266639565139353 0.017188566437767158 0.06105871977758551 -0.037129378706026644 -0.06684065549324146 0.0588609624509574 0.045235522908603165 -0.04592581903365163 0.08594744715553726 -0.05902361029898642 0.019736942614522454 0.0352561233885437 0.06522624634035704 0.09750732707014101 0.06408006895525498 -0.07297438820860405 -0.029689222251233216 -0.01671158483429168 -0.09003036720370763 -0.019567858666688143 0.07425202180420357 -0.05973933516030723 -0.096074333872335 -0.048960076472733885 -0.03163892036129748 0.0639125240244113 0.09775994821374087 -0.012559988169128844 -0.028436271330812946 0.03323075488953664 -0.029074877571621027 -0.028974225272414916 -0.038242380868142384 0.05002406732515444 0.032839619546506355 -0.07220864098874374 0.03696972208642388 -0.09678185029529746 0.010962151940277498 -0.009575367992939482 -0.07061203274478772 -0.056851208651453905 0.0017272302059723604 -0.04205184958300144 0.06998571253007241 0.025346693545851284 0.07721674946191029 -0.0976142287597574 -0.0978715078728945 -0.084447728975044 0.057889195177286884 -0.028680723052565305 -0.03877928914605611 0.07379508102645951 0.046759823106463566 0.03138396673166374 -0.07466886795976278 -0.08137185799178322 -0.05723861065597083 0.08499083362019602 0.06816585295899594 -0.002640607121555033 -0.09748218170163131 0.03586426496716966 -0.010418402991638903 0.04659757085157348 0.00828932478532074 -0.002641920147087154 0.024587315277309896 0.07642584097199998 -0.020239666443423232 -0.07433276249727304 0.08117482661664108 -0.02041641411513849 -0.047032563230174004 0.03584179323732967 -0.011192429707735999 -0.09712899475105193 -0.08372373617931002 0.07293236978237627 0.06617108214708153 -0.0012794244833799484 0.03988345848085073 0.03478742968998991 0.009605401023501103 0.021596825594599536 0.09058412062076726 -0.0032132727208315642 -0.07711212408207013 0.07555444687638771 -0.02969718650678893 0.029562597367981974 0.06377463702444658 -0.041742118185312975 0.09403962288193377 0.025012173433160173 -0.007820607689972489 -0.09453360729797596 -0.010373780342082278 0.0015391091573311727 -0.038274427455696605 -0.030103007130040993 0.029768937292491887 0.08237930576074368 -0.023363027305769515 -0.09344492077173137 0.09414575182773835 0.08480273461937102 -0.03258439932981619 -0.06778046188045238 -0.049639461836121765 0.05865089547372043 0.010619471187766336 -0.05311331553527237 0.02605290777773997 -0.07304018811664939 -0.07097102121186045 -0.051438376005487604 -0.013085779604012901 0.07236891325324357 -0.05917289079542905 -0.025657223186272712 0.051607801904879874 0.04877244347910001 -0.018402952235675812 -0.08967231190876133 -0.023058546488338605 0.0122049534038714 0.05082604607713431 -0.07063903961922542 -0.040953963541345825 0.04047671620331908 0.012256587326755622 -0.03111244374094442 -0.02882810789854301 0.05838201934932866 -0.042176971138212685 0.05092146292767963 0.03080334193733214 0.02950563485777899 -0.006429836864751806 -0.025649494100718484 0.007554060668599816 0.003985566786265174 0.08849041012855322 0.08264276138021165 0.058584114345703014 0.08476039546714689 -0.07230692068183782 0.02749054205608792 0.06727601271119613 -0.019410842239033277 -0.07627582128645115 -0.09636251512487176 0.03218578244854958 -0.08330228525143749 -0.03545700257193472 0.028469566778361932 -0.08762076875713834 -0.023095926922257468 0.043327594853796225 0.053175241708107585 -0.028084143968804376 -0.012549179122320744 0.01302440889438189 0.08908446322467875 -0.07964195062679114 0.09449098838193307 0.09789139194015536 0.08120409631090428 -0.02704754942992854 0.06583201168860481 0.09552324943617294 -0.059054482049933826 -0.08633734604645371 0.03219787666652921 0.07791724472620801 0.0025060801581180403 0.08612693828797313 -0.05454360139065002 -0.009792931284877751 -0.023108615939203575 0.038292413008316456 0.02754076107847314 -0.07773828700319307 -0.08991691509969531 0.006588655009875322 -0.09739429254673648 -0.09968186847724632 0.09320851836918884 -0.021692163466187353 0.03234750030864997 0.03327433840755337 -0.015135888346882398 0.034246233342366705 -0.05992981335927497 0.04576082128966488 0.02559825558586995 0.0018027573412157938 0.025930275113518114 -0.07946914903856034 0.0038595373494672014 0.08844975091833357 -0.05288784971793088 0.09875849480851237 0.023507524635567267 -0.0114895350088174 0.025267802477300705 -0.010042143141313242 0.0229104225473295 0.015203871494979967 -0.07988578781924444 0.0553085073136321 0.02943388322259538 0.04557504181433744 -0.008197278777926892 -0.05995108153903886 0.01769260006616559 -0.06272825113858074 -0.02801668148654793 0.024871642424147092 0.022901880465319727 0.04336654288070624 0.05354723418190288 -0.015623612142171658 -0.014117011190798293 -0.03371856572379306 0.08193174358465086 -0.02539750276870012 0.04957205744052423 0.07340026325612906 0.09089120595239755 -0.051276043682132746 -0.07481259210315859 -0.07307052137856258 -0.08950257513515969 -0.018450119265856824 -0.09246696954269973 -0.07252865703395464 -0.020473043199062874 -0.0178650877277281 0.06916461930994577 -0.07591449619704745 -0.0901380656495 -0.07560751537138458 -0.0821093098753267 0.03097680164847727 0.01956087600824119 -0.0532098201924034 -0.07382073642812269 -0.01850279852449664 -0.09236584964966305 -0.04576071039356791 -0.06834758713103806 0.04834319870814363 -0.009132126960995954 0.07469713651871274 0.0023875105600383584 0.07095756164246209 0.023188084556776345 -0.043850526441029006 -0.09048759108861698 -0.04544970248762275 -0.09177929819950836 0.01805306031313747 0.09128610669339796 7.665905413403173E-4 0.015422950391617465 0.02692404995450562 0.03405997048356321 -0.05889116045537278 -0.0030835488353464363 0.06596210734785268 0.06402318812619506 0.03763781382473111 -0.059032893160888805 0.011940512367460243 0.05193988934229549 9.196214356901322E-4 -0.06174943506735389 -0.03936358708410835 -0.021712146532478604 -0.015757550179218482 0.07682437128508668 -0.08216306524770867 0.016870122027165174 0.034643241881199105 0.0030670426409757923 -0.05224596472644956 0.03811610907064844 -0.010747482195201441 -0.034629036892633885 0.054634123104518234 -6.311702674987596E-4 -0.029320875501770163 -0.07970897861047802 -5.192276304528121E-4 0.058586722041990336 -0.015110278642955055 0.027635426367223548 -0.025472585873193773 -0.03711570262018776 -0.051481001124083096 -0.025664062837955248 0.04922495832553167 -0.09499017326130406 -0.09229823033222849 -0.09943971697223436 -0.05852684188759234 -0.045013364793142205 -0.018839726954462704 0.050031360992601054 -0.07986423070921962 -0.0730440064352471 -0.020362975712441375 -0.017407122571115152 -0.08101964574033965 -0.056262887595500806 0.06354844580574118 0.0036252592729100197 -0.07629313557211066 -0.08532861765345641 0.016963223691247586 0.09124249467772541 0.04282140305152482 -0.01809743118970722 0.01470998856867338 -0.09752392790764444 0.07836528497526249 0.08123197920270842 -0.062280765455757676 -0.018542156755123107 0.09147946584227304 0.08473963963989153 -0.021865817140755472 -0.04345126866297749 0.05420349614220438 0.08112722215510615 0.05131812145861414 -0.0011878191177190356 0.02984459907767595 -0.0331848613823163 0.032428341764715235 -0.016307073043264952 -0.008901483185452572 0.09494223397013282 0.07079923696750035 -0.01588337831909424 0.06934704278812756 0.0657405076340574 0.047920884168608846 -0.018695959810960353 0.0648844037191866 -0.06050704637193798 0.007596911823958399 -0.08745766500201387 -0.011557250762171511 0.07771243606357314 -0.0779109774225429 0.062046133556536015 -0.023504775167076664 -0.044699140741161575 0.07300465894462324 -0.09905450348088041 0.07509887786604885 0.019130493000852233 -0.01777422912557132 -0.084204573319491 -0.06036652349677406 0.020408043689691013 0.07763040353652087 -0.0029131358779514865 0.043092530381376115 0.009073286358515384 0.08040097348524658 0.02067041657988819 -0.06303802531304914 -0.06543590534114524 0.025445736178001416 0.011874351264369615 0.005562154495754534 -0.02567392197415891 0.07888463724600017 0.02259959843334096 -0.08442576718353445 0.026222911688113776 -0.0933566225111831 -0.002610372852495324 0.01904617085183752 -0.06587262167712396 -0.022808092528232043 0.03648509829028099 0.08172098968160069 0.08345274132322719 -0.021671680090702403 -0.02957872920354554 -0.05916510898745185 -0.07302940229727904 0.08484523590236973 -0.0521957222648082 -0.03468379700249191 -0.006275556625304754 -0.09212821185971701 -0.017806847153050975 0.08035033578239437 0.041787262956088644 0.010660222813830542 0.05042935463264156 -0.03477630040473473 0.08182343023139971 0.05270505714537177 0.06099535097787068 0.028801213283468408 0.03139402463937413 -0.04095449749807166 0.09222097140873156 0.06717891735045198 0.08545910696371611 -0.04540740192498483 -0.008094558800306517 0.07009435608879597 -0.008679780064822201 0.09202889054787528 -0.06809011013143614 -0.06435083917293578 0.006170425511397723 0.0049983173514186185 0.044774470574569736 -0.07880754173226022 -0.020033459035429413 0.07554057635668607 -0.06946297219346992 -0.0041945078389787754 -0.05068194723933557 0.05375801736870703 -0.04234352516386646 0.044763403881788455 0.006573160451020202 -0.09025077705448066 -0.07131413474123681 0.01816542371582372 -0.019005706513554474 -0.016932333392076726 -0.0797311389698609 -0.026543934759106505 -0.007811307836621095 2.6011587658969493E-4 0.07336943054373013 -0.05572041585918187 -0.04385853401820142 -0.049224131792843864 0.07472134176115633 -0.05677620106439969 0.09846553716993078 -0.030468985179303146 0.09400746547881192 0.010544600454423639 0.06814378221599351 0.07481036702617791 -0.08013830144085798 0.08437121545632517 -0.0349808916015234 -0.048180047730280576 -0.011910882171728338 0.04872758860641993 -0.07283589637020858 -0.04578960263491539 0.07637658076744216 -0.057249981793263266 0.03513687981724664 -0.0914643941138159 -0.0497754006559098 -0.08154828732773584 0.01483367378223234
