0.0 -0.060416125490303174 -0.00794237647582098 -0.05483525518118608 0.0932703159380386 0.07604782349258711 -0.005007373800196906 0.08736809318389152 0.1405544371707387 0.08927290246708437 0.10567399887237457 0.07481592969500254 0.1482029047000165 0.06040428651627399 -0.03136293908823786 0.13979687076465108 -0.012410532483615814 0.04580136419219505 -0.0036811160295320542 0.11856434368081481 0.0651643450865151 0.09645815022310408 -0.009544947241669714 0.08440930976822088 0.07724090753432533 0.08665006854521089 0.027988678132932508 0.03229282743384592 0.017348524452774062 0.10523678398326733 0.06613866359590423 -0.01689400165697962 0.1089104032146372 0.020079465652523245 0.12402460069018142 0.11413436329279429 0.07483608376109536 0.11530029459309997 -0.02071427738153216 0.005220595850500455 0.1262475344866495 0.08553241104491476 0.09560463425481813 0.1129362890080769 0.02027287238119893 0.1308597634821743 -0.03647507746082711 0.06065737130069634 0.1210684104258612 0.12461674897526906 0.008761640579799612 0.0022777440502670452 0.010611118258906009 0.0474319159930673 0.12879412952514133 0.05156434399416441 -0.03336801619054113 -0.008225072342698907 0.02218434909347397 -0.023190125498261355 0.05304359492966038 -0.026206021972235802 0.014020050053047933 0.14087538705584626 0.11171781721020153 0.0739007344106402 -0.00544275085255934 0.014900270430164439 0.027264272341915755 0.15208868659584926 0.09371139988365966 -0.012041496650768986 0.09660690838466146 0.044902611077819995 0.09579025552139589 -0.003972335332980473 -0.016456349367628582 -0.011434131019372053 0.14043291140716896 0.142350912428617 0.02191322424469796 0.13969469048077424 0.03332869250620445 0.10619976823114816 0.07176868316519856 0.13612391705191448 0.060081962080560505 0.033287796060341796 -0.02899400104640988 0.12204312316038485 0.044360882910204597 0.01971733750973889 0.016622124457627077 0.0999911131643004 0.054620412106123846 0.09638829715617662 0.0012642103827353833 -0.047349668353994026 0.11240545428829773 0.1472760941316587 0.07024836196231192 0.0064450576330382925 0.1376215955949556 -0.004671767163735699 -0.01373627158004317 0.11408561987954213 -0.02986799919318452 0.07246898779281269 0.03554896045068404 0.12821458132616792 -0.019759153654035022 0.12878122664169805 0.0814303222470263 0.1275129296265185 -0.05351933937632978 0.08726402607357267 0.13812285145559344 0.04433240648102167 0.03536248032713496 0.03977072603389321 0.11507468591015024 -0.013585535073889538 0.1067555812300811 0.04116410346272809 0.0961447751652889 0.05117717395770119 0.07397125238983175 0.08242639317293492 0.12385134173515765 -0.02847633876272706 -0.005549023619619173 0.07337298591756015 -0.04867575996192265 -0.023423124418741715 0.03497363244622324 0.06753155953507878 0.1384260573997725 0.060900079110103984 0.1218277855737318 -0.02057278264140082 -0.012133433794380906 0.07855266685595824 0.06488094167502587 -0.036977344444311 0.09641084080665749 0.018213892031633993 0.017165848812879317 0.027404132846207706 -0.04648297455093036 0.1365962171393218 5.172588714613642E-4 0.020507128732494797 0.07236237392655438 0.037112353915885035 0.14473160990761547 0.12309534798005843 -0.008519137381181733 0.07244733391079698 -0.041950764561533835 0.03495331572544199 0.03940767532861917 0.14268525639413124 0.04014168089440204 0.08538671615328004 0.10895527678119406 -0.04430323386660764 0.15060054261165043 -0.043763641784875476 0.012730150333139198 -0.011844376610763709 0.08572044515530211 0.04149784184731607 0.13410387291496956 -0.011052806036169396 0.032201544313396294 0.1292811076047435 0.0034065224092720506 0.037317275306407965 -0.04330942229310721 0.14433063066109134 0.07355441377936096 0.13316208071702565 0.06449375904010529 0.07834588488693378 -0.03963010719476234 0.1353184208015903 0.00903805486088304 0.09410222155311262 0.04205617587989136 -0.027254388385279087 0.06406879967902902 0.05895618474871689 0.1224338408002786 0.10295463619176935 -0.052906511914775946 0.08503494656682463 0.13015676438742962 5.575326891940065E-4 0.023462192410311836 0.08255575016088423 0.11652179646342561 -0.041610212114545284 -0.05250435085295809 0.04124122355453217 0.07744468889638284 -0.013251532174137345 0.017590372837729667 0.09557428224119026 0.007227974538241836 0.07573039739588545 -0.04014006167722689 0.01784211283969902 0.012409199369649158 -0.04494350953972306 0.11515270070098434 -0.029774514873055033 0.12832023826454936 0.08014737629330493 0.0010190966960515863 -0.056190071186184236 0.13481709800778466 0.14470181814649097 -0.007952665323536001 -0.03647829081174305 -0.009969313921212567 -0.05469438119226341 0.1207990978590591 0.04977975551040291 -0.0014395632206676268 0.01460225115846873 0.05187374719758826 -0.0311227735527668 0.10118197534179034 0.0674285517554478 0.0836385319234593 0.13576923430163879 0.15495477121751433 0.035088429538695017 0.10581879404680705 -0.029385764644020505 -0.04803036504849733 -9.977649450443212E-4 0.0070018973585998494 0.12939303263766394 0.049382133353452776 0.032536345673164116 -0.034827415783334204 0.03753237514982459 0.13504475623606604 0.09078061309994813 -0.031490064568640674 -0.046338143849081595 -0.024395420034541117 0.07142469171290472 0.13634794769874015 -0.010302444777542129 0.14797715055972435 -5.078782805691872E-4 0.03634408124176157 0.03294536511966815 -0.05950246574838171 -0.0025137548076490197 -0.023199574837899736 0.13408357152640202 -0.005264475221778726 0.07611434022343086 0.1072752977529645 0.05881020088841864 0.1451795012287571 0.12127589672959398 -0.0018750421450006757 -0.0011198372726248498 0.015772601825240002 0.013525034898801016 0.10285528503730781 0.06499594148038008 0.15124251817939788 0.12496634219157977 0.09293679506678851 0.10387492776111873 0.06966193555002265 -0.007570066266029248 0.1121102234984406 0.11197945692778666 0.09357632600168696 -0.01638233390615953 0.012883086165371269 -0.03788849460361884 0.02615527530600217 0.047342280767425166 -1.1095021498286076E-4 0.14364667032066905 -0.05180341308866758 0.09139891975975215 0.08099060309982593 0.12745026142229482 0.10958502361160943 0.1396471833764506 0.1125460237900377 0.07727324007137264 0.0946002677419507 0.03824318479975255 0.01608290195229823 0.11222878032709711 0.01600202001477734 -0.004605944972917258 0.13436508220484253 -0.012267138162563479 0.12096904996414336 0.05052246360899067 0.031082588194350967 0.09508542453916174 0.11130525300132146 0.07907045109077696 0.14528394931633357 -0.022938052906958592 0.09646755905186688 0.07635995707838424 0.12747992011842796 -0.011673632232692827 0.10003177777214692 -0.023856183010884713 0.09763002225294858 0.05731322471614231 -0.03438576544805707 0.024838236788365158 -0.03006362890114454 0.05529238536216939 0.07503633577292733 -0.03740714083912178 0.007838268823962907 -0.0028304262610848057 -0.03215781767454324 0.1409097882692759 0.07225383532583068 0.026449413868149436 0.0681338929820532 0.054685094863839954 -0.0033525350820761035 0.08274588247996369 -0.015226226622352304 0.022583250573184527 0.12652265547950503 0.05544248687451337 0.09378960052304798 -0.013606793323175449 -0.015389210823366316 0.11699798033003384 -0.0068237323014582515 0.026532203803076915 0.040991859818577295 0.06928736002483674 0.04471150017948417 0.022286051349380834 0.11094074789072274 0.11136502892703305 0.07107479325308354 0.14242526740692674 0.03657253870221549 0.028357912315040697 0.12251745062654819 0.015512201841215992 0.06272817784931324 -0.04333084778900315 0.03392829637917734 0.05047949109770908 0.12464699660119276 0.12512332123018732 -0.010232022986126792 0.08365351894020269 0.13247755258013796 0.11325860081707251 0.13244361532101354 0.07304049681447572 -0.030522028270206926 0.06042227637861016 -0.027368625750213173 0.1289778774516838 0.04447749456797783 0.0732850857906187 -0.028569919730248028 0.04756664132356684 0.11034588229884303 0.11070206750316089 -0.0035817116719531117 0.034846901961152324 -0.010692740316856044 0.0644829921601783 -0.02336982380012282 0.14800130121596386 0.11786680693221942 -0.04213077052014083 0.11603932556234996 0.14026006954514153 0.003538054181154642 0.007819950459382968 0.13322099699691747 0.018275660700767433 0.10767455898571124 0.05726706998495667 0.10190978141823694 0.021685789720496642 0.06955266757136701 0.04720479827361121 0.012628635639903634 -0.004620774031488824 -0.005620545659858908 0.0942295553932788 0.041065679446493045 0.018909935263780427 -0.008536301794934772 0.07394595901746057 0.1342917367567306 0.10706782560315423 0.07268401432457804 0.04172462922796884 0.04927492050347986 0.1384423909192607 -0.007137080326080472 0.07496818984960801 0.091539204932483 0.055004869035850834 -0.016675307948388653 0.02869301382086627 0.026643384690181196 -0.012654280162621637 0.06465901748134611 0.0921629277837837 0.02132595529759646 -0.003259112534828978 0.06978273213993562 0.08886988176399854 0.07632815154678006 0.09094244671819292 0.13392855274878213 0.1238620152077738 -0.017968763873095695 -0.009471896463565027 0.04490390361905364 0.0036539712197886888 0.10825626176867015 0.13442860052769667 0.1489747333541072 -0.004144506536777816 -0.04349947024465447 0.05604291058380295 0.07585582147674694 0.03176000396330495 0.054811811315086924 0.08744258327953133 -0.009724920545799053 0.1414304739621605 -0.05009187223345546 0.026001958812850536 -0.0382720021366356 0.06257063619040487 -0.02308570299067388 -0.028286211059064245 0.024853304856319865 0.11400697689020046 0.07440476208610679 0.01848205436017953 0.06208400082229961 0.14869779239570793 -0.006831533965031666 0.042401636056897535 0.08083576291970991 0.047958334908417825 0.146046994036905 0.005412641287443613 0.08478251549830904 0.09888003241080975 0.08153065637212413 0.028886503976704093 0.09734897528154234 0.01924076190977066 0.11698533354691132 -0.005904175415476839 0.14004852178971117 0.13969174935578313 0.005962552813002277 0.0840261939516611 0.0839308669992199 0.0181497951849397 0.03962120574975412 0.041023111463029484 0.03820483217825275 0.0782114717152792 0.10999952663700004 0.06845753189912585 0.06234718257877425 0.1490683398491626 -0.04379597684386984 -0.05834366076110964 0.023410478274412682 0.11147951366856118 -0.010451595354049999 -0.02015583785954582 0.03950699792608006 0.025975726329519118 -0.012592733901438795
0.0 0.03253880518474453 -0.08245766006110232 0.08691955660208156 0.06741924285922546 0.0055630144097919 0.05079443923092078 -0.013216041175192816 -0.0019017223511650916 -0.0050405964511334445 -0.038593009331845465 -0.09375865729232527 0.07326395496105592 -0.09482919451671185 -0.059751798943683834 -0.03688056461305832 -0.0024485243585854743 -0.044788558637243965 0.016828002808124506 -0.008650087338177723 -0.00949643580222713 0.014484574578084553 -0.013581197704648551 -0.078195669344835 0.035395109214989534 -0.04775238152515816 0.0938657528767688 0.007879585544654108 -0.08444267164916358 0.03341034898479661 -0.04571674802735997 -0.07631115341139288 0.0761470169500297 -0.08988040348874422 0.03786766215259546 -0.037264508193969786 0.061701376365449145 0.056807552664103866 0.024599630242760948 0.09559214256292442 -0.015150345334157225 -0.08522277314249074 0.005672513254960876 -0.07189140204990524 -0.038129296848539836 0.010004213145174606 0.09132006970195311 -0.07824724045792378 0.010851523317612632 0.03817998038616713 -0.06689777210052548 -0.0769778175966751 0.026245825378670595 0.08133926776891867 -0.054010006774244286 0.03103416565769776 0.06293639783992372 0.03670438368111173 0.0751360989404074 -0.05706413866248244 -0.017075606413028965 -0.05067030150746892 -0.019275574380506852 -0.03109804480101673 -0.01474143311891292 0.09833770761704402 -0.02820083412868918 0.08750247713590883 -0.040086008289901456 -0.09081586602558639 0.017020998269542398 -0.0646469794116703 0.09525533247175164 0.06464777148983405 0.04505114788134246 0.08935122893083824 0.00855648373266893 0.05992244023321308 0.0855226341652871 -0.09472841974334917 0.015383995841437612 0.05557084304938684 -0.057495503930816 0.039659972171653984 -0.0792412762000345 -0.02833104786549001 -0.0681079321359736 0.014609778579915203 0.0074484267780649815 -0.02884125735114669 0.06982393418568347 0.0013404102863854295 0.0435216483542801 -0.053801264234582716 0.09328629248882211 -0.08021844623910775 -0.03294139927707468 0.06655474159778266 0.0032474048136779676 0.03106271047306733 0.09596057006664374 -0.03977835587393309 -0.08539219585553191 -0.06079990259855826 0.07176754297549687 0.06126680722098948 -0.033747703297925036 -0.0831619373033496 -0.029917571216674987 0.0701067825546042 -0.09007065410816445 0.05918017743653228 0.025053565960056146 0.015079548992532499 -0.02990140328791553 -0.08167985122778952 0.02638364039681551 -0.052612077234858376 -0.06538963445507272 0.032578036402967664 -0.00882752419195472 -0.05627646241944995 0.06314098497346907 -0.06437558766425185 -0.05887589178579682 -0.08710598804333625 0.09605984891769276 -0.05850235945221681 -0.05416609879597006 0.07049005406757614 0.005092929154588935 0.07010692459715415 0.08608619206679921 0.02748254228529448 0.02209366902671707 -0.08339040252506012 -0.06482549764675039 -0.06163355203656234 -0.05674527097729756 0.02978829559988372 -0.060592424931152716 -0.05914734753136115 -0.051575541643016705 0.09329469014110539 -0.0648036960160511 0.016793842281889113 0.06400867109502659 -0.09962144848133175 -0.06587371601048625 0.03970777677012066 0.011241138193154768 -0.028633799059191042 -0.03614826365865682 -0.09334549081943806 -0.06585775225834252 -0.03486659855638355 -0.05659506798858767 0.042487415324682115 0.08804250719062648 0.07185844018541604 0.09059761303153399 0.08989457541036394 0.03382610002708056 -0.04037543504421042 0.0222858908923442 0.09499074949659983 0.049520336179762064 -0.011023033538279409 0.06574304342266638 -0.052272981075369 -0.052361213494207644 0.09168148897436834 -0.06336405354315365 0.035541560900324815 0.047653871894745264 -0.06309116465672636 0.03433640334743987 -0.07224192426992951 -0.014160136274409707 0.06316292495330836 -0.07592328147026527 0.03504900505176356 0.04364175806891282 -0.0032107840239183477 0.02760914735137779 0.07051310722447937 -0.04745964480942391 0.002905730671726281 0.09085903239999774 0.03609419055158991 -0.051578412850780894 0.06395336525534126 0.08135934425035529 0.0180449327446712 -0.07536279144733896 -0.0386321156695741 -0.02349469725872061 0.09031124778576272 0.011045765722283926 -0.09023334331879856 0.09721252162801455 -0.07493832221875879 -0.03546032602888474 0.03886071445699052 -0.030284153025717617 -0.09127657291492362 -0.03195240059187428 -0.06431928564695213 0.08988459090689124 0.035909709298908604 0.034978679231293885 0.03481176333649169 0.060796875391872396 0.014708031294349208 -0.06532930589097868 -0.002468236292293341 -0.001042686807349369 -0.023345165877446172 0.04334298212136026 -0.061875160790079715 0.03743475331218277 0.076129286230192 -0.07323532283891517 -0.028429148113927258 -0.09956860057776791 0.02626334162038943 -0.004953869147419854 0.029399168796936825 0.09869803461049279 -0.04766202537711042 -0.09104387481469944 0.011858912540448685 -0.04075456819631378 -0.09180715256767476 -0.038001640650960795 0.03612606411625677 -0.014674569576656166 -0.0804854682447944 -0.012153824037657038 -0.02889926825101563 0.043183597361103415 -0.021401635748802564 0.04842408008961918 -0.08202899528501813 -0.011376102701814772 -0.04676959691541596 -0.06758380887175697 -0.0558685317854722 0.010611459531522024 -0.031955307506729314 0.008504407347422985 0.04646666502572694 0.02241551929571911 -0.035782912685660084 -0.03676538960225051 -0.03700541564643921 -0.07639126872051182 0.023758247503557497 0.05837852028611065 0.06178099875636739 0.08068130641000817 -2.766661007836402E-4 0.09902279437505465 -0.03789499927153646 0.04159494686166054 0.07925494578871561 -0.06357343840057957 0.08699792683458779 0.02112584274360975 0.017690923041619344 -0.01612793938350908 -0.0032518153894950247 -0.008461783649647767 0.06995446261498775 -0.019520585696565174 0.07991566003496658 -0.09013852698248065 0.014221321456803479 -0.05348530706758724 -0.09400983288846905 -0.08258884999536838 -0.09733582254427353 -0.08048038238253602 0.0838443075260756 -0.08291459076216463 0.04215420444022194 0.016183363780349624 0.04518808988432174 -0.032335707862693075 -0.019615233600854 0.09091687745811813 0.0167626300046457 -0.07894759863591441 0.07628164343063043 -0.007745197109347721 0.06261312192206642 -0.055596569173223115 -0.018311724607691177 -0.04482668256464988 -0.0992825837502785 -0.08624337664574094 -0.04298780393527904 -0.07348638179683359 0.06241819084069658 -0.09967093995315815 -0.04196458867050291 -0.015053061686105013 0.08184141205829601 0.0680791250921235 0.07119041133169782 0.07154279786857873 0.026828186730651044 0.06931805554829501 0.058771497678202 0.055324495229951476 0.09432936448267618 -0.09074914078952834 0.005927182508201137 0.028759805866221788 -0.09225917973898373 0.02631740286226497 0.04060506505011813 0.04146947953600291 0.09789805014315123 0.06278351639435178 -0.027676186180955048 -0.01968359964257954 -0.0705627648765794 -0.02341902711847027 0.01358970492464201 -0.06669194986372412 0.07813250449945999 -0.011743545180277412 -0.08139014578032111 -0.04338569465740015 0.09026418647121562 0.07199261125693976 0.015213826018801668 0.019615180616069205 -0.0541455640421452 0.012242067474052404 0.06766039517731842 0.04565180394415297 -0.023417369775450947 -0.051166646345934694 0.0074123672569414295 -0.0319796294512979 -0.01436761794620603 -0.06028278814084954 -0.07686217829083067 0.06500091205506106 -0.08797086648091153 0.04811658122047993 -0.024706158207090753 -0.0676452888016685 0.05219615526809701 0.0663650639168418 -0.05976672599935152 -0.006336806146662863 0.04147688330407848 -0.050188852407677946 -0.042693181402065954 -9.079620786557885E-4 -0.061202115142342375 -0.05650906212089062 -0.06923113466824532 0.013708062474145369 -0.05070940918397318 0.028181906771393456 -0.0595255637093757 0.035454345221318545 0.048383950237428 -0.06612739565149993 0.04838576480235032 -0.06301603326721959 0.05654646738157795 -0.014496538894134964 -0.09653336102293078 -0.044022835645582695 -0.0835176298703819 0.08408508445220073 0.030003461846788204 0.02027336796979652 0.07930000567687268 -0.03696763825731393 0.05151095487004434 -0.04741852022813278 -0.015049226330359211 -0.03629345730050644 -0.05230258759268509 0.03786841361425 0.04525023181404786 -0.042792331374829254 0.09694120206176848 -0.06795463880044694 -0.08924630331285331 -0.04699016982923699 -0.0707662912792566 -0.07616138612004833 -0.04847189213486838 0.08832137549509628 0.018090476544961293 -0.0932035487741163 0.024993428749322755 -0.011071703757172355 -0.07493367503222917 0.05049055632756749 -0.01939117739087133 0.007124340929838532 0.05698699862459833 -0.07986506945543191 -0.0317167089201149 0.07635776280225218 -0.03254126450501223 -0.0690628227360463 0.06145591812315926 -0.06229699047141586 -0.05384487568710934 -0.034564916846075794 -0.0351364367299003 0.09312176452619228 -0.061668545024054236 -0.06654258435465028 -0.051337951830746034 -0.005027355350237239 -0.02361611239036994 0.002300824009096314 0.09481645232338762 -0.0903613875418977 0.08090562877695853 0.015863114766242664 -0.02490673767585845 0.03062604965688817 0.031219908643223354 -0.0945983926073124 -0.08567801478983438 -0.09413070217437312 -0.09920567282289645 -0.01957641200485008 0.010798756492190587 -0.017241165990778476 -0.07009840034171547 0.02356900241564397 0.048950673618928076 0.06109130396651055 -0.04414029905534838 0.03160287410100143 -0.027402904128560945 0.05980969230619096 0.089229868154178 0.032357921238390874 -0.05881733697247254 -0.005718510107463257 -0.06292364156427799 0.08112221030140218 -0.08807563205571321 0.009583272882890292 -0.025417238023245012 -0.021537859073143303 0.005491322436003851 0.04060992283761006 0.05532739218634339 0.09385980812601005 -0.032774879405875784 -0.010305682263919438 0.08484089684528226 0.08550619412013558 -0.05804553687225898 -0.050753478484532474 -0.07012422618783937 0.022684950544918925 -0.013437861906152926 -0.06792766471342702 0.09480385560753507 0.09297205292047864 -0.08275196152833914 0.08725442782096518 0.04876946263712717 -0.07785822709998724 0.03520002190518426 0.06308943705850725 -0.07025545806532858 -0.09338234894588132 0.07317726328971375 -0.0240566271730919 0.053822731941787244 -0.054627498434685555 0.012870624832014108 -0.08285457087419862 -0.046194240544130356 -0.01768421137719743 -0.023251228705792534 0.07316417069280959 0.07147405442041813 0.05908253905369357 -0.07620516952094046 -0.0541849513304632 0.08806960280753515 -0.03644223943478092 0.09663164473978772 0.03491158116341245
0.0 -0.055517925450628954 -0.013040517689985515 0.0064140316947868675 -0.04123358218286213 0.03781395121435194 -0.06758306697314564 -0.06765640337113937 0.01724548933704062 -0.01392249344480026 0.070307681013563 0.04061742894556675 -0.06162898301255629 -0.08710378844381224 -0.08662551005402677 0.0707898421988479 0.05872656907283466 -0.010643566047876807 0.05564084561065677 -0.011750884084330296 0.03779800193265598 0.050024597355296796 -0.035727130812506655 -0.024240789732978524 -0.07934900550159803 0.0450123809982004 0.024485015095443624 -0.027026674402595596 0.06584658796221654 0.09309702430675806 -0.02892647339251364 -0.0755871418128379 0.08257704179327244 0.057956944974513175 -0.07946559748215282 -0.02790469709376614 0.06063536811322817 0.08123479648785131 0.034461549893273935 0.044105416608886394 -0.08228384968465395 0.0832437450210432 -0.03005361074154661 0.0157132459477069 0.03579829798366155 -0.03396667812920376 -0.011842759121647117 0.09543237564947821 -0.0702609864571542 -0.01331932364221243 -0.03956809419406238 0.05563021023186593 -0.041007169326592194 -0.046519417493856845 0.03639122861559277 -0.09827835870295197 -0.09534569680345667 -0.08055738771230439 -0.0683117849402946 0.019479833622624704 -0.07885823467536941 -0.01883736707352722 -0.05392897269892994 0.06816787770858926 -0.046346004752308864 0.08548045506364713 -0.0824764239493203 0.08168856405808114 0.07562851787403824 0.0631674955656788 -0.05725719686538676 -0.04300819700083805 0.015455939465942342 -0.09659865452427936 -0.018463831478979925 0.09636056373852944 0.09002642810759479 0.07886563637209346 -0.006812184629873638 -0.09202872170837682 -0.07711833086851179 -0.06599014100292522 -0.09522906205649213 -0.08134436646240539 -0.052338337164426665 -0.09096156369974617 0.04814886310929836 -0.05067141328946548 0.03208147793361077 -0.02473954253100974 -0.09014595340498487 0.026995631651740737 0.07538313624590376 -0.003281511283998062 -0.00332698906315812 0.01869507319443764 -0.037138794816557824 0.09878701614302554 0.07742666430851206 -0.019551889690700278 0.007254876335171412 -0.06143423792363361 0.08592130286076352 -0.08190637829532087 0.035996968240663924 0.0795857432427089 0.06856680143791816 0.08278737166253061 0.05039229189424918 0.061480490813373506 -0.04794694389629357 -0.03282012486991 -0.06700713817621494 0.08547694246726037 0.06779842603782432 0.006652630366419138 0.06147309750531785 4.7438475816487247E-4 0.09741220051001476 0.08955359749042419 -0.06444155849955598 -0.01847002236130546 0.09174652444908596 0.024297193221070837 -0.07972211595835428 -0.015556045997321327 0.01582962355487527 0.08904445792063995 -0.027011783853486446 -0.09308491668672819 0.08702518094525666 -0.0927697302560022 -0.0064681135877820845 -0.02993667824606215 0.09864123382040571 -0.0014119772571858091 0.051217242843695165 0.05705757610657064 -0.030289725288493594 -0.0561020550566497 -0.04119610235646019 -0.053123372452202694 0.004482844709735298 0.09096241760896082 -0.07241957697908613 -0.08646710243477232 -0.09636615431300206 0.057939620293126076 -0.09055301599430216 0.019414531486518075 -0.07365139071360008 -0.04545635146516738 -0.08799659471120454 -0.09844098319840984 0.015055509490346966 0.0763877032252859 0.013832585963508004 -0.014903149267840893 -0.02096903230579253 0.07116833096089775 0.06332827259727622 0.04768653485036509 -0.07495592279681403 0.05754903050858931 0.0033077910293106 -0.06288174880628727 0.06569059484200682 0.08115840375664976 -0.018345115019610433 -0.08531995751396569 -0.08769739493569143 0.07818109367614309 -4.7232520862222627E-4 -0.02996268758038796 -0.060911591638140354 -0.09258126473224303 0.07471619100478966 -0.06378468241482536 0.09985996361963309 -0.07666532436104444 -0.014558235958330168 0.03007360874292561 0.07696593347303232 0.04517735961631644 0.016828926714254747 -0.09355723945415878 -0.038399182989836536 0.02117460266738233 -0.08090437153854896 -0.057521578478807504 0.04090385093462706 0.03118152325082138 0.07303056432395921 0.017968944312137247 -0.06578807550308902 0.027183283454450674 -0.08663883786671729 0.0680869988242658 -0.05253165441360886 0.004546102627281279 -0.07738562638369187 -0.043111660708638685 -0.06599070273079806 -0.0706612486368014 -0.07902671039025795 0.06266639365318796 -0.011643071546505665 0.02847897067143887 -0.0834014277983968 0.004703400259750065 0.0764820102376178 0.07276364010988692 0.09096010787428321 0.09278835472791994 -0.05336760644926873 -0.04422360524409433 -0.04718248566551458 0.08189765483453335 -0.04602419026215648 -0.08524064040096418 0.036086782220707186 0.0664296146367116 -0.018300814190335246 0.01995154811168459 -0.008944742895255334 0.03836294734204285 -0.0019233924854576978 -0.05449345331781473 -0.06303963536772468 -0.08453991028786066 -0.027161540869726997 -0.0016749017747701989 -0.02516790989611735 -0.004595458077887304 -0.09440204818264762 0.006761167516517758 0.059029329108941625 0.05922456055105765 0.027542254138336775 -0.037714308677413814 0.0015120992596401733 0.0339148606829929 -0.058018502563194144 -0.09646297448209656 0.06448513515580892 0.03978516393818263 -0.08235098940738156 -0.07612065915057412 0.02139278445494605 -0.09716000440709419 0.06373676962385541 -0.015047354535493357 -0.05781321327930895 -0.019603989605370936 -0.028223471045282736 -0.04695886251909858 0.03261140536705251 0.026640095978458095 0.042026925494094175 0.045232093907425885 0.033065265358515394 0.002791690702780736 -0.09270785434715426 -0.04323875218701066 -0.05788009478406178 0.010715800650830665 0.00247757799302073 -0.00602407026380225 -0.07623393206081715 0.03078902404178191 -0.02298159149984423 -0.04775046723910493 0.04280713466316402 -0.05198696078622443 -0.08991264778179871 -0.08349831869393859 -0.005670405067768794 0.08687946544639308 0.044872495301261 0.09539952891252176 -0.00517115921054237 0.04681714830056011 -0.01823479820093779 -0.06395563133957623 -0.009352656642194562 -0.0464355765495762 0.017990824076229595 0.05770464366144065 -0.09272577036696888 0.06284488956032855 0.08810270920676358 -0.044896220111873116 0.005714857579298238 0.051384288796463534 0.07959839608143288 -0.050242247047396556 -0.02209316324901943 -0.03858590443586412 -0.09148321585609279 0.0761008675312618 -0.008194744973355511 0.025694161420207806 0.01595090735004058 -0.002251205670449008 -0.016463997166377198 -0.0013423113755483274 -0.08314181782554252 0.044209678430272514 0.07031656251210489 -0.04965755427648813 -0.008106344440453994 -0.09853971952102546 0.036643249840558056 -0.015835422527658016 -0.04374721580437471 0.01598011231518759 -0.0891955708205017 -0.09548216475356103 -0.011030732208753974 0.09156658610375762 0.020542350112831495 0.08044467835921046 -0.08966830456402496 -0.09699230234034027 -0.01657111535367224 -0.07619134826314332 -0.013918899221151582 -0.0032842907705526447 0.05776202925794929 -0.050037473231386145 0.058191729719355656 0.012468555935688644 -0.07652674415881466 0.059056013462147006 -0.023175408853524204 0.0022082133159820883 0.06088261327890568 0.004303492340325316 0.09100826248458596 -0.08487761883234726 -0.05496252846861321 0.06138582081931687 0.0013284745706856338 0.03234877852572113 -0.02160528443031602 -0.0463476874204202 0.08777191825784567 -0.07310311833939578 0.08311600695530658 -0.014700958174114168 -0.03793911535703636 -0.09697032888271975 0.036988570320581365 -0.027483780891750964 0.025011070590571893 -0.09876585647199831 0.08741415097014399 -0.08098000495450604 0.05583836302945608 -0.06593474641015001 -0.0765454892668292 0.04370284393003582 -0.04850216069443903 0.09422704182699451 -0.014821243590472752 -0.007815246554258207 -0.04731323517737465 -0.04139657594877393 -0.009128009945821178 -0.055641208808691396 -0.0956974567212598 0.022324875825438573 0.09924830885578662 -0.036645459393642124 -0.04425574188666186 -0.024507953785059017 -0.04762512428076762 0.032503940104215895 -0.01632191069061538 -0.006931786588310229 -0.036721874837016416 -0.0778057718588887 -0.029490132867865088 -0.09639441072518645 0.006788868806513346 -0.06376030962388964 0.0686377767080521 0.04488943068215678 -0.08908856643770385 -0.05171548562661217 0.072255083007181 -0.08879297827387456 -0.004313069703473546 -0.03441675500815665 0.08212332463594518 -0.011464506446068334 0.04600543607818275 0.08416381927643574 0.07205058753477481 -0.08117658166394187 -0.026796527372739146 -0.09856980621057712 -0.01231592996724154 0.05642237364297298 -0.047072224026726533 -0.030915534470820058 -0.06804393761099384 0.046620263951585555 0.08606830595956377 -0.02599816983248622 -0.030278920384332247 0.046071185583682756 0.09175081716493541 0.09010915341700848 0.052405546351349724 0.053631726462875756 -0.09885375458497277 0.08233719717640423 0.05875482890224884 -0.047724126202700196 0.00327639534750572 0.06476812414518901 -0.022549089079460502 -0.010120521908359686 0.026486692668337364 0.06923976318389594 -0.08183817645874017 -0.008784271212248146 -0.051782281593939765 0.09076563686179148 0.08919052926147028 0.07159447156798499 0.059749989827301675 0.037391738846401096 -0.0764135241893552 0.0029350422096761086 0.09974999608461976 -0.0460496979693305 -0.07678555260084269 0.09893509944547857 -0.09243000477928287 0.0049095796338606695 0.06992338673670831 0.024846915241497555 0.011437869057918479 0.03420227197353412 -0.033672008599083245 -0.030008531586736664 -0.05724083244371086 0.07942202534647844 -0.021689789571313803 -0.09514623965903493 -0.004741801170165372 0.08147096852654417 -0.026493609049383582 -0.04630893910568644 -0.09571210509854006 0.024723904898147506 0.007826837203436299 0.06429151114895781 0.0785131186299935 -0.05611115306118829 -0.07699774896727965 0.09295151215645628 0.005048500816561691 0.01029958232007877 0.08721449272562495 -0.029473924789928926 -0.07184231799411289 0.013088180567403282 -0.022512774722328294 0.04506675698995519 -0.032289492834042796 0.019951044441135213 0.013672106496105507 -0.038404316100628985 -0.014472599691862278 0.028584231463362114 0.05692716787857732 0.05040663325804698 0.047957353142368986 -0.03242706744744864 0.010444414561962698 -0.07114009173047926 0.04995468513370763 -0.054186505467015984 0.02349702558330781 0.09914839114447152 -0.08830545331553499 -0.0714192409624124 0.0732113043569125 0.09184108313212708 0.0522120759380264 0.06010904564113606 -0.0924356010449629 0.013059371712396517 0.07013261200843585 0.04170377347333168 -0.020892873872076223 0.039431761533716775 -0.0182267706936097
0.0 0.06314276723524548 -0.0585078059242872 -0.027101898256775003 0.025810638831815613 -0.06061831261389788 0.09645462936955182 0.08760835899289168 -0.0747859132140743 -0.03182165012860379 -0.03476685346530824 -0.038726237451201635 0.027287290886058052 0.06233484651224 -0.020066261693990894 0.08350029495504566 -0.05375571434863971 0.0449074038884997 -0.051232738133671046 -0.006979694605985021 -0.0703179912486801 -0.07794461489030075 0.06937040436546343 0.0686227202786899 -0.06077921803576503 0.03750165500162689 -0.021315070419272997 -0.056616507396256684 0.07523847772847206 6.718915090203753E-4 0.06801683220852228 0.006225613432774071 -0.03635867531703563 -0.07825250442198217 -0.036466570632871245 0.07904393366765 -0.0709003457210856 0.06734105418284003 0.016956369608834773 0.0691637980242118 0.01632202495022543 0.021272463854244972 0.013770838936582416 -0.08384512655997929 -0.03957308676034764 -0.01401789174344066 0.0878785548477096 0.016581840114091043 0.009853437731125722 -0.01593592563390539 -0.07510618777625744 0.07910622248686597 -0.0013571968200288415 -0.012615829681762447 0.0163818697830055 -0.06427231746139582 0.017383799088489457 -0.04141308480667179 0.09010215815830727 -0.0542214785256362 -0.005983557977265894 -0.05380427465016838 -0.03614302778051402 -0.07001992432872926 -0.06917144656476891 0.008655632097265512 -0.009165570549011903 -0.0413929056971875 -0.025816094354646046 -0.07798653748715717 0.028786997768668943 0.028915895652500218 -0.016164823985277618 -0.0739861181069236 -0.010565752856545887 -0.026992778170354448 -0.023113019503835847 0.02709096785425738 0.0046739023554937115 0.04427191332937891 -0.0058674718395890085 0.014284999505116983 -0.08517983535783558 0.010304708861009773 -0.0218500034070869 0.060596605481198135 0.040872571627613735 0.07115944364446486 -0.010958861530978456 0.0034924041243927506 -0.029834382981577923 0.09372283996417313 -0.07899988555907714 -0.00987498512918078 -0.036193714085287224 0.09074262680152104 -0.07069988369678742 -0.018325101360668963 0.08726999701020358 -0.040583011840619014 -0.07453394183515459 -0.09139458110614203 -0.01579977351834172 0.049668641071705905 -0.06675459326503988 -0.010927738552824612 0.03753808016026253 0.020017773230639357 0.08252243662393247 -0.05627740755503812 -0.025311076318021014 0.041470450328646186 0.026481428630952847 0.08815795581328437 -0.0017278618258862732 -0.07327428149179648 -0.0149827880047258 0.04459859419120335 -0.05296997478660027 -0.023325463151254083 0.00754780450634078 0.0515261132220074 -0.08833412590629869 -0.0030538155526717986 -0.06331883148450451 0.0247344361535055 0.03983510546514091 0.03811020011084543 -0.03592881348687782 0.0477711895148063 -0.057182983609388435 0.011361689479076245 -0.041496319376561515 0.05721011876511381 -0.09487890396267176 -0.023685914016417314 -0.08264293860963977 0.004404602930115617 0.09947391880636017 -0.032562967995378556 -0.054896861642431044 0.012765812991792178 0.05247624373384499 -9.513181090475831E-4 0.05913012188279412 -0.0991917361648111 0.06503343091853686 -0.03318705681968548 0.06893082387765537 0.0014308857657248236 -0.0688981394948663 -0.059234373764889874 0.07911157781469333 -0.05581100709537013 0.06568869940208494 -0.01874547529696753 -0.06958493877379011 -0.04098881771677721 -0.011461748311494158 -0.04957063274115932 0.02506749541524947 -0.012709075530966965 0.08196385857633395 0.039274272739552474 -0.08668132506637977 0.034390840195493794 -0.04224456226311586 -0.02032549674481199 0.0022998197511986535 0.044875992734850406 -0.02349579480452524 -0.022286796223511485 0.003240921544955422 -0.09488936404839748 -0.050619055953158125 0.09771142979649469 -0.00834050039801744 -0.04968980789710747 0.08977166787790783 -0.01836683079547119 0.04899911238433838 -0.02880604991402419 0.09830714523077808 -0.009249784392115504 0.09176484891790249 -0.03125459422283519 -0.07263989937612017 0.040222479056332056 0.023229622073857162 0.019558305886087243 -0.08273147051377583 -0.09800661212824407 0.09633474456850935 0.09833328138453004 -0.08649506707466942 0.04055880797791328 0.022887491257232495 -0.03402613469797007 0.07332620067508722 -0.026633613941209625 0.03710255530798287 0.042057800446409305 0.08238865218374397 0.020763453057454903 0.028901650600376166 -0.02332558221634845 0.08749260500964531 -0.029767821527030336 0.026089533688413546 -0.01724287252051307 0.007179922312032849 0.06608083658408434 0.011533618062579146 0.02778491545415529 0.028681574844261426 0.08613623361345932 -0.08519159952610551 -0.0992620424483967 -0.06773553462706045 -0.08543523386987642 -0.06928824399289696 -0.05774342523423673 0.039487906317422466 -0.04501819430781602 -0.08524689443325689 0.05527196826583422 -0.056450591911368544 5.145595907865425E-4 0.02582352960479775 0.014275593986254997 -0.029480031514786606 -0.03879547060328206 0.0031565093174205083 -0.009788171124595207 -0.03402644330383056 0.03478837725933373 -0.08195450897590469 -0.09283337556061805 -0.038142568425695106 -0.05049555968053581 0.049458941707896636 0.016014008787457373 0.00549726482189021 0.027057650833561014 -0.07711860707818795 -0.07346890982425086 0.09043583440206251 0.05706442172318374 0.005596098282262943 -0.04262508637956766 -0.001468505358744418 -0.0905077588233902 -0.04724494576117691 -0.0799080092179729 0.06055504165048245 0.02470330014123405 -0.013143583516851173 -0.023395576794537284 -0.06568746039500091 0.047934331612645736 -0.04271343842404825 -0.09737295395009836 0.01372880391879662 -0.011019418176917761 -0.07142653025769048 0.07648525252464836 0.05146853662491299 -0.003967754000138962 -0.06229901260679754 -0.06210865076030872 -0.08697012468321547 0.05942309477760718 -0.07518350462854786 -0.06662162762254531 0.01820519275309386 0.057237934457057216 -0.06824901306333386 -0.044763661657221995 0.029842504535821934 0.04481923772870447 0.018548130379938355 0.0673707863998185 -0.09627731847508975 0.05977137563522633 0.09632654084391304 0.08080094721015696 0.031778214713019254 -0.09773240468981069 -0.08208815612138978 -0.056355469605521805 0.02835750539761897 -0.03505132439614732 0.08978528324929572 -0.02595189114078661 -0.0389252270068873 0.0869585103371733 0.09243593951336157 -0.021817696505184198 -0.07091938422774131 0.06869231191479036 -0.09535346764687153 0.08354902673603964 -0.060349666250842024 0.04632178594085226 -0.07519952656611013 -0.004883551214009407 -0.02927850257679024 -0.041823484091332214 -0.064062434135699 0.03942066500400923 0.07181341727914409 -0.0826283394726437 0.08984766323081009 0.0038376333143647218 -0.020373486479886627 0.09155562641874421 0.03965110328598209 -0.08079089177431407 0.04807802021988836 -0.014596372101726332 0.027229288704065463 0.0366774090774353 -0.062130184867306266 -0.03720024832707439 -0.015949805099772785 -0.07441237768239328 -0.061334163165625906 0.075924148292146 0.03997093678446953 -0.08292036641810739 -0.05728773318021608 0.08305381535706441 -0.09825743929711468 0.007620810695474239 0.03168589499691979 0.007328105886709485 -0.0880116371086906 -0.008841607799666806 -0.0989418500461759 -0.04392591149776131 -0.027126660936101332 0.040464033148771616 0.028392440038699146 0.07005902714248749 -0.0716143347403976 -0.04707139116626653 0.06010042442004529 -0.06648305904984322 0.049386639217056105 -0.025964336443100394 0.04504508258216319 -0.011047343671607673 -0.06924417251855391 0.06560810494505145 0.06594266939837504 0.07842134400813683 0.030008332568972423 0.05939377803946258 0.03034693596657903 -0.02586045053722333 0.05761298243916413 0.06293423770068568 0.09536503154755005 -0.006764670099044634 0.046007310130739804 -0.08445329555372166 0.0032193829158654735 -0.07441434730861947 0.06814530879639513 -0.01322120074404838 0.058251329779786365 0.06026821228101545 -0.05340571387047433 -0.02296132584969844 0.09207806699871565 0.07786393230885738 -0.03041974062928221 0.08909155309033312 -0.03978237042012603 -0.08438402640160712 0.022394704272940213 0.07544235235934735 -0.0037337274795427033 0.07893619956279274 0.08192508641905963 0.025240341181979875 0.02057936139312737 -0.07819628415473956 0.04761440934825789 -0.057110268977694514 0.08216955555452934 -0.04663615877723 0.03312544262291442 -0.07500734666479598 -0.09783611329822176 0.06931770109661556 -0.06905911330089896 -0.030590627059497652 0.013579074857411735 -0.0200926679173119 0.028275578515025546 -0.05107027484147393 -0.003955806220910699 0.09272103641832902 0.04619457059854448 0.030762828331739794 0.06131026140424492 -0.002281370816553982 -0.09430036141847123 -0.07064098408395147 0.035848880247915105 0.04827906156225739 0.0328628496780029 -0.0830568469323278 0.06459783046732792 0.08195974159754729 -0.0472420170670135 -6.069066446337951E-4 0.09926105189473716 0.07005882248927789 0.0659222281338161 -0.03796452086420424 0.07259313944750803 -0.0021018319941467634 -0.08252289347229567 -0.04195475986595379 -0.06234085253314621 -0.08739232840935035 0.009118888078541276 0.08218309218181336 0.04623076565140358 -0.056847235374901335 -0.06505990268868256 0.013318142895304308 0.021172514442916623 -0.02667091374053772 0.09922806304384074 -0.01862510514325942 0.035960230959553335 0.019240294472600672 0.09429681557497341 0.04474533673495773 0.051851562978974336 0.062196956042409296 -0.08266926405823456 -0.04101555850630568 -0.08942927636529746 -0.07491118276975439 -0.07399943996719296 -0.018705978286713484 0.03407581531287282 0.022456622930273076 0.08231484594465713 0.02782480666201559 -0.0914534497026994 0.09897700906986504 0.018293079829161174 0.08862413270846806 -0.09783510130226743 -0.055528135762360736 -0.08431074179549854 0.03756605601828275 -0.0856336736545716 -0.044318110740651576 -0.013157189868025332 -0.08172898407741358 -0.03420512604201956 0.04202174208331058 0.0197363708023654 -0.0015406957954551131 0.046913513033281035 -0.07168382631173505 0.03526394805308258 -0.031091701702359142 0.06698437334793048 -0.07409125455585289 -0.022763619975855187 -0.0369743249223754 -0.0192403610976708 -0.0837128643716605 -0.045173530246043765 -0.04947281559879138 -0.02594974933288466 0.02351081569868478 -0.01652595859491697 -0.05108378039244992 -0.025783734506806807 -0.059740768314646746 0.058100757712562984 0.07229947432269004 0.06338378522817553 -0.04446360390160813 -0.08191030283245329 -0.07293538922118006 0.016260249055605136 -0.08920885317152948 -0.031180760183780354 0.027283291116906333 0.04803062909342762 -0.03981991792515896 0.047747190557190095
0.0 0.006835322239683779 -0.043007786732635 -0.033642095928758775 0.00666753301087308 -0.05262014513370831 -0.061664874081479575 -8.598450365855594E-5 0.004277670237997166 -0.06603587186148559 -0.06986005018659502 0.002104100950808309 -0.021744434329537335 0.008910132951199303 0.0628951226124014 0.05977342558312814 0.07617208979246161 -0.023312676811495698 0.010186226041641414 0.07714354402845894 -0.003091194070828849 -0.05046410282165966 -0.07116227265724907 -0.015500183780620019 -0.0889381481986158 -0.04896670146733506 0.06316322378352929 -0.01941372059644035 -0.028919646635428634 -0.05612436795892149 -0.05414956265565547 0.0878145420563996 -0.08431051689010602 -0.08167375933537008 0.09513042224679175 0.09396166422569296 -0.05666434334688289 -0.0010800035266597895 0.029325248472231082 -0.028360718216043142 -0.014828466255292697 -0.06640165838080642 0.10241601132673334 0.03731070666291431 -0.07887869107004554 -0.08766679557682379 0.054380694208686534 7.822493848868451E-4 -0.06835850560495241 -0.07621877220954051 -0.0861497163748162 -0.07222434760970542 0.0617184749585443 0.06264819005725394 0.05459551755568445 -0.08778373106562677 -0.06696802090232226 -0.0035060070165423823 0.02689338338350883 0.03802828914228019 -0.022190666793219443 0.036166109235199397 0.052363492287986355 -0.061660534183942683 0.009287163459596216 0.07477131275675994 0.08736267946351671 -0.08341054879747584 -0.03564482391054127 0.016507919159963424 0.08350943383045051 -0.07866960550374406 -0.060456585216977755 -0.05768360207057837 0.01683110022573044 -0.024681607435207954 -0.026784554651973387 0.06891375273053539 0.05908600447270423 -0.07967565805801773 -0.04555691322900817 -0.0239931598986644 0.052964415577563415 -0.05176827727597804 0.0381516952213125 -0.08104982463086173 0.023731636956548504 0.055812857587322774 0.09910588882855169 -0.039587894864379504 -0.00573033097085414 0.002169088256628299 -0.004848383434796308 0.023296605697113736 -0.09506106285088999 0.041182794593141454 0.020399733213057304 -0.05841827952874003 0.06141939352247564 -0.09382112143389486 -0.08654065630634991 0.09403522288994684 0.07860038362381029 -0.0792446738124758 -0.06377557408694051 -0.06535680743470493 0.01334713380994013 -0.06471806435955031 -0.04647149922988075 0.05506386897771975 -0.01417397314305032 0.008308137080302584 -0.017592496552140464 0.031098770892787907 0.0801479190391013 0.08819170520467125 0.07996191705265492 0.09914341851618383 -0.05527906484694035 0.04399149811293458 0.07633724023667099 0.03491380916622317 -0.10215652199014034 0.010796010141337952 0.039396003353501845 0.049405562786942935 0.024489104554453148 0.04198622422057865 -0.04716542744009836 -0.007419027304413513 -0.002375470954667866 0.03444547180165005 0.06808507925177071 0.06842403901591769 0.07165423519475327 -0.05080664797225311 0.026084773416300645 0.08336164869215623 0.04961965317735926 -0.0667404360964417 0.0024379446047795347 0.011348293853158511 0.029666059316510895 0.03212918758697059 0.022268432408345383 -0.05475290975323127 0.02207093637955356 0.033867262856402666 -0.06512759275375678 -0.06369085418517753 0.060551464078257365 -0.10433625639725129 -0.05359347476090198 -0.005930800939636927 -0.031267281820214876 0.07752486576810894 -0.047528020447902955 0.08215794984648954 -0.06635825151532124 -0.07213782405486979 0.06057082885981429 -0.07045936522664752 0.0016499190506749535 0.08157699928361678 0.009350413282773373 -0.08471008458604906 -0.01772886591454034 -0.05850840452021182 0.0721642046562693 0.08010946738893274 0.03548139815489337 0.0777022481532095 -0.05615718415842842 0.0799208070412228 -0.09279031411349864 0.026953847797788876 0.06747714751527102 0.0809656587155173 -0.03536351160178581 0.10234533773840736 -0.036257014873960644 0.04272079517718337 -0.03353695142146008 -0.010420232059692962 -0.04542206841229224 0.025831894883037332 -0.07652927469804943 0.053915059785293214 8.81560172399263E-4 0.09765695459067109 -0.05248146395942947 0.05094393086683821 0.0980271576251589 0.04081590155137473 -0.04513339531467541 -0.08327407909568575 -0.08386311154574935 0.0601297402962524 -0.08546492062510438 0.07301792510213774 -0.04151031293320086 0.03807914027333051 0.08532598861737614 0.07793683093193762 -0.01833720213551114 -0.03586667499262567 0.05105243912289699 0.014026475228820667 0.043910691128113424 0.07016445370528136 -0.06435020032018923 -0.03464860936780458 -0.003916573277480201 -0.005031823661261425 -0.0021313998898804306 -0.036347100969192844 -0.07970762455230163 0.05504909702152617 0.06394252067489012 -0.04891388885521783 0.044911500327217045 0.08267133954490855 0.006255489987485672 0.033794780725133935 0.007237066747046668 -0.04881982352284622 0.035226130479921146 0.021653262052769868 0.0758321147647242 -0.09197952055932296 0.0060106590482941116 0.004406026924652334 -0.08522370818579053 -0.05012662019322888 -0.06991177116195457 0.02018002883969715 0.06923957335158257 0.06974007330629681 0.10544525630267083 -0.07758964826042752 -0.04522408113725586 0.03292009140268852 -0.06213957404488933 0.02970184992818617 0.014246817352087942 -0.08651699752176491 -0.007660505910290592 0.04918720174996023 0.0404329900776294 0.04440566395881108 -0.0415891768237955 0.04992759073524455 -0.0597759792324539 -0.09814869495687946 -0.035358766530050524 -0.07040758391310635 -0.10256669041333141 0.02264153203969906 -0.050447144265268216 -0.06504937983167555 -0.013535562552999605 -0.060713745229601185 -0.009285241175674874 -0.0037657040655828594 -0.0925444404527772 -0.08037708432471528 -0.06630834739226937 0.019270811167019744 0.062491567016502665 0.0503792481382362 0.02559313265982494 -0.001268607113118163 -0.09008292866722424 -0.0877886275662302 0.10418919327325266 0.07128974177337336 -0.013453623476097324 -0.008873814811901805 -0.05311710134724569 0.05713855176507689 0.018351293270946967 0.04554906794630216 0.02083677810838675 0.014663381096391566 -0.0416670816749037 0.010629693554819034 -0.07446943369865128 0.004820513698364872 -0.019579253686831992 0.03156378959692636 -0.08708565144537211 0.03501212275603518 -0.08457073196566738 -0.01539759491587631 -0.06875456841781226 -0.04302327737002657 -0.030075591498200042 -0.04556769739869936 -0.08873154831455046 -0.06564382212308516 0.10342985424519992 0.0920039267458529 0.07980163754291882 0.07758541070486014 -0.019202692457153128 -0.027621559216513623 0.00756827532921649 0.04436463404001071 -0.03416427426850325 -0.0962606036688862 -0.04117464821808141 0.08506493204088292 -0.03135871142671672 -0.08248333100879301 0.010140285062003679 -0.06101144794012556 -0.01695408181391124 0.019867640391549715 -0.03843081067452947 -0.005173272839642081 -0.08115075823396999 -0.05296368691590441 -2.2469048109731443E-4 0.09185900362377938 0.03496535143195466 0.010145292583068214 -0.08605662941698737 -0.037751244315287764 -0.0655361989298658 -0.06219553426748873 0.060708113703104034 0.09985895545915964 0.09466172816603463 0.08573679491613798 -0.03879394819402437 -0.04634838218199121 -0.06376189967771817 0.06191632293227501 0.003598279633590449 -0.005474665455002837 -0.03590152309847696 0.06527452966419686 -0.06047957806307944 0.03991913064411179 0.04008768253442714 -0.022647548542692107 0.037832265869621864 0.09290707594004094 0.043464421378702316 -0.08885478873446896 -0.07713535109694274 0.07858343541759012 0.07677045733665504 -0.04946959606126817 0.04421645715796564 -0.04428193184302215 0.0011999208135016638 0.09219513744506494 0.011383077557244792 -0.023378713824554972 -0.07573125244647073 0.05404408460134647 0.015556234317061397 0.047649852987327365 0.09341632595262381 0.002814120918326053 0.07095308125364869 0.01561936422892525 0.08083693230826004 0.024019993542146352 0.03280155214338709 -0.09880196953418886 0.014614456751728233 -0.02510984232378109 -0.02926695939971334 -0.07191349799596962 0.059259669457135684 -0.03212242763933664 -0.02984806433157999 0.06999118931290056 0.07663017759827226 0.02424011062321809 -0.04405104045902586 -0.03003433802051801 0.037700061669270916 0.0912490429425178 0.02932969237467793 -0.005047403338341054 -0.02055249898596061 -0.03612092532577748 0.00950139337106056 -0.09016118653648474 0.0465726083830875 -0.06133150121588718 -0.06115475443521087 -0.062400145754249216 -0.06064509166106911 9.678367086283411E-4 -0.0738769934224999 0.08342829711911103 -0.03077284951045388 -0.04901328714970068 -0.021040384310981316 -0.08434270268478182 0.07351052934647244 -0.010065378951336528 -0.024694366183291266 0.04930599109273663 -0.07417607952573409 -0.06963239713443313 0.022285994755563282 0.08302583586767114 -0.04583349160387908 0.02335760908017043 -0.003768630307855316 0.08191163127707654 -0.02193083862185552 -0.08517050539534281 0.029293111328931646 0.057263129074520164 0.05582023546872709 -0.08443676411048219 -0.0026759429969846443 -0.08973585738751527 0.045315557275730896 0.08525716435343093 0.09594535671092701 -0.056374204805564786 -0.05085445995109538 -0.10392587801102994 0.06280995474165638 -0.04922952050087886 0.051176863687917726 -0.0021565243409483333 0.078658939057338 0.08084231959535784 0.046591542891954094 -0.061032246365259044 0.08207483456428574 0.04555521809087933 -0.07712156623149656 -0.009488050251471132 0.08095774626873121 -0.07965610587205604 0.06733641594063122 0.042908389918016175 0.04773845895045449 -0.010932179881467944 0.05098021638923865 -0.04135833071195905 -0.043156813763834186 -0.04304289680140324 0.08396924235528515 0.0335681159464816 0.05222090775043955 -0.024122124086547868 -0.08210184078118082 0.005560402006585403 -0.023931798720907397 -0.03751612644573629 0.009686727978718269 0.04591703339849818 0.07970090346124624 0.036398476334691315 -0.0928585997007992 0.03664741280252262 -0.0938033768081247 -0.06871410006730526 0.001592792030762957 0.060928728808748965 -0.03404255210586384 -0.09159880500193661 0.016499800422283203 0.04548623268268584 0.06496297491945903 0.07091141374815235 0.05260909002201563 0.02297104070161511 -0.061330176007672446 0.01948818376215493 0.08740157645605426 -0.04872289557787622 0.05808388754549496 0.04932843379814137 -0.07489847847110197 0.068912747103635 -0.06576964064288825 0.055948330634961616 -0.04003821888641349 -0.05666440722245275 -0.09906291824558226 -0.0037259904794580347 0.028512145463188466 -0.07300848656581024 -0.08843885652120231 0.09445759375676892 -0.009876938767473966 -0.05733944389857881 0.050254186231932695 0.027310750941130873 0.020501530719849392
0.0 -0.04455547676906001 0.013444186202941563 0.005547663968561767 0.08172303534483788 -0.050452968375563505 0.02041639780975632 -0.026511447327000198 -0.050715127882827685 0.06596770343065075 0.09186299324697186 -0.027689759825092725 0.07946843729430711 -0.09956450661202704 0.06289986787996435 -0.013020762620190918 0.014949995987883172 -0.09346709123482147 0.027048336535395068 0.056123214906608154 -0.06636466563089367 0.004599575674149495 -0.04989906326932914 -0.04988530106216012 -0.0031265212239352663 0.0701324490379159 0.007041636991010583 -0.0095239456903842 0.00435661692809132 -0.08859012183932674 -0.08232235018872672 -0.026679206424091786 -0.08591963622348303 0.0352632876037795 -0.07951280328181139 -0.06695543971001838 0.0876662557154664 -0.02502507364645422 -0.03292634732783194 0.07103570685476693 -0.09024561680182286 0.07835343935574718 0.02177730617959306 0.08668225980137023 -0.09923363986844483 -0.05267335097179873 0.05782109952306169 -0.049131826632081314 0.08149230712591699 0.01186567780410723 -0.030624773032525865 0.008363477097745889 0.05246266475339989 -0.04082569502824017 0.0859114502117006 0.018825635543247163 -0.038870845736639445 -0.055335590063472044 0.033864780500073355 -0.09674303579497284 0.06072903595074303 -0.0856311222421474 0.028854529273256713 -0.056994845679419995 -0.011415107650013967 -0.07728799621071261 -0.030147325823562346 -0.06243602005098948 0.005138298128794017 0.08975373505480982 0.0893137255597223 0.01864480416300089 -0.048005073029839015 -0.030194606000977675 0.07964068599810195 0.057732629567619376 -0.04864368786488372 -0.05867417502363388 0.027317643161614058 0.040227311436157126 0.014472062199727562 0.03943817896345672 0.046693819291767386 -0.024327402793006936 0.015442286275788142 0.021944529733084292 -0.09394679667564146 0.06928085681919269 -0.06232545776713601 0.07042117841793086 -0.054951287738942076 -0.07985862301012865 0.010732399214709115 0.04511664043333016 0.08134936039568477 0.005297100228625409 0.07493042666434585 -0.09550643850199912 -0.08133164648866707 -0.04416016870664681 0.027462904683121264 0.019871092959097503 0.09611054985142137 0.02546698743336498 -0.01827442765699845 0.08726526572031096 0.018303935753552214 -0.02549647927441355 0.07700985332949808 0.06081685235176729 -0.051111538802555215 0.07556651715516008 -0.059747041480603974 -0.06854133853835379 0.06434586380391943 -0.04744227251666684 0.06998361863929875 0.051480956838781206 -0.08248635296980496 0.011935557769448157 -0.06117143811931483 0.01996586241914261 0.05954162402638055 -0.03383511388292651 -0.034297867221278616 -0.09428830513868643 0.08592307579064809 -0.0836718443111309 -0.04381030011882088 0.05508218890023464 -0.029056870824525016 -0.0075186502920502885 -0.06688764493148203 0.05048358932401284 0.008044877310747517 0.034247710372343226 -0.07659684327078023 -0.048940773100145316 0.010916926722873074 -0.08757070996748358 -0.006186904353527339 0.04717939033233293 -0.07924351962804757 0.05746911667944471 -0.0954079503387369 0.004789435483684129 -0.03303380810598473 -0.07928912313042175 0.06626246351515999 0.01668772103364599 -0.03747126219157251 0.08113281365295652 -0.007708528902690873 -0.048009361058649974 -0.05391069363249291 -0.09553501007227834 -0.04929844437078817 0.013237884382692883 -0.015142010580253648 0.06399840491232525 0.024827096629724238 -0.07999631319819829 0.003915722609719882 0.08497245965474631 -0.03625294778597693 0.031469733998714416 0.09775274889173027 -0.014163478641542618 0.05797312876692623 0.06230971219576795 -0.014306983019674993 -0.03149395489613693 -0.011958275184950129 0.04653488499639721 0.07566171529521579 -0.05097833329289202 0.02585785546511113 -0.05020655352839752 -0.015229061393814886 -0.036586646195582787 0.035007051793440463 0.06044851966276815 -0.08754786332669802 0.0901805457936039 -0.06977790269956366 0.019819877392604823 0.0329462998740091 0.04103317679254134 0.0036598010005795822 -0.008139502294168155 -0.09691928862490427 0.05109149525050652 0.07297062927529499 0.08393468068044832 -0.059664318784411904 -0.03964123227064303 -0.09231337324225009 0.09456147209583102 0.07567483278982659 0.08281399693183006 0.007385759246325382 -0.044262086228427075 0.07217866237354884 -0.06748327125573086 0.019078182506718 0.060585134623906106 -0.04043191998013261 -0.059101212058619894 0.03230356323270411 -0.038471906275374626 -0.09112629997289153 -0.060380260433079674 -0.05624187441912941 -0.06998712058633375 0.01523160393580937 -0.057677120292697184 0.06967519194644314 0.07330617271347331 -0.06417799966606492 -0.04143944611735833 0.005709088959213043 -0.06271930073657482 0.009281156667079668 0.06301880988018949 0.01706511744283931 0.05220157456753516 -0.0394054487186264 -0.043323920530759 0.014178588553947324 -0.03406634742190827 0.06838465049779571 0.015141670614338881 0.08342461030753873 -0.051955973392584 0.09057372141025366 -0.08676618494011595 -0.010852361485932785 0.028366047652122722 0.07529737776552461 -0.025895201548202074 -0.013105891282967866 -0.07897315037041477 0.09023060545366002 0.0660065529359119 0.03541639506019989 -0.036208572642338774 0.08615518562285818 -0.05944839964981242 -0.0019526185051690348 0.06744187384837255 -0.08213187106274944 0.058296815791325035 0.0649476277778121 -0.007457699467659937 -0.06197062411018826 -0.08963151761605066 0.05719818413173541 -0.04244874312717138 0.04874997179503052 -0.023625236980518438 -0.05710148822084192 0.05055347089177317 0.04576231789313498 0.08344299671110605 -0.04914686941814704 0.0028364480560049282 0.08779948862384976 0.09690920509616152 -0.08026886213404145 0.0573991652572752 -0.044134455219542186 -0.09413692416118283 -0.037298177029944424 0.07106900016519185 -0.028192038356506396 0.06763566825562173 0.07160023135708563 -0.03793854970082747 -0.017709357906663836 0.08729938460186185 0.02759949432366174 -0.013540294297846936 -0.01869484513293254 -0.053742033574493905 0.0358813545410927 -0.08203442813155848 0.021293207543140014 0.03695616213799449 -0.07288207451812048 0.01774417297148749 -0.08016542419610329 -0.0784558280082131 0.01262341626782254 0.08601538336398465 -0.013278470231850456 -0.09652182194167579 -0.05570189254025908 -0.020915876127675093 -0.013226160256852956 -0.02312607178842252 0.027633903816059097 0.04630099124672543 0.06438694441522458 0.019812298830816713 0.09431430565502055 -0.0995583283024044 0.041103653614159685 -6.189025987257957E-4 0.026084871717084207 0.07273962360061292 -0.03082726953340452 -0.015456506883666565 -0.03762103961759351 -0.09928928421269745 0.09647181318348799 -0.0967475480147543 0.09307840564384823 -0.08672947610974382 -0.09111868874303251 0.06411745344222583 -0.05313692984316155 -0.027894264677601685 0.08616796603475826 -0.06505291429814673 0.005253353103009492 -0.08614350021306656 -0.07186857516405815 -0.06710787027151395 -0.07534561367903668 -0.09855030416644868 -0.04143519353566215 0.04985786052048527 -0.04705752180039871 0.006431775301359688 0.06306703439196015 2.0221708461964916E-4 -0.07259008487039242 0.0592750599342452 0.001633801087039588 0.09521882788143304 0.095498832201967 0.05207273775054838 0.043882339152481104 0.014090741030121812 0.087507800188692 0.05624203474445891 0.006610946171266174 0.01360656398812976 -0.0030621581021383765 0.057441779250302194 -0.048076554618287554 0.005856884716844105 -0.006628230252699083 -0.08768211858604325 0.069148631503851 0.030098254973928845 -0.016988608633215677 -0.006676451582583856 0.026709688785179403 0.002207168149289243 -0.03336716248956023 0.056940884977499884 -0.08982866983314519 -0.08241052493736784 -0.07453924268955706 0.09049850712581989 0.010946589959644648 0.08400344438599427 0.08928523193087981 -0.05673096015707096 -0.06884519599616919 -0.07425124078003481 0.02314317947998383 0.044629716961224086 0.06454184929799295 0.030195026162756516 -0.05327946187272559 -0.08893385217208352 -0.06157164948289689 0.09550788719074063 -0.039970401311353196 -0.05491333015635179 -0.04602525453762645 0.001172863784450917 -0.07094213819859672 -0.05856486561763999 -0.031048170960105426 -0.005426608706538383 0.02848667491323245 -0.013482208313289168 -0.01591260470271963 0.07315832249075274 0.02423058186585103 0.09187401049810048 -0.016221118668367174 0.054267899268584135 0.088245275435863 0.0554217429020204 0.02499514711565136 0.040508432859285404 0.09142743850926419 0.09484434108930312 -0.07465018457762501 -0.03338190877929188 0.06494993273098218 -0.02270816461993852 0.0021608508163777768 0.009903185546047938 -0.03753877045869412 -0.005996418569171685 -0.046487798803393626 0.054028539827414845 -0.015840544419914893 0.027688273958897752 0.05376835711248312 -0.04802432869875253 -0.08854118649968093 0.05713142904658583 0.05912949395488082 0.09316165607351828 -0.03959965678867157 0.05930602788933273 -5.449946841944303E-4 0.07707212593369109 0.018919914923214376 -0.00944852896315157 0.050227926543975926 0.05165374310490198 -0.0454103968561977 -0.001498695198576372 0.014681347900883879 0.02081541695801581 0.09801004451933742 -0.026579185199042565 0.052524223845346774 0.09627545130377474 0.05928837885835225 0.0890625145686299 0.06482068446817088 0.05430043129246001 0.04606873082472862 0.016693643810594794 0.08153194320222062 0.08874900626968366 0.09519193793585354 -0.018202711583205522 -0.06785413436977637 -0.027348988598872054 -0.09118649295411607 -0.08789423281517035 -0.07544615052957854 -0.0560220661547507 -0.014477463056646128 0.09137145644888364 0.06589481621172455 -0.08307681279672118 -0.04510439472800077 -0.0866267655743622 -0.010316228260847285 -0.091819049155695 0.01240525676061667 -0.04882053886467853 0.02352509129139896 -0.0528123623863678 -0.05067653049895196 0.07662071542091911 0.07200990124082426 -0.07894888955722722 -0.03889748983913211 -0.003295557528886578 0.055628022156155754 -0.029197894501313812 0.013481151442656436 -0.0018546446544211864 -0.07518191275238922 0.09755348361334995 0.024401248621428825 -0.04139444761459113 0.08109332040205325 -0.05678840610705703 -0.03818490254091303 -0.008138060664281133 0.017039519383275012 0.057238081125527085 -0.04199730562148761 -0.039059297126756314 -0.012572682738468927 0.043357521820799744 0.0020157274587486174 -0.00832280876256182 -0.024923061324451948 0.075904104424941 0.03572153646361123 0.008719043433497387 -0.05594786615864727 -0.09980063089003939 -0.07166761822557666 -0.08143856720060681 -0.03442285760833033 -0.0038608449418136986 -0.06174367502054055
0.0 0.023196673684248492 0.025240227407882704 0.08825038919638639 -0.0767882733321687 -0.08151626941358747 0.09220529776708894 -0.006233619466083917 -0.08107349485125237 -0.07609267348669804 0.04880311041479307 -0.02842996819723982 0.03386788817404854 -0.08572954898641721 -0.04004155599347264 -0.03736814951392871 0.020871108849452813 -0.060180179839132444 0.06480031310441678 0.06368338752605454 -0.036952719704622466 -0.0054411881926706845 0.02430956296444242 0.011421903973258457 -0.06769595064165874 -0.05766341571239702 0.03412875895473366 0.07680240527710899 -0.043952125178105525 -0.01167102810279999 0.040978164778047416 0.053540334186481964 0.037457095813868885 0.034195003721386064 -0.06727092776703042 0.010069342035499376 -0.010047160914385275 -0.07152891063743215 0.05308914305053464 -0.09850990668242172 -0.027214786112391032 -0.008068282905883087 0.04808666840743145 0.004930984818739895 0.08493160468231128 0.09502946120340727 -0.08540008372899571 -0.021673955040601392 0.03112569807765933 0.07914852829088581 0.041625651801237507 0.061021380920891294 -0.030064626085527832 -0.05329454355133892 -0.022345387501054553 -0.09089201047783318 -0.004507086559239759 -0.0286189277577774 0.07046378977255871 0.03605585904703626 -0.0134967855905051 0.06709440237262335 0.06068867986861634 0.05128546425859851 -0.07312743242786719 -0.03490054277399934 -0.03461063812097334 -0.0026019232931259045 -0.08115961760369735 -0.08887935112563182 -0.0036635776447779267 -0.07398894935016086 -0.0665043231653551 -0.08865351579973509 -0.07632799354733949 -0.08104077243169648 -0.060863525646979506 0.06873329616025317 0.08294524521162716 -0.036710777574134434 -0.08746143280244448 -0.07145446144708356 0.08560891332296863 -0.0413215036506734 0.06662237514910094 -0.03969787970535339 0.09838758264017369 0.04191360699048474 0.007025787714684623 -0.020237414234044293 0.026154039286951425 0.0931928410614952 0.04044148936253028 0.07126159041346741 -0.015004498044831824 0.08512407722857707 0.0017437335990821978 0.03708444429666838 0.07438135249451167 -0.047445718517994576 0.06803342118717448 0.0621549719984561 0.015751048042311352 0.051750158394994 0.06616913211204511 0.057431464820049016 -0.051402691001035034 -0.037560138504753954 0.09254692535043976 0.060609200307859906 -0.003559194558823836 -0.08180233736138057 0.09587326302760948 0.029586932723183162 -0.09789320111709217 -0.017597523313134564 -0.03798889869892377 -0.048959368347510676 0.008394074713688526 0.06783018910511424 0.0659091930701253 -0.07423251128895113 0.041077863094742206 0.06826772211571325 -0.08476365176498096 0.034731096606595874 -0.04169387839254728 -0.02559542150788184 -0.026605078498829815 0.057733033864704936 9.218001687189559E-4 -0.06883622491710889 0.009868390580136263 -0.08328617640668044 0.0065847710913101015 -0.06947114746234147 -0.02932583428109535 0.0017378916887492851 0.01473243240181489 0.05824812410508018 -0.08732901623735474 -0.0885609020912537 -0.03444883742269578 0.0010540360489383616 0.009079947828724094 0.07690222643500252 -0.07486736305034365 -0.061559177742105446 0.06259412269122472 0.09883395882669399 -0.007354480073708203 -0.06072246640033364 0.0958250980989429 -0.028688311489995955 -0.03889799493674698 0.036027399421312084 0.042450368692571794 -0.07785870024822493 0.09129500584227482 0.03880649111137832 0.07956064062203394 0.0019064235668446727 -0.047473064955995244 -0.010051449196323267 0.084202195484811 -0.016219835606391647 -0.09571827045424526 -0.0888153763268243 -0.07707227240474279 -0.09094207275082566 0.05142434593243997 0.015557310558894977 -0.05306762324460808 -0.06818938400928708 -0.049560452356132004 0.003010247972598204 0.07993720221220837 0.09285475035867574 -0.03833687981376522 -0.07482417285236237 0.028669271175681132 -8.875917035052749E-4 0.08926785648749966 0.09924248611665815 0.08341205946618632 0.06257921945156014 0.025546767255898023 0.03250392317015896 0.029842801956783266 -0.017916352489766266 -0.043951640698309286 -0.06288656775463342 0.05783622437228214 0.03212047358123521 0.04878642843975983 0.03714579014857336 0.06964954323767161 -0.04640993562169631 0.02099859933561482 -0.01447372183949519 -0.05761716046469981 0.02294890579624953 -0.004289398085385157 0.04212279822266904 0.09256511991817198 -0.0438324298249176 -0.03310325929786116 0.003051330019531673 0.06102416162366822 -0.02159197140225283 0.006107840296560432 0.09471461860745137 -0.03729883417423992 0.011643333959123536 -0.011410316245779761 0.04213026456841998 0.07148123563492445 0.04828255069267054 0.04741548698031886 0.04954908345241579 0.04902970876879717 -0.08440665029788555 0.08585485574080601 0.08890772220801588 -0.06301382203096345 -0.0625603179337128 0.03231056942095056 0.07907180228414062 0.06926837453618362 0.030070524453924774 -0.08810936784413011 -0.02000475495809738 -0.047857260170612634 -0.017012804324443034 0.0017488321475545576 -0.08986014558968516 0.017512321763761177 -0.033211787032697476 -0.010051760106151345 -0.09122415896705592 -0.05389298594154808 0.05031585144613662 0.019270630353307006 0.003466852052325123 -0.023686017656666322 0.052539312252057574 0.05471600332833626 0.049170163476017326 -0.01779591938279708 -0.04606105697260026 0.04011347214979627 0.05580938440756228 0.013226747118183405 0.09934162342554245 -0.02872095643701994 -0.03518174182783032 0.08813810861977381 -0.08751983301955196 0.07221344726354934 0.053411961927537666 0.023551009548945526 0.033591920900535116 0.04128408252005533 -0.03767133253355322 0.047659184485138034 0.026649861217792364 0.03861228846223308 -0.025427618494415355 -0.02878335984048537 -0.08373432574952296 -0.0648538291327126 -0.021680103461796663 -0.062092607135780784 -0.029563375000323355 0.018838935013188174 -0.026260738529612776 0.08515263339541548 0.07943105709417095 0.08439354021314996 0.014742461216673775 0.09348478969998314 -0.05650424707877722 -0.06241042943546805 -0.012125504007399743 0.07194870385413873 0.00492084705031845 0.09800178668303675 0.06803168945135107 -0.09829681343455364 0.02498712980724721 0.028928588780845144 -0.0921735561833088 -0.018188669724851544 -0.09503275574885772 -0.013473276571086684 -0.009998650088825722 -0.08129206771751518 -0.023961017549366775 -0.052205032633785516 0.022310525124938002 -0.05051514352225928 -0.04426305263864406 0.04793709847226396 -0.04864058397387257 -0.09539860232689186 0.07351400511171355 -0.09584964731480682 -0.028817962659352533 -0.031547527588791924 0.0959494437336558 0.003698118282495458 -0.026513549390421054 0.06598149254126337 0.04992040964648478 -0.0683419648374255 0.015722486035374184 -0.06463034734145134 0.07619655689590793 0.08409018693753181 0.04667163399332086 0.09014715480443661 0.07663280977097944 0.0634936467019355 0.014433499518034687 -0.043120219119487053 0.07198994907844589 0.0932973752109087 0.08758433727517217 -0.03252817581108439 0.030091588159066263 0.02790474236189494 0.026041470776731385 -0.08654682349625241 0.08692802785655077 0.04144190582218549 -0.09461561933826615 0.06543055858051189 -8.194227723271053E-5 -0.09591885828180471 0.048108726859359574 -0.09851528365136109 -0.09011782136556323 0.08608946537468642 -0.09589520461652659 -0.022886989229427987 -0.03473232278120722 -0.09650183363917536 -0.004878378361475963 0.021532267209403266 -0.019091741581581542 -0.007387974459017954 0.04707603329571794 -0.02896761688430252 -0.046005619654533744 0.005860126911680072 0.05835475925496328 -0.013989610935060792 0.097686868646328 0.03129033646257187 -0.064878774406957 -0.08497408791897981 -0.012070894405387833 0.0438638289087773 -0.03526940124497549 -0.08508010917245856 -0.05312047202731458 -0.012502258527302829 0.08578934402406946 0.07623173570874878 0.028462324258786753 0.07755387505296821 -0.0054281475591768935 0.08293178143837834 0.02222253072533703 0.09066049707617665 -0.0257489699415753 0.005001335099602766 -0.09564887996579184 0.0331405203399997 0.06339119518920217 -0.022438211060711893 -0.09998554371911195 0.01341270271925743 0.0303312920926517 0.03329055925823243 -0.0712434742995147 0.06426374001126453 -0.044129162227786276 2.3196394214272664E-4 -0.06304274986455423 -0.07121590664830922 0.008927557638257644 -0.0023874105809756907 0.09741373261885711 0.09128050838640642 -0.05554079456486004 -0.0031779913140608518 -0.008723436819491864 -0.013117136456172546 -0.07908688714775808 0.09162815415485173 0.058717259061635246 -0.048502703587572985 0.009518349632638659 -0.04233821190141596 -0.05437445031429378 0.013023548263920645 0.08116567814409556 -0.08980754131185201 0.05374003978756575 0.09854392622511157 -0.030521676359670277 -0.030094137610131202 -0.07816126013040002 0.09340498605858963 -0.051457895100106725 -0.025536658236124485 -0.08602954105606551 -0.09718251513834836 -0.029493407890983966 0.09127287052663366 0.066492554244994 0.06619794653646069 0.041368025795107316 -0.02996326010924344 0.08166408818381576 -0.03220153399612831 -0.002838645987762317 0.06521124294013628 0.012720005477426327 -0.07555039976829153 -0.06853645382519347 0.02146726300472132 0.07156236397053808 0.08883422314510256 0.06534585095082776 0.04564185006155075 -0.06078834326020304 0.09896945418407335 0.019157832202097436 -0.0899217233159865 0.040010728478605956 -0.03664472329629005 -0.011137395440468378 0.026658810907845415 0.05499864891376921 -0.017979109961176132 0.035528593571102274 -0.060382730195957794 0.08370636313405386 -0.04673677500652796 0.040031862459354556 0.06142742823276803 0.006476346246265752 0.08582920961976409 0.028721793843998228 -0.023976623526256832 -0.09155635812550811 0.04660897444763512 -0.0016494668966445386 0.06064367069900442 -0.04342996869346206 -0.055948141733590334 0.030356385620191217 0.011654888419934908 -0.09896366755237967 -0.042155293084854044 -0.02312639354279121 0.08948562527115525 0.06550239930609825 0.0325165398510609 -0.09492346628728109 -0.08580145030836878 0.04187943917214609 0.05387789467612139 0.09082029354952287 0.08151440654156689 0.024012540685672545 -0.09826941471717704 0.09412842042645922 0.09342331392392522 -0.006187714360780985 0.04104712143596695 0.019153628586702262 -0.057118009374107256 -0.07402054625259441 0.09311026123091656 0.04659414315522892 0.03717723671377718 0.07842766367029194 -0.0281225558209435 0.09160870760194154 -0.05631704778028273 0.06600457939968121 -0.05274558521910107 -0.02658167410019746 -0.03488983265412558 -0.009274860838279803 0.030563609609101844 0.033974459088494446 0.02438221552088128
0.0 -0.06594673139656633 0.039062054298090815 0.002572000318040543 -0.015077088271175543 -0.044400210441774876 0.025450524361622318 -0.038408109251312376 0.008276297698804225 0.06468867198297504 -0.05463793034596083 -0.04208285803268302 0.03464312810703887 -0.06055099194173326 0.013326599059170607 0.03027825675878651 -0.020944214837326655 -0.021140258120605826 -0.047317792805399925 0.06748579082892533 -0.08206062252043159 0.005373040323185654 0.08930602198241663 -0.04328620771894776 0.06214413126203608 -0.04678569458312201 0.007463840281060924 0.07677618932126196 0.09504445789475299 -0.08977703174055951 0.012445308701941285 -0.06327983459014115 0.06186891519164531 0.09763113396992948 0.0460327424357001 0.01601943173184278 0.03037949318898686 0.07162382584373511 0.07720721216592943 0.062097988513629215 0.03904362596176461 -0.06367148220800599 -0.0759556394676268 0.0506532218854831 0.006526581953481034 -0.022122310681091342 -0.04958209861201358 0.012667200561832653 -0.07169778013403175 -0.06320469494720589 -0.05048531277818842 -0.052145692077852426 -0.03908916226388129 -0.045982739426818235 -0.06607569441119146 -0.07007337493067137 -0.06224729033101924 -0.07796221388699145 0.05378293762507036 0.016575810711720623 0.06711763695878048 0.07710096952787909 -0.03571891639825969 0.09491607806683991 -0.03112073796021142 0.06411479441464438 0.07011879807932142 -0.027222283622030163 -0.08558035801323496 0.058167016206150085 0.052224079764100706 0.04415556187397002 -0.02889106794158397 -0.031057016116539354 -0.08078332085147562 0.01485969259496138 0.046563894284824076 0.07578159136086537 -0.038023513206749154 0.08349209629282786 0.06323596103172979 0.04833881441139584 -0.03643620589954487 -0.05520269092084365 -0.04131426835690511 -0.06906793659862027 0.034366904080697175 0.003993814613638735 0.09149233216478891 0.013367256013208206 0.036664076525029704 -0.008890801927899872 0.019478917969305454 -0.0231104530339582 0.09886242270923834 -0.04134723630527447 0.07507552966837475 -0.007135215445753268 -0.07437434810415 0.0502426015712214 -0.03996434997703294 -0.07606484886398444 0.018287799389039294 0.037806634257087385 -0.035829887576819444 0.07893236009421914 -0.028858596155829863 0.022727926387523245 0.03551282374388501 -0.08162778301317763 0.025494729064254013 0.01618584053428397 0.09759858876644395 -0.03256233786938928 -0.017958526588389215 0.04268301040733988 -0.07579742594397593 0.07737880989541526 0.015575517280121465 0.014970138518903539 -0.08946492339175836 -0.012666512847431546 0.011223971344409167 0.09287707361024647 0.011626315199364634 0.07036601908180756 0.029409151373096243 -0.0403330721056928 -0.013186563230300818 -0.0833054631825458 0.09268468272314273 -0.03672170342263259 -0.07688278409484105 -0.04343189595685915 0.08899328704190679 0.0014435775517570582 0.003837017123417774 -0.04824280717058154 -0.06645017513537187 0.037050113745218105 -0.045376899381836935 0.05589424092911072 -0.09041090933203683 0.08157400754306435 0.09871360592121059 -0.09055663358298234 0.04051829651581748 0.007689453287106837 0.01737782105902072 -0.017850461439701065 0.06849240024010661 0.02081293350582003 0.01504279505863848 -0.08313152695176529 -0.04740533378001509 -0.08842083429059729 -0.04434291004208493 0.08159412892974907 0.004129855294827053 -0.05315041903244262 0.028292607037576772 -0.01598307072393866 -0.05688789582474921 -0.09764539576755565 0.0971348688510113 0.08071786062703923 0.02524043299236539 -0.020128970322059694 0.09208946062400039 0.04310170954306464 -0.025935090754021006 0.09079324158753047 0.04047299646479674 0.08880930880947457 -0.043454970948062346 -0.06927999219398058 -0.044360504678863946 -0.03835296774175219 0.02471729798625434 0.059554876452638045 -0.04615315329367991 0.0900613494867138 -0.05677386780231393 0.013847857565751284 0.09566973521674904 0.09254298027811406 -0.056128882315768944 -0.035521509416589145 -0.04197168642951104 0.0848130464564624 -0.040852458908506625 -0.06024753112605135 0.08564798112107647 -0.06164201317000191 -0.03008100292130439 -0.07169379552201166 0.08439875207645953 0.05434753424502564 0.07896914068890346 -0.05417850908862268 0.07789557749293219 0.06972120262543272 0.06994718100376371 -0.05299080830414074 0.017239279584050304 -0.009531288358198414 -0.02261339395609535 -0.07533385423758732 -0.08439758278001797 -0.05300705950296934 -0.0930512573744225 -0.08164344938838784 0.03339734998265273 0.05469675185182718 -0.07661100543210649 -0.027932813826604674 0.0032352380730330255 -0.009905415721922453 -0.020376721460402356 0.09208542789210733 0.0667459515835998 -0.054834997127348746 -0.04371029397305766 0.06801087836470782 0.04892596495103091 0.09161373966102235 -0.08058242213687312 -0.023594840322908803 -0.028460429886138644 -0.012098810390817755 0.005940249085862048 0.048560162787778305 0.07225166770087804 -0.06520564999065355 0.009731146483252365 0.006644550071784036 -0.0435971357521654 -0.0806709824908271 -0.021233331516372578 0.034249919590546435 0.04345966790530664 -0.04821223629724765 -0.05313325493195165 -0.053865205486800655 -0.07413354397633581 0.08066985571246421 -0.05914118442960302 0.04349791246464027 0.09826809716615817 -0.07635411619068151 -0.09042186222247568 -0.06625009386086254 -0.019689874541255703 -0.07429494938444724 0.05815789476587499 -0.026167323348119068 -0.05142308836578509 -0.059799048358641055 0.0012263154695229816 -0.013239060830791252 -0.014363392422436297 0.0571460815354016 -0.09146532904187742 -0.019181707806067677 -0.02095817606985971 0.02487108595169829 0.07807186645317227 0.029796515813949126 -0.046713821906345834 0.016541120683364552 0.06173151831669163 0.011267363065185693 0.09792051811338484 -0.04770250294313656 -0.04626515017834541 -0.0494845429610618 0.05188953663253715 0.09815313579539872 -0.08556650387420837 -0.08212128894006368 0.09764851438422076 0.012547967403341853 0.08763761310290566 0.01780839800989814 -0.03471640946777821 -0.04394176377922894 0.09112420694713524 -0.04894034370097014 0.008057985719332805 -0.059596634646582186 0.05658277466918815 0.09306892474093278 0.040923095090069195 0.0882507654052185 0.08641406348155889 -0.0059140551793294 0.06478371817933606 0.031808332280939045 -0.019217871825869898 0.0036182411150207927 -0.06932290692258719 0.06297858597544403 0.0924655970969206 -0.009071422769950974 -0.07432200186004366 -0.019116132918342563 0.07659071160942235 0.015241379714776238 0.028661969377570817 0.0953268217603607 0.06924461769611454 -0.02422427117743474 0.0522142045906801 -0.08045849314736112 0.07206976086529862 0.03889949507632201 0.06488760758851156 0.03803314280782477 0.045129534049941245 -0.050372627066071866 -0.00931410986445956 -0.09731845893139797 0.03550919421201362 -0.007050065318777193 0.09660908746071528 -0.053397120449073146 0.017930194408243894 0.07713195105621287 0.08542547562044844 0.059109069394065294 -0.02065362314699931 0.0650567481953071 -0.012009278278078683 -0.06930198102986707 0.08149268688632486 -0.08122076308019699 -0.02383551879039264 0.03230830490390438 -0.05074250008709107 0.08298260269981697 0.0787129310150084 0.03799162926083424 -0.09373468028669635 -0.05878888155504814 -0.034399371807252443 -0.08778806343957979 -0.08172766952684446 0.05836675326511567 -0.038895322743770375 0.030123510623806138 0.010579102788067452 0.0521213208868915 0.07105170830517829 0.08195829050167039 -0.015049192848155299 -0.04595388467057636 -0.024873389692987496 -0.012786493691213499 -0.05735000876266845 -0.0973947329441704 0.01505709559632723 0.05927556280424606 0.014134446851693891 -0.03246245172830692 -0.07144759903301273 -0.041991089496251084 0.0885387336148375 0.0334799832850709 -0.036168459390797186 -0.03496932553575538 -0.025011821243369856 0.04231532295655399 0.07001990622795276 0.014063388488838119 -0.04048183980645637 0.07139665031711781 -0.0884404945258333 0.04027359360474911 -0.023893241004026344 -0.05573337142821713 0.023350470244696164 -0.09231969164025716 0.05158757008588599 -0.06433008490216752 0.06635034942510667 -0.0011955607274037744 0.07585910626403275 -0.022139637493340317 -0.05333896071584161 0.04557897589979043 0.05570705184298111 0.006523455719902371 -0.05889939750797793 -0.011242776034404073 0.05314104581198825 0.013989630394494135 -0.027213734359524885 0.08659546811987717 -0.03149480845486141 -0.03529779413463595 0.08729637421482675 0.06492554986889176 -0.010363060188573164 0.004188352867120243 0.058590040077828504 0.05158083657887355 0.06221019329361446 0.06512877843645701 0.02074015589303073 -0.09318969911137019 -0.0722124870278828 -0.02894320887588503 0.023088137896310812 0.07642189921170373 0.09814016549374763 -0.010934903407549212 0.06990928802257007 0.005315874030774423 0.022381142709285498 0.045776555987753376 0.02869859076433337 -0.050963444701621 -0.0021363480335637175 -0.08529559582270317 -0.002579127979462026 -0.059765991934110835 0.026265052499589964 0.005182702049421728 0.09004557304227526 -0.07522618702850525 0.09812835308433282 0.03766976847353165 0.023576309298296516 -0.07039154955874452 -0.04521219564292616 -0.08092497348248712 -0.025723494053093043 -0.05026577714427898 0.019299647074073556 -0.00780507439744689 0.015077602076379287 -0.05048463401228214 -0.09983312532845548 0.012340739018000382 -0.02135119699590826 0.09310366429562478 0.08104232716478885 -0.008607719063531888 -0.05146037358107765 -0.006872541156137613 0.05061073511118677 -0.057108358308867006 0.0071299350430151925 -0.0842036365911929 0.08448563008575025 -0.012672094598704053 0.02140117077898679 -0.09176043855434701 -0.047417909983190114 -0.09920894723300805 -0.0968767494397024 -0.03886851890992931 -0.09668360091480631 -0.058281227146994755 -0.05232987977799291 -0.03062291948809029 -0.09895462824836786 0.05118366520702153 -0.09262580625626918 0.05012981855582624 0.006011906328988514 -0.07617144916488894 -0.03470028988165025 -0.0747559993080049 0.005022713717860616 0.06792216465789838 0.07837650022238288 -0.06453462539887363 0.0519140724810401 0.061079440942403196 0.03870651678765713 0.08556366317168287 0.07838655458692506 -0.016593285838383404 -0.06650228958909972 0.03989151926415299 -0.09560802451854483 -0.05394775362354554 0.044964376162078296 0.08534194076311663 -0.03108448327243725 -0.0908969821187065 -0.06448716337879896 0.03228110153790678 -0.03318025199329805 -0.001140543058545454 0.07197778755180087 0.0504378554332687 -0.08879314291873444 -0.03941496487597563 0.08319142017693262
0.0 -0.03685050335505108 0.09588644906040314 -0.02654675579652642 -0.05644786590598841 -0.06159722970353226 -0.05337343766274954 -0.04701536330327343 -0.06934510619827719 -0.04862839880434995 0.09006378158585882 -0.04318871310297801 -0.008921717337855462 0.027456378966775136 0.09308489261628514 -9.66436655574679E-4 0.037033132883014824 0.02570181669759311 0.05382305208836943 0.0860897347084432 0.07199418801891225 8.809870666694475E-4 0.0685617912829399 -0.056810456915686494 0.05379364225924224 -0.0540965625507192 -0.028192971769617353 0.05951598497820451 -0.051805671651222414 0.08281027278152422 -0.015006131716047727 -0.044197742779232656 -0.0804299811885664 0.04826081660124523 0.054287374511763575 -0.05172943603099059 0.04737499677113971 -0.03073343779923335 0.01499935836768812 0.07728121636533505 -0.08997336266518724 0.07436414566875785 -0.07732235145672539 -0.0543292921658569 0.06705062724628322 -0.08621528258658384 -0.04068116075902613 -0.08199773740479394 -0.0825351700686568 -0.04547786101235814 0.013473784960516141 -0.09852574667902683 0.06461889166639595 0.009939993087919194 -0.010811681911072499 0.07355889725620665 0.00810661860301165 0.03214766025329263 -0.08563433684255586 0.050930599658774195 0.04081718359419306 0.07026384866519925 0.053694225796400874 -0.0844991614137864 -0.030650842933125352 0.09909115611753061 0.07463382430146687 -0.01543936929100849 -0.07569828916355495 -0.041656403789913095 -0.05481097208948851 -0.05727783870896031 -0.07744032850849716 -0.0013481130291132237 -0.08353771271149453 0.09663538194834886 5.9588555014616906E-5 -0.08572135505447201 0.0357352142145311 -0.024758782445464367 -0.09484795426855214 0.03860214915199403 0.026983815216264778 -0.057445209556968885 -0.05231914103543059 -0.039551582917912706 0.011345549958436327 0.01128825912173037 -0.05080130101659722 -0.06255279048354319 0.03277222322182036 -0.040972397125982 0.00871308875304555 0.08919126509659961 -0.002637925342505676 0.07048968928316526 0.04910396790340202 0.024454265389454832 0.06436838356505994 -0.08423610639283044 0.028820781747149637 -0.022647634214256737 0.014324804440474612 -0.028466894066656506 0.01951227527690784 -0.09321091445331174 -0.06112790456409155 0.07202474456160007 0.07900497978748669 0.037003774832554376 -0.07182109174782221 -0.007939369830147189 -0.030791761881189997 0.019550341603814497 -0.032986072019941956 -0.02691377527157604 -0.07922435976457727 0.09488183059451707 0.08038997941195455 -0.032085229009241004 0.0780624634022476 -0.08425412944546883 0.02775799283015057 -0.08097408069636379 -0.03166255019297769 0.03753177257987553 0.04602204429039494 0.049976502926008665 -0.07247340509749159 -0.052960950432965496 0.04473277274482329 -0.061061512817576796 -0.07689314190152555 -0.004404946572619084 -0.08026693902261511 0.08638756139335721 0.0986169790025187 0.049766063707799485 -0.015853961486526763 0.04805089661563075 -0.09933411515735464 -0.01256896018327014 0.05414742672577649 0.006787906347208536 -0.03393781245361596 0.057877357615870206 0.09695720490254117 -0.026487388460475075 -0.07388338900783974 -0.08268705589576703 -0.03294810181200114 -0.09372729214871232 0.03252300723039636 -0.004127367477347099 -0.0884755970990806 0.0688490029436267 -0.030707536516742878 -0.07788526165445515 0.056357983655288796 0.04471615596321857 -0.05114665448392755 0.032603390649357245 0.08239662221495836 -0.08515094547703084 -0.04917649520930601 0.06012118426012017 0.02103147406813903 -0.08632288980190513 0.07267897555322536 0.04276596196754939 0.002734780190171593 0.08501111696898295 -0.054761422140971225 0.0262661486382674 -0.0749551496916683 0.050551625283536544 -0.05913677782673848 -0.041466371764412396 -0.023908679789825762 -0.010137652272211042 0.09140401953554006 -0.03281567391485565 -0.002175856259350531 -0.09323180023186098 0.06651208134000075 -0.07270060686236386 -0.0015320958589315342 0.03297647734884104 -0.08473364614172668 -0.06974099683346471 0.008550897640061644 0.07070914707623069 0.006644097589245793 -0.07287375356314812 0.0711235821554971 -0.06558689976879016 -0.08214894631034851 0.0036430891030527213 0.04465789098593939 0.04759357153051613 0.04182485274554751 0.09131351697527465 0.0708123875548779 -0.06771304313625137 0.07663056814271191 0.017510389057115106 0.04116224468039556 -0.06110358003050971 0.05573889276688007 -0.08982006547061182 -0.02075387663402578 -0.044722527442530184 -0.03771325048950583 -0.009972301096901948 -0.006311695796449288 0.010880338630227457 -0.04692802640320706 -0.020195467202379247 0.02638005652479905 0.06282606573934726 0.016435258756323165 -0.08734366465491528 0.04586722094923723 -0.042825811242344705 -0.0302108352885649 0.0875499091188369 -0.0549952017969831 -0.07056971141056759 0.061129505198817685 -0.029011973477894692 -0.05564043064503657 0.0177788428276993 0.02579983894803109 -0.019449349770253394 -0.05578038200438905 0.0072027492604617716 -0.019546721257229185 0.011505801821450237 -0.016684639704697635 -0.032502612265597766 -0.06949201863433407 0.07605280025785577 -0.06760647052294418 0.08910024836651376 -0.0011302962738820171 -0.02962129891268571 -0.009927953049657198 -0.09157999980168446 0.08117912828553456 0.07773483712982604 -0.06868964743272239 0.047212161463436625 -0.004005517468429198 -0.006157876894618608 -0.09220868797971216 -0.02589298851261962 0.006937018955218643 0.04543824124193033 0.07722280827904224 0.09424820473647136 0.04542422300998983 -0.04999830595051878 -0.01991894808642694 -0.06978480178217666 -0.03475339147645501 -0.06301116914684197 0.0808509312902779 0.018603126635703307 0.021712578803221458 0.040113603253246116 -0.07114816279632237 0.018734998217237453 -0.08321640470297553 0.08285312568071818 -0.02387726175747383 -0.02862228566909615 0.021761442206005302 -0.09220342860243531 -0.09432132057593175 -0.05356765462076608 -0.08154979750083301 0.0019725028551240836 0.020447755749054303 0.03237708378407425 0.065510032153699 0.047554654259124446 -0.06809492128274244 0.07406480182499764 0.08952608425409833 0.08845211092649566 -0.008542509690227545 0.0029446475905910985 0.08984746958235659 -0.09911809785922593 -0.04143123276628403 -0.07106474661462461 0.09188329914347373 0.03548295495815826 -0.06368570622243555 -0.08438918211234477 0.09436754042242027 0.035008626713474905 0.0551087660237613 0.08977523762967471 0.08868744832145897 -0.09137601641403853 -9.09429344807422E-4 -0.027008042402446086 0.07340269862675583 -0.09469948707511061 -0.014903090762467722 0.05194562447317738 0.07997726610898437 -0.08206152752744329 -0.06923117403872046 0.09195726467393905 -0.09296211862628628 0.036643500879879554 0.04701631590704822 0.021500817415406784 -0.08379976559144625 -0.048291716556066816 -0.06581279901149709 -0.04177433406346341 -0.0492198038569276 -0.047653556538206604 -0.022226493531729674 0.011752313780934165 -0.06370963489485792 -0.0711523841453098 -0.03140562167853643 0.04665412135562838 0.02920053005842682 -0.035737060456619396 -0.061350505054466695 0.004442784342425635 -0.04470218375417315 -0.002406830613053648 -0.04763380901488939 0.03338735150606195 -0.03029998323743699 -0.05573986434386634 -0.08510851794184833 0.0071755473888699545 -0.04261741574236982 -0.0990572254979732 -0.04833757115174307 0.09931844929475228 -0.07190343401016067 0.0848024285548552 0.038822697990465144 0.09996743596511634 -0.06356029517648039 0.07049996117582139 -0.024766205010485612 -0.04043979854351046 0.007324548911693096 0.07982181581850262 -0.0661052220576282 -0.009499769602852925 -0.03444348931536319 -0.06666039296812194 -0.05368658971159273 0.0936552118369289 -0.07620109592375482 -0.0449062158728351 0.08997102002168814 -0.04321556302663705 -0.006642025218679126 0.07924938115706578 0.04661754888482206 -0.09561223057583777 0.06593704780315782 -0.07994022437560144 0.08288220346017464 -0.04085252377469207 -0.03439415190890266 0.08638035180768378 -0.030172356623400842 -0.06431344268278608 -0.008938640424031613 0.03541526206190912 -0.08686092716782556 0.054572583002335834 -0.08104053034659782 0.09094112331843854 -0.0015420079869600117 -0.08030805058255285 -0.09849026843807816 0.09957361418913738 -0.07845517230646828 -0.013708123090846958 0.0775007133774833 -0.037834592433411834 0.08201212812289435 -0.047965599647770744 -0.06419553960458467 -0.07553417216646566 0.06556149996204808 0.019285719128022696 0.008699657497733396 0.013359485560313203 -0.020127870024329253 0.06924016426927776 0.051313337440698076 0.059979002612477045 0.06066961836910456 0.0367703948795676 0.06664558934172388 0.0806995016109355 0.0037182700746423297 0.04841382205550673 0.0440303718835684 -0.056803216458912426 -0.02542155886402575 0.07123635775793905 0.08928495760570429 0.085090795245435 0.08615522120942484 -0.008855021577447067 -0.07388841263068346 0.06144309068562345 -0.030358579115463094 -0.07372107747703643 -0.006014151132469489 0.07368128621017023 -0.0404264660336281 0.09639143172050593 -0.08956299314003391 -0.0655209921483026 0.09480433094577423 0.06303939090786267 -0.03308217607267433 -0.07669886199538956 0.03811189194097356 0.003823328784366975 0.041170239203708464 0.0014580432907287527 0.003753828455960881 -0.09416182069880784 -0.019045513976765377 -0.026539527237551583 -0.09545511140566941 -0.06561220441906848 -0.09954183970056202 -0.06272898747587141 -0.01898141333132347 0.051074490263808975 -0.04936601151246618 0.030994432438941566 -0.012476954309810426 -0.011117934750607725 -0.047418318156853115 0.010791322373009782 0.01347959290540128 0.0029833819641003623 0.04422047656797459 0.03519836669689161 0.04119747525650455 0.06055420967844735 -0.03485224104998426 -0.06542680435538772 0.09736308857285539 0.08861215905928743 -0.03571594864872313 -0.016585196883031908 0.033346497189019886 -0.057825946838903505 0.058263660392699285 0.011268412590228594 -0.025387931185014354 0.09178834404520883 0.06271614235735606 0.06069910749811419 -0.013610249645756106 -0.06562943440523993 -0.0808642864709887 -0.04500014146125642 -0.026812717111304618 -0.08586457916236373 -0.05701151632444859 -0.07200785828131258 -0.04484709569442762 -0.09550552507941473 0.08086893594212133 -0.09532998758107294 0.07404438715795983 0.07839922720067091 -0.060232787590012146 0.005601793440141556 0.0616822981740813 0.009148172059180143 0.01993844038344536 -0.0031951479412828387 -0.06036263367397231 0.06458895290627209 -0.03387225144491668 -0.03453689099212978 0.012981994920625878 -0.03668363784419078 -0.003631339656719315
