-0.048414824961544374 0.05560835098122652 -0.0038428523194902376 0.0014151170789235491 0.09973302286797386 0.029521932960273417 -0.14299491087669047 0.1130619986023349 0.012431126926106558 -0.1379864811782733
-0.025470543511537453 -0.24607498435168954 0.10538623152370043 0.03897678499217968 0.01116236181610755 -0.12257531810140478 0.03285838307612239 -0.39903608414521274 -0.002317038500961939 0.05458838897247473
-0.07597956331841485 -0.01570278117326519 0.28811890391847794 -0.02805239400677512 -0.01836545276354962 -0.14983137068995778 0.011256947062118348 -0.21117168080705875 0.24910492072153692 -0.11322917417636796
0.10118123062597881 -0.1498061771658321 0.016596043907091317 -0.15108662514294516 -0.4243545470117023 0.011463515293532928 0.18311601555324514 -0.04088802795237195 0.14920501696924188 -0.1921053416993303
-0.11920198512060617 -0.17699111187260233 0.29153158291001247 0.037468524297062045 -0.06985305589064764 -0.14766440338472192 0.10754979348463792 0.05509790087030495 0.022985595953112264 -0.15437679887678007
0.04042968213171098 -0.07010510485044434 -0.08021072592232908 -0.03630353150358458 -0.20717399187357605 -0.030350308243900635 0.0858059997232461 0.01837813914052964 0.01001049883550996 -0.11495484422471915
-0.11359418239427435 0.06366709031309242 0.05661778460705499 0.14484366641556265 0.22210857018525543 -0.04183973752870628 -0.13101359946052177 -0.019004222905502712 -0.20557168352210356 0.045180075934530425
-0.15431226902101647 -0.17115699530346623 0.1534983782387107 -0.22273994840650824 0.11485286891074521 -0.020949465058173716 0.004821333011451665 -0.09799929388124644 -0.031127446027543696 0.06763999271529743
0.02363527553134193 -0.21991264177899322 0.0926464069172189 0.021237772738681465 0.02647685999906256 -0.014654859703443145 0.014092986525614184 0.00993905971771131 -0.1454311345615415 -0.029573322629668334
-0.05288410029366124 0.2884623971279275 -0.02559715654604733 -0.21809520589151288 -0.09986028470352458 0.047263395705040255 0.1754561950988939 -0.1549861852810342 -0.00470302915795926 -0.08418677977722715
-0.13473617657259204 -0.07106688097189905 -0.014255331238352624 0.13125977707408082 0.3048199498320171 0.07742186535045197 -0.0837048380507957 -0.08129015809186123 -0.0905138535432157 0.0950623769097729
-0.2061201303425025 0.06962306238415782 0.03547755710651282 0.0776453877304719 0.04020551117478884 -0.08588520932697943 0.024961713938309843 0.06608686047578496 0.04063122564298821 -0.09729921439281125
-0.07032706545245712 -0.2142983652579953 0.02681821235751425 0.05323594990485564 0.2724048580472012 -0.1880937166906401 -0.20465546567047496 0.18471575375530694 0.01370891737802232 0.08016249017028858
-0.050030331808842345 -0.18182301200940704 -0.08922766019843141 -0.08522171646947169 0.15673287638559913 0.08001213171969791 0.08438301256912127 -0.07057966236446611 -0.11504227285631642 0.16014265414617737
-0.10873331821431026 3.614796241525021E-4 0.040709884904303946 -0.019954612624447438 0.2833062522262824 -0.012538317367642342 -0.10937952586558833 -0.08246316021385883 -0.16423219282829743 0.04592683340044322
0.06186245848368795 0.169507365311177 -0.03801814437196215 0.03693225420697938 -0.11940822716713118 -0.1173004632734878 0.12653339096314897 0.16623154396919299 -0.06924912216091494 -0.28733464402494446
-0.07551844873537134 0.04335666844349323 0.31362250641005546 -0.013994976216519834 -0.06521361111074545 0.013751248824340055 -0.08919903246630335 -0.001386292709876572 -0.016242410875013383 -0.12340749441429896
-0.180378452619823 0.014462296191172636 0.11198198301873351 0.012797480479237209 0.12165405768606845 -0.10264702985642014 0.009086556091605804 0.25223948041980104 -0.1280269568469093 -0.08667110022045248
0.04149712650587748 -0.14040809586279634 0.008719840430300715 -0.0052240830624847665 0.14234850056915926 -0.20561858125415913 -0.15722601546868345 0.1453445777672867 0.03227027756238301 -0.05356190900674008
0.10119810368138357 -0.1431574152268151 0.13986491687328662 0.01449309781953278 0.21012796407675638 -0.2636691385579072 -0.17989594872045586 0.04770919966462498 0.13894794433797833 -0.16269663278884125
-0.2541494980085155 0.2202769908008266 -0.12859928962726652 -0.045940019983167595 0.04824112957789231 -0.03965293601999176 -0.10423878307906477 0.09423986672985665 0.09197996699736806 6.311814997430431E-4
-0.12666036460893934 0.1421847478944202 -0.11187324526320888 -0.08449370922124398 0.2711078130599401 0.022307240392624713 -0.040596893002041015 -0.004752154620605082 -0.003727974981360749 0.08419050147234249
-0.03126903438196021 0.07569775097411031 0.1385129887394246 0.05627200603187924 0.057908827310004365 -0.147572361355158 -0.20520835693775327 0.10294509416203602 0.12824696289855422 -0.20362987279096464
0.009072770657571666 0.0701203348528973 -0.13377876690179313 0.06232849025446183 0.058309072845692395 -0.011851981256761493 -0.17435004255924208 -0.038430063665563736 -0.09542957005936493 -0.041988786386910684
0.12313630765051936 0.10699290766840987 -0.05700911519149059 0.17448030226431155 0.027586647589517215 0.006047654884320785 0.03091516117115968 0.22296434516319044 -0.06469503515273893 -0.2729625407673516
-0.07806745582783758 0.04105098177104379 0.11636400327818257 -0.1767989199120849 0.024016323790921928 -0.1370615271807621 0.05848390557611137 0.02889191575368633 -0.05609571257682312 0.0716326941201066
0.08690884398423722 -0.1303695082301042 0.11124556353598164 0.24136957190556846 -0.19052195789400098 -0.0882081981405038 -0.19702765625812624 0.030000850871858845 0.01254180737620043 -0.11359975627152963
-0.06360929067580808 0.061282070385075736 0.16416838098036696 -0.34655806112614157 -0.029361730986478634 -0.06678078480284141 0.07040963486811976 -0.005402895793721066 0.05165473990162724 -0.09906621877375935
0.16245781891929487 -0.15079571976604417 0.16707080060397153 -0.2903722037894695 -0.1466301615407083 0.03092410838459391 0.08187121544552027 -0.07072441197531915 0.08592280867039455 6.309129008535905E-6
-0.054559561611532574 -0.07017137390797584 0.31188588320742117 -0.18080963534706943 -0.03536921158206577 -0.18872167497201334 -0.013392757854910195 -0.16276361239507095 0.15843632424888188 -0.1592906810468616
0.12926708443187568 -0.0778669161361711 0.06644278752271164 -0.15624215560941626 -0.18740697950767576 -0.02658732818461589 -0.0052010113619414475 -0.05465557550173756 0.05587929548876098 -0.11902313574771964
-0.02592563961829007 0.06475892563494715 0.22237405135684513 -0.24400271929552422 -0.15092652406593646 0.10693561127267061 -0.025191018480231087 -0.15967560219885174 0.021860975229779474 -0.159609914589309
-0.2883990579089852 -0.08339786783011607 0.2217174479434094 -0.06646469325976802 0.20413179191111447 0.05008245190968863 0.0070674509354300315 0.0484497872921838 0.03445412128441758 0.13615827662069907
0.052930679203486215 0.011015407270585332 -0.1343019798436796 -0.11097367843593589 0.013294423752014431 0.0043445412118646035 0.026870267684832562 -0.259995334595974 0.02658620025454247 0.0660913194729085
-0.18784517801299985 -0.12037871952500429 0.05609193152392513 0.060502491786471185 0.014335741445593082 0.11240693375633919 -0.02228651747344392 -0.16571450849779415 -0.008784359253798479 -0.028754449676111366
0.052855158960746884 -0.08337423307934254 0.02990430405508093 0.09369684127824318 -0.20039928960685077 0.005794943617287803 0.02495870454928999 0.20084708086232092 0.07744091822200107 -0.10679500921066196
0.13507199719702892 -0.24802369070640526 -0.20899546920274162 0.289201687075011 -0.29956187269010126 -0.05427479189801383 0.06145355082457077 0.19080255009397673 -0.12606727567812798 0.002767803690004327
-0.10716597723285638 0.06146731975215209 -0.13218323569430215 -0.13407619172955598 0.07306379482884397 0.16357380956961606 -0.13506194869455607 -0.05960955911850552 -0.15516349718466776 0.16115941698964503
0.05271380956755016 0.18983047011801432 -0.3550231281308977 -0.019892150686063932 0.12802836836862472 0.031050739183750918 -0.037311208735681285 0.2229183588763083 0.02963776039456488 -0.14281775110050227
0.05645545982988174 0.007788568200108537 -0.2163856810769594 0.02606056393825298 0.20548572023658934 -0.13045424378446646 -0.06890385742526889 -0.09331503839415864 -0.0064680141258737864 -0.0832933761025257
-0.08794424245116159 0.13445245677732726 -0.033265703730154625 -0.18059385406584452 0.06473382484805552 -0.08570758507311448 0.1004950079013851 0.050911505603350594 0.03445002513569703 -0.1401418082437311
0.029137292996720195 -0.24807698300088762 0.031083201075101177 0.07204855557476661 -0.1800174959459549 -0.10175000666427705 -0.11779297427840861 0.1934819653019606 -0.029787433899002128 0.06599620508400156
-0.0470506984466059 0.060846194554941536 0.095511461825699 0.17564527793790924 -0.28924941031215523 -0.037913497643998866 -0.05187083539009912 0.04116141459600691 0.04760622157624681 -0.19823069236449292
0.007221493752114889 -0.30699382293082067 0.11989348624119597 0.12095284403731259 0.01648160994009217 -0.14174742704336457 -0.04188894685451078 -0.17386287207046025 0.07704071414255094 0.033645918231845505
0.027790721681616417 -0.03375883364621711 0.18922994963069778 -0.18031265088074125 0.05300570406621797 -0.04297897524657744 -0.21643120646625824 0.11713305354075328 -0.059414219858734754 -0.0783135342745617
-0.2190193839549674 0.12630630086634428 0.2272430724915818 -0.022419826701206055 -0.15525520884633776 0.029469893610318466 0.09631310187755644 0.03803934593607586 -0.04259818962178379 -0.09637514834573523
-0.03146700511794276 0.15391958826340402 0.16087040519300186 0.08153017602464438 -0.30863698421239816 0.010910557397955404 0.08856418502189581 -0.1075866840087483 0.132338091702623 -0.21014660359073423
-0.17321187564084947 -0.04707916080589117 0.017114227635578995 0.201847725486332 0.09836013784440818 0.09949664504087087 -0.00914722681089554 0.029049929759220026 -0.17097541351649775 0.09451437207173935
-0.055974451473436285 -0.09621517752616475 -0.06938184923975849 -0.21865196800757425 0.03910466173231394 0.07078001753767398 0.11726806818222095 0.009425809208221286 -0.0833125225554904 0.10412419369936166
-0.10807846524529699 0.12913313575413568 -0.12113616605222402 -0.16246720192524305 0.3406618143333315 0.004852988200153644 -0.007683291955129506 0.2970659214911923 0.0043128925202310375 -0.009586541965831682
0.08766543506577856 -0.03725557465439657 -0.03790576913400545 -0.17929263714290883 0.10321313558664627 -0.06826326445347428 0.14800822117754125 -0.21949940280781066 0.09006973899606042 -0.06417382047680412
0.05889797717514101 0.03001568376872797 -0.08002415403084995 -0.026145239933078913 -0.05900463439235709 0.020306272711751266 0.07820566164563134 -0.043693874790043795 0.05077668039981692 -0.12311597134626251
-0.001229313298609504 -0.12583751022259693 0.08124169535281038 -0.038838257049308836 0.04367505495970812 0.03327087788412777 -0.04128429638823783 -0.17122257542052488 0.11018687679307279 0.07863159485258359
0.02879815494209282 0.3263707734022232 -0.14841941432372407 -0.08593571191780498 0.05938895984627475 -0.010692660021535868 -0.16060596925965753 0.0395440206445319 -0.15367390993140403 -0.14192214256308983
-0.10880213323887478 0.12102806345215228 0.04070383068777777 -0.16252032381537002 0.2174512587586498 -0.10729957702545873 -0.02114058452163198 0.2118163902930328 -0.10383621110885789 0.12795706338332205
0.08587983110390168 -0.028173631350966708 0.12316719662380954 -0.22764185992223662 -0.2020296252593429 -0.04208837620080806 -0.12246002391598039 -0.03768440692448502 0.14906355993562906 -0.2250480846531507
-0.018330477970190228 -0.055339239090725356 0.008590285870846455 0.03134802710559594 0.09733628013602903 0.09781143246961792 -0.03949952921932136 0.15071436655437054 -0.06533387593275246 -0.021288867047655157
0.07270410665019951 -0.3427906825239142 -0.1828950913949729 0.18420673898114998 0.04930962889737046 0.014669786782536644 -0.1716192341886177 -0.06126499965180894 -0.16724386260316687 0.1419678061408967
-0.064007232980844 -0.03842592721994472 -0.043797781576194995 -0.08895289392243225 -0.024843444156807604 0.07932518121140056 0.010672280912570003 -0.3133549195375083 -0.02231400886909892 0.26492374053485856
0.07411834129373646 -0.2695764110264214 -0.06741663208805602 -0.05417975319225776 -0.12157954792576157 0.052934559249428026 -0.0034580477723012955 -0.06976434620226049 0.06627425012004311 0.1791680442149146
0.1514952535969564 -0.10589866720487058 0.08881183006511738 0.14407778248413133 -0.256767765120625 -0.18094773622141008 -0.10424851959941152 0.16661985613738708 0.1284582225712753 -0.14906943448736032
0.010907212173689845 -0.15713687023798883 0.03746113803355973 -0.0831664572439722 -0.4210379158404327 -0.05392128932842577 0.1932161343932161 0.08633034800065341 0.11413731470788334 -0.08096830019432136
0.09300028067144786 -0.1926766489863125 0.09335939605658991 0.037016924218155514 -0.12597139256777407 -0.10583637398936666 -0.02869577470041378 0.13252334696702597 0.05750988068888458 -0.12308698265415892
0.12189422834116233 0.0820366974326943 -0.13712616927874283 0.1412078047662851 0.05183750480175246 -0.005702714262498348 -0.0668561567455384 0.14755793919937754 -0.006440307445508307 -0.24924615357609223
0.07889566461696636 -0.23895614515131794 -0.23747984308083017 -0.08313017932858861 0.005802651180402013 -0.019531746782271056 0.034540156579256194 0.08079286126331482 0.03591277063466513 0.07017887912456708
-0.2454916905872745 0.37952454275763037 0.04737969962764946 -0.39284933900110847 0.06385976497614525 0.10180571658555365 -0.009414681580318265 0.01430510103077468 -0.0885153007280172 -0.007025588994790869
-0.07141207967068167 0.12963059705354518 -0.14377928846254384 -0.3803043107692188 -0.10040461736934557 0.09416851873561087 0.1826233509739286 -0.21778991663420336 0.09246761661165301 0.050262095051282506
-0.18001192146124767 -0.004280028823634313 0.20089240543038686 -0.12349852540434723 0.13601673260842806 -0.14942825354293127 -0.10673876659613779 -0.017106983715418 0.07173188132712979 -0.043405613385337605
-0.10412325346311996 0.23069221109510618 -0.231006949177328 0.15991664896566143 0.14022331769082771 -0.004881859204767484 -0.06801988175885994 0.277225175711618 -0.08792235386665243 -0.1718839090806414
0.08648995807565274 0.075418389138225 -0.24450340203167045 0.04836200496194898 -0.10999855843745726 -0.052373796352916134 -0.019106826117236807 -0.005690062290266263 -0.07131238771602148 -0.08672502979446746
-0.17808121517512285 -0.002444266168394821 0.007906311703779898 0.13869101338961912 0.16297049011658093 0.004522240938843503 -0.12511497473481084 0.0475527450404286 -0.21967828721825572 0.11532144798117147
0.09199327511370792 -0.06747172842009405 -0.0145384830135308 0.09328416137186529 -0.27328755465195087 0.06131124613236281 0.014981866457254784 -0.21457243146042815 0.05135294521930838 0.07072662909798529
-0.14841079588685263 0.18426574071200796 -0.029533566196247505 -0.1473212206167271 -0.14911854550525463 0.17095669932756116 -0.08937692240086752 -0.09238120254726455 -0.20460368348821356 0.17449415299490167
-0.02839399375960363 0.06454784473807851 0.17901147691554062 -0.14053570060740128 -0.04379999937140551 -0.006660226566135773 -0.23080296967856137 0.08335360534853464 0.10690740076133819 -0.21547507783854436
-0.05844178887235329 0.1312189719594617 -0.2529744956901378 0.06346729683221129 0.30047043213072494 -0.046666758002137765 -0.12283479589565227 -0.09305078719716868 -0.1623323123050745 0.1242002166292957
0.12509263980798294 -0.1073821387025475 -0.06684241731329003 -0.04517190022300459 0.029541746795689074 0.016094316395286568 0.0696150704485064 -0.20244547408175564 0.0316885978840811 0.10714278863094227
-0.08710454118740496 -0.1100604619171579 0.00980431434552187 -0.12194961615805122 -0.05495372684019099 -0.04129508114223918 0.06656146946940107 0.06158011718900016 0.13979623410088993 -0.18044857057802652
-0.03975033606589738 -0.0477964025429922 -0.19110254912319222 -0.1718725789283547 0.19227753590286079 -0.06077415526391454 -0.07827234157871486 0.0904570131840457 0.025668089264996127 0.0440521903228257
0.10731533105651696 0.0431071750002778 0.10915025264909572 0.2106608935642922 0.08059354486388526 -0.10012677679268177 -0.006647988127348868 -0.11983608055225542 -0.1811928919385913 -0.11445795073534554
-0.07863529997375701 0.1951614494286404 -0.11537297135520107 -0.19103137022311184 0.1964914962494619 -0.017529001579193463 0.016481754235381646 -0.0299504813446777 0.018558752187984428 -0.05068201662105465
0.19441457807978405 -0.1660563839268645 -0.22376703930713565 0.19709185111882152 -0.07270846569934829 -0.009664858192425031 0.10964680748566606 0.07665818408811732 0.06617845901395104 -0.18032918261984937
-0.0675333400550753 -0.0346388876209766 -0.1158309516957201 0.019150518851764622 0.26775696387744136 -0.044946803340803636 0.01990310725223533 -0.20042991309197342 0.006555273070799755 -0.051397295478253786
0.08002028058304889 -0.11199453209655538 -0.04437240309369987 0.03557314284433617 -0.30225802379804545 -0.019124141558664008 0.07480464541928779 -0.05266199864641261 -0.09170282250326073 0.1590297336448048
0.04840211840067306 -0.11492387660877024 0.060446640915928766 0.16056420571229943 0.04179163400596165 0.10790012183661636 -0.05114553728254501 0.08794891608340229 -0.14320184026458121 -0.11141579927069334
-0.07312036628330164 0.08380771313258345 0.029948270393428084 0.08645820250726644 -0.043114019133761707 0.08609815535980375 0.0014706057943830125 0.09750568724127674 -0.06112104755436723 -0.06854557722431162
0.10326740317240568 -0.1157575183701268 -0.1626588236724289 0.10615776072386418 0.03578752205686618 0.060390435138589785 -0.07330718873071242 0.0998796752403272 -0.16692680432080526 0.1463504689323327
0.06083499777997788 -0.11782667658672204 0.1756852971151608 -0.08232791688184285 0.15437051829079032 -0.06127581937762531 -0.043685025061742835 -0.15123511315602445 0.008813073254588496 -0.027153129942674544
0.07292523499676465 -0.20723037520039508 -0.011690561918182673 0.15103708496814686 -0.29864501188935905 -0.1383251820988675 0.1320096922815606 0.06644409087787254 0.006855070806546193 -0.13218401902098909
-0.06978785563687051 -0.014458087023032643 0.08472369296433721 -0.09854278993880201 -0.057973560270235806 -0.09525250726274934 0.06768347171694142 0.2076894077071107 -0.033330862529878665 -0.1931719372877404
0.04910506106064492 -0.211771204817847 -0.11839387960303659 0.04445789922323514 0.11389762423273316 0.05436244700412173 -0.23041302791042517 0.08693900453485218 -0.05399932071792807 0.15354314987496676
0.17499916337082233 -0.062258993274491164 -0.03873385636678964 0.005443762242913944 -0.23866976191789582 -0.10644010522768771 -0.07924653454980077 -0.1341005800085057 -9.589649442941497E-4 0.004914926150305004
-0.08776630097227753 -0.0622959265093491 0.04329808684975786 -0.11760486481031589 0.19451904705915105 -0.1656326826015633 0.07097948616391515 0.18304655117997 0.024392677713311935 -5.344375998373596E-4
0.1192878073614292 0.1902414814470455 -0.21259948835525747 0.2260165744790123 -0.07202424015319552 0.023534274913919535 -0.03559221226492631 0.179833482322616 -0.18776226857406564 -0.030036742950312775
-0.019529911727039023 -0.10379989793855426 0.12354016471907348 0.17059435983817275 -0.14887389087570374 -0.11797730267101265 -0.030017506733286067 -0.14063628000401382 0.11348503197832209 -0.12765561039038684
0.1357816089331037 -0.211074103002169 -0.09857379410033544 -0.10821942895284206 -0.15716566548120478 0.04119950683717722 0.030373207851306445 0.07463143971838271 0.03051269215097685 -0.20852485232375192
-0.06188323964239734 0.2396121283428381 -0.2856417536880765 -0.06266397215576283 0.18619093626501818 0.06766567219587494 0.15318839748565358 -0.13393809223106343 0.08121202721084574 -0.04424384177690275
-0.1155200833613947 -0.2676652572229279 0.13726467781237947 0.12033892151964354 0.10240547551470695 -0.0031585648772430703 -0.09989582393673074 -0.14703290483220158 0.1501363760315434 0.051323331373750745
0.029781704616553297 -0.10517445843606325 -0.2226586619601044 0.1337128680793842 -0.015019107832764448 -0.02883268876695163 0.006206478881899118 0.09763399704562908 0.02856810437748175 0.010137704707642312
0.0029689137961343747 -0.10982612120730305 0.03300922995300256 0.06499725009885571 0.08082849099230717 0.017045565098860516 -0.09871809842652529 -0.09116126762942471 0.06478215269413365 0.08871271782041962
0.06287656982972561 -0.0072129912824717 -0.11339968529923669 0.13637962604767354 -0.06330729199339273 -0.04285410937288467 -0.28992388974356287 0.3271104841377017 -0.2314815575167326 -0.12305019817709302
-0.2724128559891367 0.2469071850827602 0.13432064450034797 -0.23145743033842237 0.16015163929345785 -0.007833439915891279 -0.08168064689984594 0.06044401390982705 -0.09560938694420709 0.09006752115181496
-0.04642966097764319 -0.06370880970758411 -0.03427194312954032 -0.23061449414366803 0.17008977532079284 -0.07386549627749198 -0.08920529350936585 -0.03913705333380724 0.03546738501347752 0.12963319787640562
-0.07135813318365783 -0.018525747525802983 -0.11445536494913038 -0.01198940140828604 -0.05990011394607758 -0.03853999532906539 0.047636517785216936 0.10539363542868466 0.17080959909072177 -0.11576564986250314
-0.13640312430176207 0.201767747624265 0.0670010893947688 -0.10731809208482743 0.17665212417978665 -0.03051230400989633 -0.08070448435649447 0.18580389143682677 -0.1113353472867525 0.06116661805180667
-0.08137019141318017 0.27816561494993586 -0.21403538859156687 -0.023549736588717615 0.06823435689157412 0.07386410979010669 -0.05715257019348444 -0.15942692212081097 -0.09597366608760009 0.09740444878695197
0.13744172117276493 -0.02711901335651079 -0.24664052077505672 -0.0515019184094773 0.06715528187801287 0.0723720675249957 0.015922760299168125 0.03850728858756279 -0.04147255856247386 0.06550552081262831
0.009945381458786932 0.2699638013693286 -0.09029721863167256 -0.08566643600101674 0.18445526539505372 0.05803963770631644 -0.05158805035361022 -0.05515229283862623 0.05853001428461106 -0.14284715459437036
0.09920686060232782 0.024265148594931573 -0.3574475165680488 -0.009034211616666425 0.2093890275591921 -0.2016282081026063 0.19327687055624032 0.011177585809159007 0.027959920946566803 -0.107328960530311
0.1417969584763075 -0.20010218633617108 -0.04225555834024841 0.24467110112571036 -0.3689630809548966 0.09765401034124911 -0.10852494744315998 0.15010211675301427 -0.1350183281543649 -0.026844919308178346
-0.13078382779668798 -0.05191540236126255 0.2308249390146605 0.004860660993052974 -0.13872582770569006 0.012253185651805415 -0.07175966599510648 0.019761331535747988 -0.07837694889343043 -0.1674636448842476
0.09767916938380085 -0.17918665326539857 0.12080795061299375 0.06531557575590889 -0.27504678362601326 -0.03432721367356589 0.06067407244415495 -0.15828806653991487 0.11151397673851668 -0.031402294124946606
-0.06293071732304326 -0.014903682127958505 -0.19520237731175252 0.08054852349340351 0.21739156311962163 -0.021424738718118334 -0.03994562299303388 0.0798208250258881 -0.1280650687427562 -0.01201382495454714
-0.010800567520861717 0.1667757636495222 0.07151087425677129 -0.06074582915429646 0.09180517119141424 -0.0038463671334008475 0.15907404397992544 -0.013401236042860717 0.024341955007528178 -0.14290215758725724
-0.035110053208409445 0.07430247444599936 0.052663693592365224 0.026097884486412964 -0.16736024527095827 0.014309582850365347 0.14692580429670685 -0.2724727117519049 0.1452933660110367 -0.10596798828913931
0.07644572448334443 -0.2534588339307164 0.15358938320472737 -0.04895119141487787 -0.10946146817310423 0.013438950217750769 0.06892280879585388 -0.17707229896840518 0.08499992399423018 0.0922909410913841
-0.2107800944360269 -0.11176123263565976 0.30732233058378344 0.15210923711009586 -0.22284359081040775 -0.11112014201680992 -0.14141628456715663 0.14997918621933723 0.09789663575681078 -0.05226769322380521
-0.017214510886997776 -0.08416884273512767 -0.35790590246757065 -0.03615613645045647 -0.2422369914955178 0.12411197752794098 -0.013268321216792223 0.05690904006461959 0.001060954561412567 0.16388721759607258
-0.10250730684654598 0.075578016229625 0.164980602358806 0.15876113439219644 -0.17845167590434655 0.0941099137141224 -0.01898625547967228 0.10019793107057169 -0.052547430575382956 0.024507658044150123
0.11901835187803222 -0.08014030921034176 -0.07871255456449336 -0.1477614733849056 -0.012051602184166225 0.01974753284112683 0.19435579153014 -0.04424338836826826 -0.024423725472791445 -0.08455147590842395
-0.12781260114307041 -0.04531570263037068 0.08239966025367447 0.11267653936498442 -0.38664732808370145 0.08803095230992718 0.07370402704315374 0.11525519812465265 0.016260626079458045 -0.039253006535461904
0.034913474139382145 0.05046129100275113 -0.12698426542201025 0.07653180412306797 -0.1563404161435434 0.11229053529648979 -0.035454593484707204 0.05762646520212391 -0.05794506345691529 0.10034581474856749
-0.1324856459986105 -0.030235301853095264 0.11058086003119967 -0.07010159599541685 -0.03184237808741192 -0.09838552930857417 0.10264165872421835 -0.16501124570021194 0.08009969241166222 0.131116547223809
0.19144217538487698 -0.1085842656752123 0.09021639262719595 -0.30561463108004444 0.09878452358964603 -0.0798986775704669 0.0745295102917601 -0.10617502945236956 0.03079145275958435 -0.17491974378150246
-0.08323130449313823 0.130307575010962 -0.10726780040327621 0.08915294723899482 0.11268825505723734 -0.030987870998075526 -0.16501590822232234 -0.031203268141671077 -0.22461605996116568 0.0831919962249652
0.10552595143119893 -0.15030123720387678 -0.2704694325252237 0.19542054247895466 -0.06356787094741857 0.1260973611250274 -0.30882842803473826 0.2745965825032895 -0.08992522896693038 0.19915867897679176
-0.005401378191222623 -0.27833931014936897 -0.005446824980173896 0.18451726581261838 0.02000578316837587 -0.02124544015804084 -0.2163102071878042 0.039085698837798055 -0.15118115402920612 0.09798075343165244
-0.0909165245582898 0.029416835498948277 0.08337731409345148 -0.2628083488677254 0.019522221257956614 0.01929117385921977 -0.10188838683254632 0.08008350614926699 0.1658966938912894 -0.24200259445391653
-0.11895053409005603 -0.136223990047489 -0.0679483352722201 -0.07668077432644077 -0.2506036837432208 0.058447370334755507 0.16217018261827246 -0.1281734976994862 -0.0368118098296075 0.12361017224823447
-0.08045252919210194 -0.08428526577174283 -0.03236368121588635 0.004677815292822782 0.3656119383933522 0.09282360201728256 -0.18722879757732006 0.043336593872507725 -0.24156836433557083 0.09983021888278748
-0.21751062566209217 0.2480116224638124 -0.14401415163046105 -0.062340488660192116 0.2621928753733438 0.007763657063371733 -0.1456615404392142 0.05121299701849318 -0.1656638840694025 0.11467619931904569
0.02453969884362703 0.026805436082552488 -0.024981221519700704 0.10106269999500168 0.15095603147654163 -0.15248843888207778 0.00812252227944452 -0.10864078243739753 0.020543654615498577 -0.23621875065073905
-0.11765558357597106 0.16477245487299927 -0.03403323064967441 0.2033506874130441 -0.06262777948815301 0.14969079443650052 -0.1351728815622567 0.0392491847532655 -0.3586565060888641 0.09744090835212021
0.04061979353316035 -0.031892350351566734 0.2113783792667286 0.00984017242099683 -0.07010774779763893 -0.06423202974942326 0.02285113211214394 -0.12010941242084863 -0.052801697872423475 -0.17308180433659293
-0.06477119114178333 -0.14490157661526937 -0.1183502391010297 -0.007451287775281204 0.12143364887871481 0.07161637569985137 0.004952678347381167 -0.05398500734741792 -0.1278905593893977 0.24215510510482227
-0.1062823488010859 0.09156402576172817 -0.16426809507266837 -0.13375106638124756 -0.3323147955124735 0.0737940429663047 0.14319559563010906 0.009183912616987115 -0.03673133520247086 0.06682772971248824
-0.18339907566918537 0.07963042779632819 -0.04949052145781987 0.08055310943730506 0.21860720994512556 0.08188965838842324 -0.21082834760568486 0.15941953158747574 -0.23640648589085161 0.19423804695079339
-0.06152097470733987 -0.13779520965231665 0.06956472305456814 -0.05156608924545889 0.23401758509914916 -0.13103944443942908 -0.05634093900204039 -0.13261094634351991 -0.014015769654244958 0.14038595839676543
0.14008296139512888 -0.07384143175013225 -0.07778986207164994 -0.04081378295727448 0.05987080320564473 -0.10058887397872618 0.013350052899709666 0.10924358711307662 -0.07955050938065406 0.005437333859474854
6.016452722460505E-4 0.011188055547320058 -0.18119932238736872 -0.22366016245322967 -0.18617879098466353 -0.11900400181476474 0.031183760044142923 -0.01503038669021093 0.012525059110673668 -0.1372373933589229
-0.03352761888448845 0.08430706898813689 -0.391228014443334 0.07197383738276394 0.18594044200882587 -0.029166019385742745 -0.014327220368248898 0.012961465982169528 -0.16791581915387777 0.058897291220358194
0.005880827275703448 0.006177810149932132 0.06311514466716144 -0.11644081782464155 -0.2109048172177482 0.01102235803629002 0.1109590255806111 -0.0892592012056905 0.04341145655494186 -0.0704834360702445
-0.2217575028926322 0.07767225168322882 -0.0740674488507554 -0.3214682931751525 0.15810124692305122 0.11901338563418423 -0.013951092166652284 0.04086248546837014 -0.23654109262590287 0.1842494729406218
0.06311272493497161 -0.023049643287012464 -0.0860569484088683 -0.1690886004434763 -0.007598284973396547 -0.027258842891007436 0.013730865669018622 0.029728329428365827 0.1299318207095008 -0.09165188367568472
-0.1980686228012544 -0.05485124740392088 0.2759169121784937 0.10304853242988996 0.06275944455461872 -0.043187178894408755 -0.17086421557953585 -0.02872487883160744 0.14009781502863286 -0.06448744211661842
-0.16439472321276752 0.11749538057767846 -0.1565343405596104 0.06001816159742598 0.0446787675335232 0.12673938935643356 0.0510443583749344 0.01051612249305667 -0.10972784509606827 0.17781551562997222
-0.09775863926332545 0.26583265843558085 -0.12276684236208259 -0.05285217976551669 0.07054002956032882 0.11840363934245124 0.07218640673648691 0.08228716391174806 -0.23780247727315632 -0.10212461999947144
0.11550377824025093 -0.09093330231183717 -0.06224577011039983 0.1824568216702239 -0.1588238096739619 0.07067687385045293 -0.16309553785855982 0.02200456110120958 7.410301496665124E-4 -0.1405582544813699
0.0880116856838006 -0.019647125608302066 -0.12715246760545637 -0.04044574676610606 -0.1426590996626028 -0.11219202451554533 0.026935492116382298 -0.10731970399484947 -0.04863134287647884 -0.16418019939422604
-0.041395101279651264 -0.07817932432456262 0.07384004966019997 0.08940584804771003 -0.11120915980099604 -0.08691351714186137 0.03454602964190259 -0.0300181152604267 -0.061711430712583566 0.0756344797946776
0.021501982854584444 0.036081770510513644 -0.11191784056270918 -0.1592646619566421 -0.22357501113307426 0.07648792763215703 0.1358904773454752 -0.05526579564048728 0.11020472800717124 -0.09803749529441014
-0.09543019215589812 0.0030115284264248914 -0.13690783214823835 -0.18299588932357194 -0.17302364887920985 0.1268396763378326 0.09171961386896141 -0.13689178377397646 -0.039349834171338076 -0.020398834035697967
-0.09975483907005232 -0.1933033613407404 0.177749537069987 -0.05825496550456341 -0.14105321374944493 -0.0023325559341121392 -0.02360432603594927 -0.2223031091445864 -0.18034040369802734 0.2263888852217537
0.18336474197228056 0.04779577597424035 -0.1431670296851348 0.14119926082684892 0.33723742934922624 -0.10467218976266054 -0.19421072272864992 0.1048168328908061 -0.05054182717131961 -0.19555520788066402
-0.07822786805996144 0.028362191311668523 0.08270770782185236 -0.06950261816962165 -0.08678659697592574 0.07352925804564354 -0.07840500845187136 0.01622551017766037 -0.018677288613378144 -0.06366948925420175
-0.08006208027897842 0.11142718210264883 -0.09052479927065582 -0.12842388883888314 -0.006745169105949604 0.12005636472738963 -0.1025846879477633 -0.17233561046307574 6.242119867796805E-4 0.022299692650216817
-0.008635539962730839 0.21131246886588537 -0.10460917841348612 -0.07427524849572384 -0.021227896529735453 0.08361816588380656 0.09265230723720284 -0.18220241071812454 -0.03217544510286869 -0.1354326350478393
-0.09082780245246244 0.0411660112282859 -0.4321717729796998 0.16991895093454634 0.2873491460270311 0.012832873037034306 -0.050933523171062374 0.11424303388656275 -0.23860285011084534 0.027560522193026373
-0.1108533502356691 -0.07417528654112258 0.07592907008634842 0.13493448190974985 -0.18555718875569369 -0.002354370249984087 -0.045310301245107446 -0.1500647835141069 -0.12049495961294772 -0.021159696211135646
0.08209944470576641 -0.09199540752347271 -0.2991654384783605 0.09227028106838923 6.506771737700488E-4 0.0762276407755025 0.03880662485242716 0.002418225955617471 -0.013489973306904246 -0.02284140989989445
-0.05882589903430174 0.07695353449689885 0.09765128737232895 -0.06836092856855824 -0.3457400538680611 0.08226431051154123 -0.008537593486501646 -0.017813020795934078 -0.128829035193078 -0.05490775295347412
-0.15376562140631564 0.019273389243650102 -0.031105304166041476 0.02022922713428711 0.16818360032386764 -0.08103521438387165 0.0341767095706269 0.03931876123798673 -0.144578877899334 0.09480874462944033
0.08333739054346626 0.0694879845799819 0.16794791650875068 -0.14603646487348002 0.021338000534951905 0.03132663144947929 0.031829770376343755 -0.08937132993773578 0.03326859197832607 -0.13219717855575192
0.006225312805467789 0.13780196822871174 0.12642113203502764 -0.08583804424817607 -0.0378959152947376 -0.048370581012880325 -0.09725117639963707 -0.2678144830783594 0.044159059960801404 -0.09485572673911533
0.06250821966588214 -0.18671221257574813 -0.3321621616903665 0.05618373895078736 0.21938116219842702 0.055529924472875775 0.08111604817153464 0.0850297680064417 -0.03346765385151312 0.07711804596470062
-0.0670666131445241 -0.09132700032282882 0.16654375213449782 -0.07019839095367675 0.042653328327074504 -0.141797413034811 -0.04274789220485526 -0.1560472486488983 -0.04035178915818939 0.0409951377198721
-0.09945160436115197 -0.2240734737510746 -0.11843808992543185 0.10367250186426141 -0.05376150411636874 -0.00694026456312578 0.046856713749264145 0.03548761360153145 0.03311820246576002 0.11570757735383037
-0.0684373522248367 0.10331809342615447 -0.015564033775469138 -0.18437203951508266 0.05488573273905102 -0.03763261907874203 0.14818386386144045 0.12583015268510417 -0.19034500997745557 -0.07005809341221593
0.035586452140791675 -0.06749838749732165 5.409030276959183E-4 -0.17087799863219894 0.19997353978065824 -0.23219281690743176 0.09729719811362861 -0.14312864499176364 0.17102702985543478 -0.27713456503763895
-0.03628728096540701 -0.03436382938940585 0.008287644471546592 -0.16382907108183375 0.3279989450887021 -0.14739297417470498 -0.14788467996655838 -0.10526574444427907 -0.10323928601704843 -6.913495658290499E-4
-0.2686446951747369 0.14605480069915047 0.1284042467959975 -0.23342099580567605 -0.23693811498044026 0.07226197835359832 0.08303914775302774 -0.016253842612670582 -0.007031770626112008 0.03654708309079291
0.08437945680773007 -0.0018080007823050629 -0.08735800397985444 0.17856922573989614 0.14097278206438493 -0.13364030028405036 -9.341132248845802E-4 -0.025480471698539026 -0.1038779166171904 -0.07640270112598413
0.06896679109566049 -0.042619602063647795 0.011480805855424806 0.2635711731762909 0.05003880391038439 -0.04957114331587724 -0.15720914516007242 0.3228814461258033 -0.17285084503625076 -0.13897700747078798
0.02613378623417733 0.31280778120790953 -0.2004500171340286 -0.2373228592210654 -0.0878472613138439 0.06328216724801582 -0.11416467672616709 0.3142156635447409 0.02313019871979643 -0.12335004010209528
0.1087144913492044 0.11471123646454509 -0.03988753045309549 0.033515170586516575 -0.09997693929101552 -0.10610875119096047 -0.21982480052160716 0.14810079626032918 -0.08264619252194291 -0.0875655134067482
0.09729092276286443 -0.17291049415720297 -0.06191993238248879 0.0750477193960648 0.02212237344283509 -0.14448278346708868 -0.003542700075478024 -0.07668480035778506 0.04862100747381094 -0.04927947416340001
-0.01876324240902965 -0.22214563749831287 0.19467148226494307 -0.06271954299109915 0.022890142586580346 0.047364398132447735 -0.17993939339047632 0.011027133927801188 0.004032229062923441 0.037228823978591466
0.042215695979755316 -0.005967537835584459 0.07932903463844501 -0.07976543673398181 0.12217681122354476 -0.11793269854354627 -0.14147587361959313 0.0369664618290698 -0.04091880253377127 -0.01182939855373178
-0.03074625852609707 0.0886842938524884 -0.21569823037105834 -0.17197378881390651 0.21330447159745233 -0.05064212973474952 -0.06179503054299545 -0.13093195455530252 -0.12590069876728502 0.25375560135368924
-0.14381949335079774 0.046183880687795706 -0.19192177757435824 0.2159433189121354 0.1517104181470324 0.045702879270774974 -0.1734476288764065 0.34320429598408825 -0.08539837196226976 0.13413418637937538
0.114243316191183 0.1173489878198649 -0.03802301794297289 -0.151011205378875 0.05934925686059044 0.023626259359124983 0.004417435963876992 0.09647093113654301 -0.03995637550902004 -0.08859527975717671
-0.046548651587079486 0.07374038838580492 0.14245509712126544 -0.36075280348946054 0.2246639436541834 -0.04969658401318612 0.07628795053912624 -0.20639537054538032 -0.006674149452312442 -0.16636585284143093
0.0321538348125003 0.06868624861728173 -0.05779469457928302 0.03922753942625588 -0.09226773576607453 0.021623644371034582 -0.1831433306887833 0.21397961538529633 -0.1617706347188395 0.10693899242549654
0.062429803520023 0.06179860377518426 -0.02768895195057411 0.06041722597587121 -0.059852973847651175 -0.12096845116067047 -0.19627719365516672 0.20184114133105932 -0.012833374673575907 -0.06572216588784673
0.10765840227262444 -0.03512239536797391 0.16028882563023902 0.007227477559244601 -0.2148358573371724 -0.08476899994330764 -0.11227447798029873 0.1095869524881603 0.06562604898052596 -0.20893664445910867
-0.22840563644284478 -0.07663848848659487 -0.015480998113794282 0.17235079925653463 0.18859037239455484 -0.009012527130785647 -0.1820585913371436 0.016548505224883225 -0.10263201221928599 0.11585341312561541
0.10720392365930898 -0.0027962752731944267 -0.18257842044495332 0.13559837963537924 0.023172777216463318 0.05892109944713972 -0.06663543617028789 -0.08062000841759512 -0.015617949636461743 0.05260241574036875
0.03992874170381621 -0.007977065543921396 0.13858557944102742 -0.09218818544631573 -0.10896131758467643 0.1072248832316287 -0.05929066646476167 0.056880365459566144 -0.1515384796819838 0.04939728320381718
-0.17356928800480975 0.23287575691621934 -0.07606578370402747 -0.2732931133221785 0.31039178193497513 0.0876570233556582 -0.18951150566427646 0.04998707989796667 -0.027100808284151005 0.15389550706703106
-0.021032170943214436 -0.2357991169353957 -0.1343935402184446 0.16851328874454877 -0.0915620181737445 0.01538970744410107 -0.053205260895088154 -0.03996826882983476 -0.13401179670419977 0.14774458230596194
-0.03850063576985193 -0.12973619711848208 -0.13315301877107427 0.09053350437698897 -0.14774877336387615 -0.04046521586813004 0.019054516361303748 -0.2574307070509111 -0.10410071167358191 0.23528946414709373
0.14848102600186808 -0.06484192639991282 0.07633234508197241 0.0508310207197915 -0.11921021852676839 -0.030459271408388142 -0.1306742331604258 -0.057538967156865434 0.041733794540630864 -0.08787868847956162
-0.09195264935980743 0.04657528801519597 0.15290616770833323 -0.39330196731302114 0.06156585894340795 -0.07069720877114226 -0.05607771552760798 0.10290841503210861 0.17986487307467944 0.028437132532413933
-0.0077109583704114935 0.13751692192569825 -0.17567035002137157 0.09622541705122349 -0.10542163302171874 0.028922277309490242 0.14680841054574245 -0.18014729177789976 -0.07140027258804396 -0.09713848326715886
0.010650488932493183 -0.05360342592125184 -0.23789485286298068 -0.05232075459946465 -0.21984682825705107 0.05446362934275724 0.031883197687998 0.045508359664585996 -0.027364117762980488 0.051964268854222104
0.24788705835185365 0.11922954665015392 -0.30657484571923777 0.10838858993583851 -0.20534853848528978 0.07116029518181984 -0.07522484327320404 0.22926208770525983 0.04649762146089213 -0.12524126811746347
-0.051670720060859196 0.03585386328130419 0.05393536159353525 0.11690467483828025 -0.03032257490668339 -0.04478016234046975 -0.019729200332057127 0.030540663167038594 -0.08986534263012012 0.15487402123044183
0.1897653858872693 0.10748057206883975 -0.1783906013574476 0.03528659773707511 -0.2662668627074468 -0.0032977958765214475 -0.016525498801209244 0.13714772004221626 0.053765815624332094 -0.21335534168692907
-0.047779068260331264 -0.029833273351778978 0.007341845679270492 -0.25683765506959516 0.14659757191158734 8.941619518214337E-4 -0.11560008904252733 0.01571885749498901 0.01770757303824454 0.1264540759400668
0.01087454494828033 -0.2505218790653864 0.09590907741426836 -0.05730472819566977 -0.36134462720069804 -0.012367229479622974 0.030971444143980627 -0.14043657277093533 0.09318057823248976 0.06865051907232109
0.01845504264430201 -0.14321054979456876 0.03192980093728563 0.11971887332103742 0.07843985788147223 -0.05864857692755471 -0.22819076210737604 -0.0682733761344544 0.053176603656984955 -0.036790853677187055
-0.1250995019103041 -0.07845198790035493 -0.02370241483789066 0.28695397468559464 0.35847930867102623 0.06523504678929125 -0.255227018021834 0.2134602655213764 -0.34781747715428346 0.17035228467434896
-0.0927749754493517 -0.03611312411338098 0.0756810094188431 -0.11108571962415875 0.23101985490490906 -0.1446625922039307 0.041614378240365145 -0.20516269307732196 0.162179935508711 -0.05591399330038517
0.0932795815825079 -0.2241925463548874 0.0805896861720774 0.1340460847825614 -0.28182448340167704 0.1116224473398051 -0.12446933049215071 0.022924969303961425 0.057695593798702385 -0.06555133329714351
0.10647179552719511 0.044087660340405545 0.17780602918057278 -0.1508343777672913 -0.16657132633171676 0.0441016887129533 -0.06068280327836879 -0.015587891141535106 -0.033824927516208726 -0.06359426979849717
-0.028691527658614192 0.173992602797635 0.005012084821588776 -0.03746264480960994 0.06560326503970162 0.014412068773737787 -0.1365870114837658 0.3138687148247677 0.06780398027098894 -0.1123468573716033
-0.07321478741602845 0.08544664620763377 0.09104354038783882 -0.2915190906326021 0.09684740657182135 -0.056644393059061035 -0.06021321927136721 0.040793579792666616 0.09783451528380456 -0.09277800393367334
-0.1680007150946043 -0.05536717193808924 0.018860476744092768 0.11329809228216689 -0.18730308329577355 -0.10910863476267067 0.06939868707016959 0.009306165052292458 -0.00497156206006593 -0.11518458062377356
-0.07641573651534933 0.040448253144921 0.10956831983318766 0.07088246557089559 0.12741916635110767 0.04719281721447135 -0.033010877801388096 -0.13095718563865213 0.024668287989862817 -0.1372880856995069
-0.1293394537816962 0.21995982882190884 0.0866886464394013 -0.17914399908743198 0.07811200787198143 0.005921628083143957 -0.16084809555860027 0.004971202611341864 -0.08613964338069945 0.025580661003708868
0.007094554783493045 -0.16135861044530722 -0.12364050626020151 0.09502445013023703 0.12664523205445988 0.001180521106706673 0.11508366791879208 -0.21855836870400777 -0.10043636867435442 -0.012734474574426257
0.16407803081860617 -0.1882000439639897 -0.03510390206689673 0.06879431529432656 -0.17916646048809753 -0.1135651578540597 0.14762433985419066 -0.13707559133107658 -0.03127186810092281 -0.13372197133196487
-0.2533129656428875 0.12163416501084238 -0.1748649513568565 -0.02657346983197416 0.157376242709485 0.18491508693863573 0.006973180062686333 -0.17577872714273074 -0.08694570263488884 0.23754094215809457
-0.07543183765084159 0.04520837567055147 0.11204712147302566 -0.13553391058399814 0.08445996116127949 0.056281312660356235 0.018837376657636268 0.03530935420023313 -0.03358401119535385 0.010613567512875814
-0.15836789149873154 0.04707336350432126 0.10428297213881176 -0.03911540215305407 0.10019958670317881 -0.10279853896882521 0.06515240421790829 -0.2521611941288657 0.08206428181386431 0.008621365231513786
0.0904873925243533 0.04318506427899219 0.23760312688804697 0.018125821269780115 -0.14385437838129747 0.07392273956405851 -0.1963813677488802 -0.08303908106606317 0.12145187210801033 -0.16362057551108364
-0.1125160591199092 -0.03570189572993311 0.08058366044102493 -0.022247439019968045 0.20953560863886433 -0.04923787647151592 -0.18016386139166948 0.06950734426326033 -0.17121168877703988 0.02856076220445932
0.09985295145681812 -0.07527583423764114 0.122687710735391 -0.05656823880464926 -0.0032035055719026786 -0.06774957686087144 -0.09695620656960367 0.056333362650915104 0.030626020255502085 -0.0508580724894119
-0.10542056215217784 -0.04515949096036004 0.12900724416010956 -0.043818515825390356 0.18615416460098577 0.01150710478106863 -0.037894891280672326 -0.20439022064259008 -0.09773122892629646 0.030504188681832575
-0.0767326778959832 0.04173083641232563 -0.18919911800645348 -0.11178652744492842 0.3228278983786141 0.007474539188812155 0.08675191324182911 0.0653293676224101 -0.20465639951897105 0.13608193923917333
-0.12258507835702642 -0.10236074704937344 0.1256402867848121 0.10942322806605914 -0.11598136941999736 -0.0915086907782047 0.10552529817672394 -0.1291241170176672 -0.11152958804972972 -0.0066531112117646065
-0.07818537575053168 -0.19168774921488982 0.043165727148105244 0.16167068353407377 0.06009019399342548 0.03785243014395104 0.10615913348949145 -0.21930548876774417 0.0030640272264458156 -0.14819411681005656
-0.05960869405089877 0.1958619276223872 -0.2534633714481921 -0.1979309983370775 0.1173076885431602 -0.018032624020214712 -0.12661663140179033 0.08058383783083453 -0.03142508431496549 0.1250785274852473
0.0745398696104788 -0.05480829875795281 -0.04934846692698282 -0.07844186982510482 0.029183403203820558 -0.06655908694044002 0.0539017986982701 -0.03523954565740632 -0.03852030634398469 0.011972511009272852
0.05171267841355692 0.011523255558215553 -7.317264386208967E-4 -0.17884568053574065 0.17718143141717457 -0.1016909751116862 -0.04205849808967868 0.3496222356222828 -0.09998743260103103 -0.18999254305186367
0.030440712055034076 -0.2079515713266348 -0.010669065850990003 0.13454904485221866 -0.06908091759996338 0.054276213521370194 0.023743882208102918 -0.27925328890246376 -0.05002414327011733 0.038784501221060724
-0.12860255110099783 -0.24046874023710638 0.11132181881778552 -0.18372546222082178 -0.10342777302946096 0.0429602018489531 0.07264054625766905 -0.3198960775875937 -0.01087993486321245 0.15060308192509606
-0.09970607185566384 -0.07895368819683934 0.043384418556180325 -0.06772848866293707 0.00433270392886474 -0.10367875766247947 0.058937766199931144 -0.10756474570538421 0.08700090066677071 -0.07581939615875902
0.04692263813416659 0.14912340883641717 -0.0908118794046658 -0.07968533057857928 -0.014407869274384746 -0.01211335306996175 -0.15019001782821256 -0.054420620969008786 -0.014869705715166133 -0.16878323407885262
0.005603034177839738 -0.007228600246456906 -0.006849768464950404 -0.24639680311523843 -0.04701568250771274 0.012700635825382452 -0.12868409972680037 0.17042843768634644 0.028077577680588998 0.055021974322588534
0.08390871079482434 -0.13661682814859005 0.19397105530518666 -0.033807078189559386 -0.21751698919012935 -0.0835151328795186 0.04644408789255624 0.020130749533862617 0.06357005604412794 -0.21462163825833133
0.104629005989709 0.08431028808072155 -0.2781230849162196 -0.08006630182120467 0.11968628607790048 0.06681312289750371 0.15283512778448582 -0.06290581043202413 -0.052497455805470404 -0.12936979324351938
-0.08832891125782776 0.04995924236196669 -0.010280356811843796 -0.05099982595687673 0.13564392435882563 -0.1458593954099013 0.05877041936058746 0.1385701605153949 0.06093206565114598 -0.16541136175571747
-0.12710335468379153 -0.05834489524203734 0.16489193791318288 -0.09112156390967079 -0.2778258872186108 0.02428689081092428 -0.05468038016712279 0.1166502979663865 -0.04452130675092188 0.030007457573573402
0.038772152387204405 -0.20272532481851557 -0.17894067265185537 -0.14809129645581687 0.08796183191908756 0.0876337060996375 0.21812606205528642 -0.08812041100382638 -0.06236399945014183 0.05507293712472165
-0.16676844337347924 -0.07761136945833824 0.1878790794566969 -0.10583490084967437 -0.13954991495812952 0.05942589510472536 -0.05824145919021029 -0.04174198364156666 -0.13706888217427596 0.1510436613328144
0.12563724867692 0.09142541308656119 -0.2742203792171633 -0.05637147422293257 -0.1632035111021667 0.04638605081419742 -0.10948349657230289 0.10015050993831652 -0.03555957826924222 0.07273218465525515
-0.24132760543907844 0.32283433759308183 -0.046896121479941315 -0.22724294420218774 0.06792874272519692 -3.300631830556049E-5 -0.15955006457699097 0.20831271179959632 -0.17718178784855604 0.05747826008896934
-0.058895999518258746 -0.014604357039983841 -0.020955219609205333 0.17177049736019165 0.06020911223187046 0.007449172734304545 -0.03949858066413227 -0.08595127560589172 -0.04953727994154042 0.04169313262771123
0.1244064600345505 0.1915424161759543 -0.22002047893075843 0.033136270528834166 -0.03909182951672084 -0.03099129466035295 -0.038378345926642236 -0.017991291553394177 -0.0843379762242581 -0.09117141627500627
-0.021569769112300283 0.11006659335204518 -0.1354082422776339 -0.02170395653578624 -0.17215088676053347 0.05303269874488352 -0.015012390100521774 0.15342745077555794 -0.15968967867180814 0.10316716692854508
-0.20111134557615248 -0.0943114738853388 0.19524163775801454 -0.12460242628895561 0.21290313166412597 -0.003802007158634994 0.024374052423213104 -0.22949178641993734 0.1401434425772106 -0.022054971303473832
-0.11645958567639456 -0.006081508027462642 0.060730919972797906 -0.16694705924053846 0.01195489890971051 -0.027262748654013926 0.08992256431350483 -0.2047218436831855 2.2717201005350435E-4 -0.009865873845950782
0.002705010603910647 -0.0958404622733647 0.15393556690841914 0.225491593599391 -0.11906493503584809 -0.06924055642447015 -0.19979826851188076 0.2578597222044355 -0.12729657917351458 -0.0891468300839751
0.06611172202607428 -0.004618909373499739 -0.20037744892978301 -0.1200188676595131 -0.08730063538861137 -0.018303572819200677 0.11574116667395568 -0.09470337459264683 -0.09456497545572065 -0.01123756493976261
0.007610668042837198 -0.013097784955154866 0.01796004656824975 0.02316874238607745 0.08261353932740387 0.013563870202184082 0.09833620538093234 0.011793165967316313 0.01784782630799365 -0.17442586703966764
-0.02941430319326327 -0.032390836767334064 -0.11058208073215153 -0.19205486706006714 0.10861955396863535 -0.11783446053682158 -0.16873027998816822 0.29548743348091716 -0.05848794220603383 -0.07687700874022213
-0.03905958623475868 -0.15781495359247158 -0.19092769315241204 0.11863968387857787 0.11924717450014552 -0.09570923930652914 -0.058340910475515984 0.29612008260205136 -0.07659885123095476 0.06898485080046339
0.12410665491633972 -0.03834619215632108 -0.016981989278881036 0.038052119857947875 -0.24405365782649424 -0.07009550546106535 -0.02637784565853313 -0.2259567211791334 0.16054102622631647 5.399542692279327E-4
0.07252964813805476 0.1881432550091227 -0.07264466213605579 -0.3090631795797252 -0.0055450818586684466 -0.05413687487959748 0.059464995925059924 0.20779398457519524 0.041368688890984495 -0.004696861995488399
0.13803340164557837 -0.18442701386425295 0.05457959025355831 0.212798321890863 -0.2960577992146686 0.07243221585407861 -0.11043416199843564 0.061985692327275375 -0.0644603621741645 -0.092152896686651
-0.15415290886884006 0.4035406783978826 0.04152921023528874 -0.2838654288206946 -0.05730246505539824 -0.011356944379686821 0.07367576807568302 0.04071487582381286 0.0865578640542802 -0.11056716405059801
0.014264002493032966 -0.21571366087706076 0.15281865212326964 -0.21818808574573842 0.012722041195234152 -0.06995563963982067 0.17132425619408737 -0.31884078001599575 0.26245029830256744 -0.14999185182182126
0.07716235155709905 -0.03379972140753839 0.09736300522496445 -0.14980257447922624 -0.2033906737055965 -0.1297814578050034 0.15838394114942375 -0.0660593422110812 0.010676919884433558 -0.14272817162818538
-0.04083317166546086 0.05232154514973774 -0.15738672224913877 -0.027426951838151328 0.012019432377168208 -0.008216466447528985 -0.18791831273308604 0.27761953920141785 -0.014528668489987033 -0.1288009389137396
-0.020611749883811255 -0.005423466356535944 -0.10084389077972614 0.20444235847711745 -0.07374499606816057 0.02091174904739838 -0.059711277352513865 -0.061739518718317184 0.08852562871879242 0.016145019630069316
0.042156356722070645 0.0124075054952593 0.14727973045040776 -0.0668886913581183 -0.015359285085205662 -0.0423620851315639 -0.20385494864326012 0.006405460978592184 0.12018947588187602 -0.14993065657847038
-0.02637657845175885 -0.09465027305722354 0.028729757860469118 0.03632640466055581 -0.33886613015551376 0.14748469048997098 0.06565239474152458 -0.0012754564884806428 -0.14188812100142473 -0.031593452123586364
-0.026944595196240952 0.03772631611641533 -0.29923617080321385 -0.03942130534660045 0.10059705057936774 0.011673139330240286 -0.08327111253953078 0.12643716709850042 -0.1179567494707357 -0.02598494949559222
0.05582906240596292 0.07183688272215205 0.04923546072909323 0.1876611588429976 -0.11489295056319845 0.016626415299279065 -0.005155666211072654 -0.07957366131662567 -0.02896636039220171 -0.0358906623702611
0.08094252035910135 -0.11080945165066293 0.03928188474030666 -0.04221139507886494 -0.03875357546642181 0.031117354678919018 -0.21866042727047266 0.0038954839870415374 0.11200151866979556 -0.047224796095855844
-0.005440572529352355 -0.12634093742357588 -0.1661459796331026 0.19594660986677967 0.30247321577650516 -0.13254094088749202 -0.02472019045807463 -0.19324170939149646 -0.12723432750035005 -0.08640002389050952
-0.087865873133939 0.10877218603715297 -0.23458915484734064 -0.13911203123046417 0.3591540450889238 0.02018968648385042 -0.060769561079193665 0.10671411055057481 -0.15268654262082756 0.17250190982419777
-0.15559652963470455 0.08959313858143132 0.2837161553100317 -0.035561541550923344 0.20389719750259738 -0.12641002021706377 -0.18435699520428253 -0.020051289097605684 0.01732878188162932 -0.04086699866778068
-0.03980791857745165 0.012889688192094363 0.044743880776452666 -0.20388114942217198 0.2051361142406597 -0.1119938533635644 0.0354539818540457 -0.13915055661725176 0.11772382478920072 -0.07307151658236279
0.05696608754078253 -0.03745734179073763 -0.21061183331727887 0.1641851759205285 0.04504628091045603 -0.08628402352990706 0.06834254312116099 0.16175209434736323 0.011240466304603649 -0.21773940330069005
-0.00436299880638455 -0.20019115261326523 0.03279508089284879 0.19291028407483518 -0.25473791280274677 -2.4272851259454195E-4 -0.01912998219121391 -0.017025547140194712 -0.04141586941267704 0.03118195919958951
0.06788302168482295 0.08511412317596453 -0.25297296928592616 0.0923214642827937 0.10840720061985047 0.08219759560203997 -0.0726066557836873 -0.04286489481180305 -0.19586271746108636 0.1025368598758972
0.11802289900170046 0.027515177789786495 -0.26934599008357296 0.06104564795141916 -0.29680798702354366 0.04066154667887438 0.08505420774687457 -0.1857485831704632 -0.005438455942076272 -0.024975633826600254
0.057448444311287615 -0.03246872539376046 0.28778407856633026 -0.3011044372333287 -0.13460138386021483 -0.027872006186774 -0.10237612091386408 -0.0800487961355331 -0.04098043156192833 0.021252665449783534
0.023838282154867815 -0.1631939411924407 0.06200163660326717 0.07366852567622703 -0.31403940602307073 0.09900773062957464 -0.01780474486771627 -0.14569821824475437 -0.013800403855297853 -0.09948920503106601
-0.039401998740366366 -0.11707608501118773 0.015663573443013407 -0.022329014144207508 0.1254529005016861 -0.15956093267416446 0.10592553445410612 -0.16074689530463182 -0.015223440736739204 0.08978215190516643
-0.12665457785448747 0.04156055720376999 0.007679919010919812 0.16554817078733086 -0.009580371778170362 -0.021164476150497637 -0.2769896531887831 0.09567286187740572 -0.19446974578451912 0.07194404219493608
-0.01714346953810771 0.012865987341113003 -0.11704620555759722 -0.0038449719347877585 0.057443439513214234 -0.08466276451956406 -0.11935226123436236 0.17079643410063342 0.12031642311919356 -0.09630446605012041
-0.08652912241951685 -0.12713316348634335 0.2456049783633736 0.17463343849831378 0.21636549799151045 -0.21011427708712227 0.08898721948226303 -0.18812235068666525 -0.03939775562541892 -0.12905706433625058
0.033576172662318604 0.11215330823539636 -0.02105410739813774 -0.18764206483548207 -0.08601820913147991 0.07214035899207644 -0.12968333455268652 0.150334617039589 -0.134525032307107 0.08996561350551668
-0.12327023023083714 -0.03259190370501846 -0.0022455975376502006 -0.011815894025213112 -0.04533870317166652 -0.11205719776692033 -0.018456526273291547 -0.14352292473974684 0.12703695957598757 -0.026180174017431036
-0.012806596175905686 0.006093282171947873 0.0511737385198784 -0.15517007028136634 -0.07654428267170026 0.039540002565187325 -0.09460925969523198 -0.07992999927167233 -0.19672619055914098 0.0940406619486342
-0.037574296861772646 0.02429365200838316 -0.030624565929956875 -0.2382385503906327 0.11030582511345466 -0.12831283366614438 -0.03041737226263037 -0.14771281991505872 -0.02168458224468837 0.04919427621496292
0.07797041222960885 -0.17671126111621469 -0.08413534594093765 -0.17418901499571737 -0.2483974642989789 0.04368835851323594 0.20403316376138383 0.08169179319666899 -0.03698049308803601 0.030314751972140282
-0.03349287193443587 -0.024562306928200283 -0.04321358342672211 0.01453166421976769 0.09316226860778704 -0.00863548847532123 -0.2028987143937384 -0.08065860401113474 -0.16464469868343432 0.16281248076203864
-0.15709751594618765 -0.16486390168939713 0.10056677373649915 -0.06626593827405024 -0.14578679987199988 -0.07116516938878367 0.08969372787906243 -0.2704585344609374 0.007889483797655698 0.01833916807275244
-0.2126203128818369 -0.03890937789798295 0.031145589201468 0.10652398763093197 -0.0982137300986464 0.17179931762878517 -0.1477790548537254 -0.03946339407278078 0.023076610053934223 0.055243476339045625
-0.004480914162434077 0.08009178604394043 -0.14626879065489734 -0.30951985800682497 -0.18544240030072043 0.014184460930572587 0.037142976216224005 -0.07523832413503773 0.06851726482482896 0.13067225373706406
-0.06337170145333088 -0.026076198525072522 0.025808962395014304 0.14072020988389228 -0.1597187005178625 -0.09779866604806918 0.11614986953350863 0.08004052863799067 0.12557667016330187 -0.09783893111275077
-0.009950598789631603 -0.06763750552332279 -0.07179136850414852 0.05051738849443007 -0.16270222498603878 0.04492121227903928 -0.02080187829513443 -0.01152259555854726 0.0032024010256729704 -0.02172335647948626
-0.08095021038932387 0.023772667372080346 0.04037892881540994 0.03975923201489504 -0.10342632087822894 0.014525502013103502 0.0886894185041371 -0.2322190924694812 0.09552728235781083 0.08162798134271317
-0.1645879343781562 0.10039524704526231 0.24573449260324307 -0.190353291403928 0.11581757079421845 0.08812653029131272 -0.16534983902057793 -0.21593420231724375 -0.026756849892532793 0.08905505771796052
0.004001262394141309 -0.20031255864635364 -0.11131485698488026 0.06427834813332872 -0.1979646907818274 0.06698147847729323 -0.05395701313203182 -0.1060960932983096 0.0020332950282302455 0.1635237590937844
0.015675506189109754 -0.0898674518131251 -0.2079336808440395 0.19761345200208358 0.04780197707164519 0.058434037244591154 -0.0324459880759468 0.17402948088487025 -0.12663977289987086 0.128175598556893
0.029374458600338497 -0.17046774410468488 0.11932518943419732 -0.15528906416048896 -0.03460771040032607 -0.011997996521548197 -0.06369450410766464 -0.08303360314332094 0.06160266954278949 -0.1376694330835293
0.06404931795746502 -0.13699860289083893 -0.12740189632999974 0.08366253309998845 0.0019642162150012806 -0.010079386684785335 0.015144976321730678 -0.09503678790155899 -0.17302507248361837 0.12580425874198958
0.05190950734325447 0.01008439957639133 0.033023440863187495 -0.03333015354303899 -0.17914357086753296 0.032443236418949355 -0.07015753148436402 0.10530086009062428 0.059014869682580656 -0.056669435529998105
0.004052922982360432 -0.10729302399053606 -0.017651709286797643 0.22061349583610937 -0.181659743048533 -0.0543218653436537 -0.08618644564006071 -0.009242457375415907 0.10981061642164087 -0.1270828509901212
0.0030782616107916188 0.13446160828999165 -0.2191143273980244 0.019197607116618446 -0.28634551335728337 0.028441079129835126 0.09036683784621918 0.0825694461570932 0.12976701373586683 -0.09850631815387913
0.009271053945721365 -0.16196387761322895 0.06779780902197226 0.05079513517261589 -0.09285504480891212 0.05238959210326284 -0.015712039079718045 -0.2446267718918246 0.11881266580574236 -0.12553262032517426
0.03005261866219926 0.013972228516052832 -0.006628432607691623 0.03408296237655425 0.03481121222036829 0.07832104406836436 -0.07877970060235542 -0.10084448576714959 -0.071247861978792 -0.07649703451128263
0.01829553378529758 0.08709476000672044 -0.26097432843397367 0.12866120252577246 -0.04272654196218218 -0.0528858581386359 -0.08228689476061761 0.17560914081887485 0.009993084904907861 0.011921639243604443
0.1132972062178855 0.09777544645788874 0.11583295281793952 -0.01563288616929533 -0.315544779989371 0.11455897693954303 -0.13504801693997268 0.13540384250798523 -0.10875436055763091 -0.1458046619382306
-0.004443570773545961 0.02170193073833657 -0.05076211798523367 0.03022437261260703 -0.12197603570635272 0.0449136035803565 -0.10689495763693412 0.12175350232460715 -0.12538053249522588 0.05700523584454317
0.0414996275694505 -0.06189661488695116 0.10887856999032179 0.1058618947184534 -0.24520556606455646 0.01076841169676476 -0.0887669863495661 0.016045273414782842 0.14361024578234044 -0.07546346924526781
-0.05997161438460178 0.1803184765880975 0.0015493768800732078 0.10491514058974519 -0.008420637555862146 0.11477973519597204 -0.057099825764186 -0.26230371890344967 0.03554794641899304 0.04309513634166173
0.12884726756663922 0.22671181026605988 -0.2722179457026366 -0.17008127052207495 -0.08147337013472708 0.07460569827608692 -0.12371600470464522 0.2491171491886538 0.053696495344247655 -0.061973397737006206
0.18838505258497346 0.24123590487116042 -0.24840436346760453 0.021808561735254715 -0.1695271959097398 -0.03042267853017795 -0.13122774091910241 0.10935826398938525 0.026398185893243352 -0.03704453503362235
-0.10878220964570225 -0.10271281186102126 0.23207681975355346 0.037608217724452386 -0.2048773001844341 0.009694075033532291 -0.053088742380368634 -0.0060799910595259335 0.12010500162778769 -0.18872310701414408
-0.12901831194338995 0.05233917525633829 0.00457069336396442 -0.18058852187486263 0.03182914979212716 -0.004130146579336983 0.04850687677617395 -0.23786835360244615 -0.06622803975686183 0.11213937610354154
0.1282986001222363 -0.33164421176815695 0.153803205553708 0.03165064706342678 -0.3769557279181493 -0.08460373754021173 0.1440227729018076 0.016156185573134106 -0.007080255442638692 -0.018946005104570087
-0.11915328295071104 0.011961710203828253 -0.007316249723761744 0.011741531697173579 0.17703525355774008 -0.04389513705713735 -0.20982037473212128 -0.1970465374581832 -0.09520626444508826 0.13202327182791707
-0.13132977735095053 0.0011018475674267087 0.029490833707597083 -0.022840326393557285 0.2521283828487196 -0.1762873147761057 0.048162392179482455 0.0682773140352115 0.12171789137874846 -0.15353450020436207
0.033822160976386566 0.06798149075954511 -0.2340053428004032 -0.020000321431676737 0.06965916324747268 -0.08840838844791156 -0.08609188804462975 -0.028135072322041817 -0.04651776669722126 0.048548492848036764
0.01764652706827222 -0.06859105430587442 -0.13360797735985924 0.011418004654447641 0.07953878601407002 0.03236832205695313 0.1079636687822739 -0.13332528518344655 -0.08942629636282146 0.010958630246000479
-0.21768355136384285 0.13715327763764962 0.020346313552781516 0.07299907840223643 -0.11576083315869491 0.0022951615771200696 -0.05775603891533941 0.13864225024187626 -0.045155623832653466 0.07646853735379985
-0.09108113860672952 -0.06052532144804849 -0.06595007033553932 0.10335743269767608 0.09780369446038714 -0.055832863080105995 -0.09605716647665688 0.14923286063310012 -0.08399584695510422 -0.19807772573342516
-0.3327807078604744 -0.05354084925819786 0.20589211900979384 -0.2988398846790169 0.2339913994336117 0.03990424189160437 -0.0018948851076766764 -0.07004544449656991 0.11545994608898706 0.1264556019730911
-0.0912769540645648 -0.17333769222604523 0.023347277377504635 -0.0028193046840132283 -0.19433336748639043 0.09678351493593275 -0.04125846323228293 -0.09753749071119236 -0.03194520162446076 0.2064862170789269
0.03403293788931159 -0.15399463032392544 0.00696913270998796 0.0644805831155039 -0.21865136171184282 0.031171143152994168 0.097148632831683 -0.003294270748050545 -0.10152841427744937 -0.14901485310199428
-0.08751790319729398 -0.16889563808455563 0.22188802644545533 -0.10981364736612632 0.0487525903200243 -0.09535779050641814 -0.17117257030934263 -0.03923657093156082 -0.11620123771222937 0.15151900998985654
0.11483225242275538 -0.02744697900818688 0.1403598986786251 -0.00968102695498066 -0.23806351773198364 0.05544802875334324 -0.0403776796599324 -0.041531264067083434 -0.06287609037600132 -0.23463162924819356
-0.04710565502370584 -0.0754170019403271 0.035656991812458995 0.05080980658300773 -0.1376501041675012 0.12090267353967503 -0.07000019283455436 0.01195063486621967 -0.008630997539005177 0.02383708443330298
0.02803133223936581 0.1611895034160783 -0.03382352855472179 0.06416922306209319 0.06274916430912099 -0.08650142645305073 -0.01921695503705115 0.12637345092650065 -0.03052428294095235 -0.11805494780252186
-0.14895445603518573 -0.11824970519711481 0.10849183359499835 -0.03300580225207827 0.008295461124657429 -0.07314741168403308 0.04014424674186332 -0.01695763096918735 0.04181712081800536 -0.1323150736149165
0.05247336706059564 0.1817591838738732 -0.38003950122103886 -0.23150417137441295 0.001563774245405583 -0.13759077113733562 0.16283056704577548 0.14753219324724048 0.11079657333919302 -0.017660564037782527
0.11359982510650461 -0.049842915563513494 0.062186693512143065 -0.01865094347975056 -0.09153709560351243 0.010255623041187023 -0.009373530741925004 -0.14653914365779255 0.1248164890977461 -0.30787788580630737
0.0359498408582753 0.010656437684557648 -0.09360249989124195 -0.117509375044539 -0.09882316540314064 -0.09521151054645895 0.055774310156415007 0.17438499134750834 -0.016662746103326954 -0.20566264629914577
0.034112014788273436 -0.005528519277169256 0.09557294781778373 -0.0483149113893505 -0.15857418467844014 -0.19201246008793657 0.09693106601616827 0.19013393144418592 0.09910484207695867 -0.23469186550205692
0.07847375922815522 0.044936614290010536 -0.1286147822570141 -0.013221292826380382 -0.09370582391554945 0.05604017103082996 -0.20473511991629367 0.01572580756303525 0.07896451985258054 -0.07189455351925038
0.05132891595436537 -0.08621064395370431 0.004249863982438849 0.015642641169785594 0.2034469024575002 -0.11181490129895735 -0.10427152729848341 -0.03982237257275686 0.045823901135745845 0.005764009013678936
-0.10219287679222992 -0.05041678389024419 0.11603076745763578 0.18333131488128 -0.09977174594732167 0.008109015484459655 -0.00579744543901685 -0.039124111851459746 -0.05277666616053396 -0.032736948162656744
-0.12163856215124826 0.2051675502677979 -0.2981872698760023 -0.11540380149096198 0.1659737586826048 0.03524416067535666 -0.018549795187311265 0.155229960053194 -0.1437292303666335 0.08174604585170563
-0.0680468174154455 -0.004083073892468949 0.272823120053425 -0.13062929421670197 0.1305250333002904 -0.050251766886112416 -0.08316835728205242 -0.23750957445246268 0.13558647566509793 -0.06670349106455743
-0.12894418963105006 0.006215356081973293 0.07995928694076854 -0.13836099269419203 0.024841719280608413 -0.033742007005493145 0.040842641092548135 -0.15489744834222183 -0.014949539943756779 -0.09932936879707742
0.11396773507518555 -0.2154305323587623 0.06564915836869345 0.08018381384936783 -0.051125007735525974 -0.10896254022575676 -0.006199408012797727 -0.09066227360742432 0.11845389697625301 0.03576116321800102
-0.04233721127125115 0.1736865093274733 0.12861000087377286 -0.050401424062863256 -0.00748457713247365 -0.045520093321387914 -0.05977236155596011 -0.03095659362261474 -0.025400209189227155 -0.1605746852474464
0.18144836586274268 0.04169473912517642 -0.2558659084202339 0.22075319401959995 -0.17730455397466174 0.15982153686510325 -0.07487532253533136 0.14503089499157992 -0.15012908081988288 0.09494819423667186
-0.007891085503412873 0.23947326533945001 -0.13174310900678304 -0.21394308441229729 -0.10011713803477167 -0.04684229674523096 0.02578762955942721 0.1846305065486693 -0.08929750939023894 -0.08809813280461055
-0.15116387262572353 -0.015545182693430774 0.17939809380357216 0.13434904877300505 -0.09729225393533017 -0.1031481690875639 0.0011491060520470596 0.04559599472457368 0.046183029000697096 -0.13936590955718228
-0.10925137019617692 -0.05008757799821639 0.14129471255261303 0.3166774845565137 -0.1433795950582038 -0.07505060040345013 -0.02671287165157035 0.07182503217573474 -0.02486613732893228 -0.052453795333521694
-0.025331607795710104 -0.14021679597650324 0.19633965997777444 -0.03814352657759119 -0.18553664111893017 -0.06868167136455632 -0.015679818171741213 0.062173213555359985 0.08477491062067218 -0.03742710218758041
-0.005275858894951898 0.05239954227477214 -0.05230642487024775 -0.0996024265612925 -0.10456381502134374 0.04614974638736414 0.12107605821671749 -0.015353574995412546 0.05887628803136686 -0.02069475618912074
-0.028412375130834572 -0.024035259409692096 0.036681054813121027 0.1559215470154551 0.015507678780088682 0.09052909484567295 -0.0424583987576221 -0.28157449772934384 -0.11825463625830719 0.05694913048099074
0.13928950375179414 -0.15338775800419857 -0.19847447220745595 0.12869103135442725 -0.08097173216283603 0.03383338123324439 0.03890277040839196 -0.10312055711504836 -0.01315009311524272 -0.04927195145736716
-0.09420487114419701 0.00323183737109414 -0.10527899252907894 0.08431243292849092 0.09664331808312597 0.033972279105128164 -0.07043431903337154 0.2589468121132046 -0.26514585595200957 -0.09688331718067335
0.145636083686211 -0.08976007227217056 0.11059053515966616 -0.08349661752262644 -2.1858692429628667E-4 -0.06457401082749399 -0.06600639257945667 -0.10679298061629347 0.07523335492590007 -0.1641464657583444
-0.044957755677598986 0.09613850112912335 -0.04950955300472023 0.1297555546785552 -0.1753834796560929 0.09786955674738347 -0.016451724732209533 0.15620309437696545 -0.20810685894126743 -0.1599897008438015
0.05220486690115546 0.02432143156361996 -0.15584466468404218 0.08537812558123757 0.247927467085365 -0.1278687487349136 -0.024202217481301865 0.02357389996573831 -0.17256525086722854 -0.07251141241497436
0.13678563775730262 0.0705554439708496 -0.38085823433206156 0.09141887900080062 0.22184567906946207 -0.09480693356544122 0.03427710712230812 0.08923853085917684 -0.14697957205480422 -0.13317844810807178
0.08674347171637878 -0.05906318493318088 0.07943820132801797 -0.10693791330827906 0.10612960855634036 -0.12886544086666293 -0.13085825842101223 -0.034185961136810224 0.19667518715918608 -0.20017516381002695
0.1403822990673721 0.10789473114473459 -0.03205850502167616 0.001287099510276648 -0.12462764042026236 -0.14556433114273218 0.03426937091761421 0.17828745895142442 -0.08847281686082367 -0.25348849362150166
-0.04431283731159085 -0.026816731082204094 0.04276243759302978 0.055777374944528876 -0.059288390228132655 0.014353569566481613 -0.014892622712508317 0.0093381625892013 0.03244059504254654 -0.10938796737205066
-0.07273311108342824 0.08374488906817072 0.04765382427401361 0.05232732220334832 0.2803305085550179 -0.06444812040600105 -0.15724347970079589 -0.12579922028735316 0.04507559617463355 0.13548053919429293
0.16884174851982023 -0.1877821510418493 0.19501244289231323 -0.09226319832601433 -0.2542318858553752 -0.1800388168823181 0.13326021000342841 -0.10799962456407244 0.20292649790981912 -0.24670883826428444
0.12940048335411053 0.027573918640948998 -0.21651710155612133 -0.07341021604791104 -0.04637063567217487 0.08971976181457979 0.0608233631954212 -0.10160329179592768 -0.1166623614210058 -0.16465502177987532
0.11629815621268937 -0.38588728377702186 0.06585012367471828 0.24497123361246578 -0.021304946033458005 -0.036445542913456294 -0.16052242615183582 0.0964839148190384 -0.10546921025224447 -0.006570181029876857
0.15072303820192257 -0.10955189106788565 -0.3005149015749761 -0.04967495508170817 0.1287992818585734 0.009472157827201405 -0.029326869413857242 -0.0032342277047076014 -0.02605861992776005 -0.005066184446873364
-0.19956345256029892 0.04654141225326143 0.11971500697323915 -0.3135254567235028 -0.17279281727864249 -0.12442603318470719 -0.01743848813636039 -0.13906310223562054 0.11918119449000922 0.04813852633550338
-0.21012724806604444 -0.1678694344855028 -0.08174877173532456 0.12302402875155241 -0.10646485992793502 0.06398549505469213 0.024502109820322002 0.10908846856658437 -0.00811596172474501 0.046194193521509094
-0.1238067769497367 0.022207414733215518 -0.06432769776550663 0.09252422949848711 0.059558006500674665 9.563868301552736E-4 0.1331343526903475 -0.12416269556738428 -0.10660340558496031 0.048197792642215666
0.14585587341687414 0.15381834436067204 -0.039880261521264754 0.14389298739439044 -0.17678324449705707 -0.0397284102157886 -0.20955877105781154 -0.004731247993715033 -0.15512879092673065 -0.04278959236060243
-0.15569159879125888 0.2538859082059996 -0.02983825385937601 0.02197579974656365 0.1624110231273767 0.038987459930978983 -0.13759695047116546 0.11797124208652995 -0.0032598224376265764 -0.2168184225171259
-0.12139774884220088 -0.17960689563929352 -0.12440035435877494 0.2394881876878778 0.23941320502894423 -0.05158524808607914 -0.13955329473922298 0.04312907007204151 -0.06828503612701066 0.1880665901091666
-0.18892565804912423 0.11746074882538331 0.18648625116266057 -0.20795384681083018 0.21033445276957832 -0.10141482995212195 -0.13938172563717197 -0.02164830271514873 0.09289068814060719 -0.06599751258124884
-0.14461129780592208 0.0512285823951282 -0.03967884076298801 -0.10385786516564068 0.12754272054179774 0.04547567541535096 0.09728473784094281 -0.0946886136655284 -0.05323845375799166 -0.02064245309497654
0.11986787192723314 -0.01724626307406285 -0.11668458997381465 0.17618752207514218 -0.330242934034919 0.009477726081043887 -0.06418714083240043 -0.09802702916513907 -0.08393264173884964 -0.1640470241636222
0.09982430366388458 -0.04453266143850832 -0.06440540775764368 0.24145203791783776 -0.27559765476266834 0.0977541692852241 0.0037512638997276647 -0.06449161304178357 -0.017265658209207328 -0.07669996487971824
-0.1809596709885491 -0.01856750906645421 0.10700691534521438 0.08824230850572286 -0.2117543615555195 -0.02147884971409374 -0.012234189874782682 -0.21219106028033694 -0.007816839555058278 0.12807433237383453
-0.288578323582707 0.30080122645141166 0.16124041982464 -0.2955547390692944 0.08925619636867314 -0.005548963217761948 -0.055901026253385507 -0.05755571978774055 -0.07971132158040165 0.012352390873865918
-0.0764828113857218 -0.04574685712130133 -0.0513466647624312 -0.02771142055244625 -0.006030110039590094 -0.05264939523668045 0.14348794143566085 -0.17549210596487366 0.11012471039402452 0.11237886750009424
0.09654754448974195 -0.17717362975726325 -0.16026429042610377 0.011845925097379363 -0.059728866404107 0.14364746642102616 -0.023807312844023328 0.13622761170850312 -0.2664828479736303 0.10783370600324815
0.11528139557346483 -0.082136894835991 0.05516148920507459 -0.025596876532776376 -0.32224168999702923 -0.03195628363862351 0.06153775063529044 -0.2704193390910993 0.10548596331780685 -0.1576836895976923
-0.11454219562354638 0.0574737573688135 0.08021248242389105 -0.11280884824157457 -0.08217808089415062 -0.05613274019815116 -0.14484803871717403 0.07091885790282854 -0.10130662301730232 0.05172326130297209
-0.06827558081776067 -0.011450210151358553 -0.04674939791618967 -0.003629980553064164 0.14413323357409716 -0.02351595377790887 -0.0018568147220989007 -0.3014715315281265 0.05965815498280179 0.05896991396682477
0.0022000950324906525 0.17995116076594272 -0.14536277241255005 -0.18983652434031126 0.2334561850299941 -0.03443904998256833 -0.16416966486077286 -0.009183787169901392 0.024220956500364748 -0.1223521976516048
-0.03457114093447749 -0.158640115538919 -0.1361533857611115 0.10097652872530767 -0.2533550043877454 0.06009911737778235 0.03384249739675621 -0.11370407916005232 -0.0035343767714741464 0.19134651678183037
-0.1275735356672165 0.06457765504243428 0.0052122158819721065 0.0844418224899149 0.18174808033310877 -0.05497112219210151 -0.05764930624431723 -0.24787504380016973 0.031159674215379365 -0.1369776496172597
-0.2685488022994122 0.06927393848281427 0.21429583740773267 -0.1513385508190801 -0.17885395038345558 -0.05661676414500485 -0.00793780203502302 -0.0961101458099027 0.036620059205427935 0.16290154769400828
0.00420553468361487 -0.10365549213013067 -0.2708468875339244 0.1087876419662982 -0.11927505218536581 0.009759179240215242 0.15075758697845024 -0.2023992892343435 0.02908781589291847 0.07433357271066865
0.029307741977127554 0.0922432171259437 -0.1064953294620355 -0.2811115074506773 0.0650396461163294 -0.11545461136806709 0.09604775136940315 -0.09208632637491727 0.1030698681411424 -0.15685346923098906
0.06377244275843204 -0.11358907729405426 -0.14956292979719601 -0.09180052057371257 0.35232340876792584 -0.07947614590950441 -0.17946187206785283 0.21505528242178765 -0.11563650981814769 -0.04753525772746559
-0.030107143180848943 -0.05226727489918483 -0.1293220234124081 0.004440241357421101 0.02021858553400692 -0.13955651237603392 0.059849320635526025 0.07700982972370181 0.04544538806022887 -0.09798948563394974
0.12922727387350608 -0.12538528637410484 0.08528921658460722 -0.07091458446631711 -0.06071063326788358 -0.11385491321907787 -0.10434610057064317 0.23803660751253497 0.035540974908371215 -0.13436240307375313
0.009329652920707109 -0.22376187439698128 0.03988559208680186 0.2926518666935001 -0.08446769020370182 -0.11531133578527207 -0.025168660337481434 0.07966150552891588 -0.04934729617041594 -0.07973801298516008
0.10779818354785119 0.020436108194492465 -0.10613630232458224 -0.05808933709346986 -0.4637040474747375 0.12899941089666309 -0.0062892959544768754 0.09901479499564374 0.12356505703885598 -0.06226757848245945
-0.16784546134449688 -0.05439497267971883 0.14112764201918504 -0.14601786601491412 0.1150061669271981 -0.03350547414889972 -0.06465362709471788 0.011511504977378975 -0.03291374546614759 0.12118644397349838
-0.02066449531979394 -0.25194423500149554 0.16599281520809503 0.07824495091701737 0.18400537389431718 -0.028598612322181017 0.07213173480262748 -0.12324655527532183 0.09627430337156664 0.00843662385146452
0.03457323279548027 -0.23208489907199176 0.01277007072271498 0.024035643595921165 -0.026603526639947476 -0.04763407205068784 0.04239233136139839 -0.039318046367105196 -0.01826739579826837 0.006879430793201103
0.009551144490923261 -0.15643975687568992 0.17524228462584443 0.13290299765102964 0.009470578792295072 0.12618799796794042 -0.007857475624285598 -0.23215338344893133 0.013957455939237352 -0.06846983457624548
0.04555157466754349 0.06428754539328259 -0.02005513960872254 -0.29648618600059246 -0.07618843045622654 0.05872059415598499 0.08654238296280406 -0.24180417849428235 0.1023548295577613 -0.11043330304170895
0.05206775592809027 0.1800859781506602 -0.12127118207876027 -0.2658671375517759 0.135920020263244 0.06957892635023515 -0.04719929752241749 0.14313379966108555 -0.20118974126721517 -0.08358063319870838
0.05661501078859032 -0.04437540477757656 -0.007745535026191885 0.10446230497045611 0.17373190575246913 0.06694034805261949 -0.18262702364634895 0.03645240864875024 -0.06920809106926362 -0.14996564510191043
-0.05708204888251732 0.2158830078504783 -0.20653698366831488 -0.12194495373104348 0.09489421014777971 -0.017566888270399587 0.06618850095985526 -0.06685447412871308 -0.12490213098124923 -0.0014396542369948875
-0.01614147645355374 0.045189175439797925 0.02181835228004161 0.02685623375282292 -0.09023119034189588 -0.10843326731433535 -0.09555004583582004 0.028124247095556287 0.1431181037100845 -0.1669455696210342
0.023065744771005082 -0.04831784943422794 -0.15033251844203127 0.08102294562033924 -0.24663036292124355 0.03747429166996975 0.1802456309861066 -0.03832017277456587 0.1296913496523313 -0.19048440257799523
-0.10870021944562581 0.19994673976120705 0.01920414192545347 -0.16300753922002148 -0.06276537489156232 0.16593286709228555 -0.10529988615766264 0.013558586086922786 -0.05189698874156973 0.14223815299508902
-0.2282834703565066 0.41243841010077653 0.08014985203072163 -0.3461189554352987 0.22211278059333037 0.051219604362550956 0.07134098256184572 -0.0044036055115082235 -0.07066418722069616 0.05489755439137208
0.05374593318931028 0.0992814918116709 -0.08473758507904272 0.016483602444342434 0.028370497223324145 -9.624523042140606E-4 -0.07876024312683676 0.002415323509582638 0.046940538154897765 0.006077060857313961
0.11200333290840359 -0.1028780942507681 0.1570525439981576 -0.008572829641492783 -0.17744811497635324 -0.10485793363329417 0.09111842920886418 -0.08144819821916552 0.0850183740119272 -0.14546221032702922
0.014744195777215871 0.10630065707653602 -0.14801962189664555 -0.06854830330026385 -0.09413037792078037 0.15595220692351677 0.04136512434785951 -0.22699996028934422 0.12901944895558914 0.15391260318806735
-0.1340122073843078 0.10057174543270721 -0.3820298974869946 0.20262523885002448 0.03759120559832992 -0.04362715540017629 0.11748795552125872 0.09080990263068335 -0.17056742145591694 0.0024366183664464953
-0.030321210954593912 -0.09696413271261846 0.0925287229360471 0.23090520742123297 0.18778347581125848 -0.03735915415108818 -0.19533211651892152 0.0683893325800466 -0.17100337244575922 -0.04471755658004196
-0.007125375899650484 0.07328143264319238 0.11837614647541629 -0.2404648690672617 -0.2267547742348067 0.030078841053929 0.027708559165742427 0.0077268450118201625 0.02307280628400355 -0.1295628616199142
0.1744654132667032 0.07482708945852772 -0.3162402324067708 -0.3938813671142211 -0.09787637420352223 0.11219803430936925 0.2590561123133596 -0.0760355372578368 -0.06888846646511027 0.05869858904165816
-0.15137736988299097 0.19877863039889 -0.11484769954131091 -0.07699765550098563 0.10650338228649647 0.13423975640529937 -0.04268124766711213 -0.06132754602945823 -0.18545838723898717 0.18845522961271996
-0.18526682122263552 0.07058519213706595 -0.1257548628120926 -0.23064375381803123 -0.09423127745998117 0.02549011632011089 0.07713091207448391 0.18048751180655073 0.09571628888787048 0.0042818667958795095
-0.05198567295223119 -0.07227733310137872 0.09060721346581846 -0.08128051411817956 -0.29919531561846485 -0.07703743953511812 -0.11135159807667372 -0.0037073372709151104 0.07866943026457136 -0.04443080256218729
0.2808080277917021 0.13217433335740933 -0.14629071981659825 0.04085684825336285 0.10124266512287146 -0.11383808899947258 -0.22561639539154027 0.32232664431402763 -0.05227016058756953 -0.2004143613530339
-0.15316177974626563 0.047758951090883156 0.1874174027179588 -0.0591287199842418 0.1389041257925142 -0.09400304464733633 -0.1173027695608079 -0.1590456888586699 0.012836936137914727 -0.02480772782283259
-0.11625384684342446 -0.01132143482586891 -0.11847298996398674 -0.10598337151344947 0.0195613254322444 -0.0048634474358377365 0.09103807260749384 0.14023234610913987 -0.12883047986199667 0.01477984367573268
-0.1807372568605151 0.007763520814447196 -0.26672978075168563 -0.027785986988709665 0.11226064626646787 0.11822855480370564 0.13644183286940265 0.12586072884939728 -0.1720190883456216 0.15585608947904833
-0.12391526082269647 -0.2821530913123451 0.14589585048589646 -0.11942249791969686 0.05408228980790845 0.002554142428490865 -0.16897220555070172 0.11226288562322537 0.040377701470495624 -0.03044407364251657
0.07076556340923144 -0.07814795137416124 0.04828829000188707 0.07204837942192419 -0.08180145453073322 -0.12380658954556656 -0.05347358804187627 -0.07494784684347328 0.029784517576243744 -0.034937862771575595
-0.03416632650720495 0.037802190421922344 -0.3003292604465462 0.009913522772263532 -0.045189591341372674 -0.07559660034687785 0.06983311900465522 0.056315726123028424 0.015295253166299342 0.08864445469839062
-0.12081931483815693 0.13657965745927148 -0.21900227671649067 0.01621836235877834 0.04403242203102162 0.00915974009133398 -0.002610936233185541 -0.06857211050485103 -0.007265413512033097 0.12370833122348195
-0.004337279810533025 0.12247613459668287 0.02730891155320881 -0.07237760556885191 -0.2801543419493328 -0.008909829685138168 -0.004889921720756521 -0.18518586503080445 0.09309720275093002 -0.06081433205839041
0.18419331207754552 0.11849293877948874 -0.23080740584606046 -0.27616075567830367 0.04557306636378713 -0.011053987389982088 -0.06732020397095682 0.13488909531713103 -0.12067351832866646 0.0347386119014975
0.019112715005336702 -0.1210020851202335 -0.19927438552832089 -0.12714912096613687 -0.09699067179490764 0.015271426519128977 0.15580223083570247 -0.10788679508304615 0.08559912767036071 0.11595755143889788
-0.22079755119227865 0.12764465558955526 0.17790093590385275 -0.12631979516900715 0.2092499199782859 0.010815276249486954 -0.20442782207927337 0.08226337227012945 -0.10286184736457522 -0.05750950573809086
0.10952675126812449 0.009633019274900201 -0.1750703193689907 -0.05654708787349697 0.018014994396544068 -0.08554025589197971 0.1197412264822471 -0.14773997998710037 0.12608666713813257 -0.12296282907015613
-0.019331968884967424 -0.10771393876932325 -0.13022642741090623 -0.05440223602215218 -0.04098916941204443 -0.0251402112315836 0.10099890888600317 -0.05775326877738485 0.014595387865725656 0.05984627573982842
-0.06295107440045478 0.0216798927009688 0.03404349989231887 0.12907022112528257 -0.3222579390571709 -0.03837242500444514 -0.08075149207517972 -0.06045210600322679 0.024321945127671406 -0.034900083971002915
-0.02393286487972018 0.023427324554992374 0.08486012288178689 -0.13548726289432864 -0.002446271824177613 0.06090632178646225 -0.20884516561689118 0.19283021185005786 -0.1697948363564246 -0.009620588565415925
0.07966763401077794 -0.1419686362132855 -0.013543949835011717 0.05647511472293043 -0.29930306330156276 0.030458910925174918 -0.047684883216428865 -0.04851451958535357 -0.06328041284301551 -0.007101776263414805
0.1344569480071848 -0.05366278649074914 -0.17731942616198484 -0.07794559018620768 -0.09469383670746762 -0.07226324747567985 0.1565683220515124 -0.07376343947639631 -0.09247176643964222 0.06140045048808315
-0.17973527015563745 -0.0998757414681138 -0.0666367686409024 -0.04011640809947739 -0.13569902878455034 0.0652931855887453 0.10991745463892016 0.02977819139920133 -0.20149590272853452 0.10209696257249326
-0.08765964717073485 0.11074606897319159 -0.2507389696402693 0.004468543046964431 -0.06702162709494743 -0.010848319623471584 0.09918405742004605 0.2299995822911475 -0.19120842122937687 -0.07434512470307078
-0.09617872427543503 0.1707512932446408 0.061192482000350705 -0.030417438348477998 0.15120830504605412 -0.0682102981452816 -0.10095708449718925 0.07735012227217442 -0.05339536051796405 0.0037276590623156543
-0.19564880429885637 0.15723699116607043 -0.2757210271602131 0.08782787165547738 0.07018521488519806 -0.09904740122918014 0.010299216043773608 0.015501296512709135 -0.07848539087025382 0.07851069094558845
0.014262812684493175 0.20413138189455757 -0.13784856832007977 -0.25035843576018646 -0.06466000163484517 -0.04554796834248471 -0.07819998979318588 0.07772092004086348 -0.08118520457046019 -0.12036620331006002
-0.011538686234312596 0.1422000688827678 0.03662004002120923 -0.10968750825281126 0.17589955892426065 -0.16425091401513023 0.10148448902116018 -0.11375660212193628 0.11709437568797222 0.04667690854351168
0.11653681290103891 0.008282212370541196 -0.07762050177431912 -0.009538194272654253 -0.07914482094388672 0.0856771535774465 0.006751006419936212 -0.07379379389887707 -2.5900599601584367E-4 0.0848659561678943
-0.0069984550397661485 -0.17513930504840125 0.023560169325256435 -0.11201796230424085 -0.09746960426088279 0.12761789805709325 0.07049490776679214 -0.20704461841388297 -5.509780275378278E-4 0.0346323119684193
0.016683454006642475 -0.10345994217138846 0.003480601307622185 0.013290745145189362 0.04205543455236501 -0.0136460964847271 0.11587817058401864 -0.1307465422778689 -0.15257258066900398 -0.0798678536153546
0.02746343435888961 -0.08597432983636275 0.026674925841971942 -0.2974821145040488 0.1792326243583995 -0.11282262373558072 0.038373576764879055 -0.2826983684508358 0.08543456730325369 0.12403617860944958
-0.06619178322619121 0.27893717205814506 -0.027314305266775845 -0.15023196964339364 0.02158135942888529 0.008511852186083723 -0.1732034497492782 0.08101568502112286 0.08836148675509994 -0.21152900277583178
-0.0761904392526493 0.03427136292476516 0.06648875535128934 0.08152229468008952 -0.007263716959781938 0.02592937641004597 -0.18058847013650278 0.09238758090730619 0.021767456025793528 0.054549251719324336
0.007331506683603423 0.21315906041878827 -0.21505303417279054 -0.10975865828801235 0.20045220704004546 0.04211954828908709 -0.2044214897133248 -0.11836071586220158 0.034062531038724274 0.08056503381975806
-0.29320427025379775 -0.07289915179420446 0.1494864713577985 -0.12223519054549123 0.41401310912448996 -0.17486269759628895 -0.14854098983409436 0.022561873053406987 -0.00349779763319 0.0247918388436034
-0.1412301621721041 -0.021922009177625018 0.19753654407782667 -0.08922206439385504 -0.3163804603144924 0.16295350556380278 -0.11489250349313646 -0.15478527729463687 -0.04454039744263406 0.11350151892471463
-0.049135216170651676 -0.10322009018020672 -0.16625782439186876 0.0979132593497753 0.17807220875108565 -0.1236782477989172 -0.08590580059831156 0.13841051475611893 -0.04505380224234531 0.20480416283188632
0.050078822311726744 -0.10046783397795614 0.14341555566431125 -0.010240095180253973 -0.3400182170892684 0.0051602907073591275 -0.01854060383537521 -0.2617128651966806 0.0639777866206002 0.047263777235108065
0.024932885299942417 0.00704679180929843 0.23215246104097315 -0.11600317717002995 -0.023690086633450496 -0.0027099875865198627 0.09522873745846808 -0.09359381396127775 0.07893717839221469 -0.30172094953373557
-0.07684491380086567 0.0682478031401782 -0.16793249975684588 -0.15202479282179301 0.27925758016648006 -0.01587195960863306 0.08866316810887422 0.0371585080573706 -0.06718046160439022 0.029450987012840258
-0.06398835206345634 0.09792192242941843 0.12914621184793035 -0.2785159365246388 0.14266018278038975 -0.04161172753639895 0.05232735337183419 -0.08102539346582517 -0.12233590138239589 0.09367493139009762
0.08653175001420756 -0.12312356302013265 0.16193268029129224 -0.04809537523229944 -0.11432728683078834 -0.19156655493130584 0.0368295458881391 0.019104538937614355 0.1008011783095723 -0.14268182468839902
-0.05792850239272464 0.07778819815082172 0.06010382710604728 0.08702948637837679 -0.09104688982403548 0.07950240110903771 0.06087865368848339 -0.15083472910292364 0.04594371530008321 -0.0022463152440258807
0.04237514609739514 0.06735477402176648 -0.24481777130284516 0.034974406545141896 -0.20762890230720607 0.021473242753715125 -0.043685558687366885 0.18101015491349998 0.034715477502155354 0.08246140532578652
-0.10813696904685975 -0.06991422117578254 -0.08940700355577721 0.01161374039016908 0.09234130377045664 0.021021169575638165 0.031620556212672506 -0.01310804037414467 -0.09999193335835434 0.17966473587486395
0.06872010916583055 -0.15195607987554877 0.12100042467549713 -0.09267396698448585 -0.1710007411656463 -0.0842056813061476 -0.07632653617673989 0.03182245619034945 0.025553517462273773 -0.002574674425362924
-0.07770628011306818 0.31209312993597016 -0.14532397957857912 -9.95481703090277E-4 0.28112893374138515 0.06159117582088787 -0.1541858551155424 0.24287442223426636 -0.1537766462380091 0.020671540827115732
-0.11614486710274402 0.12136303839660692 0.1627272190076891 -0.16675515854332973 0.22886154181126625 -0.13737459306417 -0.0033156691892024556 -0.1766134690090976 0.07230000319913109 0.0070902409538824126
-0.031126958449813565 0.13422855543631468 -0.18997314037850405 0.09668424552290555 -0.03409711041929092 0.035474525194013076 0.02799423020773158 -0.07139552104160526 0.01493256629625694 0.027220120383951222
0.010558452455838826 -0.2613858007686865 -0.02719658525132492 0.08203465935070656 -0.21161837220172028 0.034121700142739846 0.060721905174965736 -0.01171287436749045 0.03608428524578248 -0.03967920472265016
0.07930908206405807 0.06335507943555777 0.10838886461614942 -0.18695726635917131 -0.19222360368149718 -0.03054163343871099 0.07222758966395554 0.013269315886172887 0.003969747850512613 -0.1770077189547074
-0.09667238706437278 -0.0754564043062663 0.14717946663265555 -0.05710408880943951 0.051770244215058055 0.012044431394954798 7.286688540016452E-4 -0.11848741150823072 0.03682361011052626 0.04976595747610736
0.10395015284381104 -0.34132927257041795 0.11861321908652385 -0.038301660069702294 0.046766164702740795 -0.04494733377158172 -0.059855919858448646 -0.1898943015149717 0.009582179607350588 -0.008737243897571393
-0.045178153466693564 0.1073893079195296 -0.06620234390781633 -0.18658752633032333 0.05576249341027352 0.02012473784708078 -0.05398016515613754 0.2594533594301191 0.008074976118446108 0.10132417046434448
0.18611445881870023 -0.2758831501916675 -0.2586684828748731 -0.04476573488500755 0.006526521499688976 -0.11688685431849741 0.15968213471918805 -0.1396668854013115 0.09758070534214142 0.07655079366191658
0.021696582531412996 0.05928867639404667 -0.1350364877440207 -0.1437171719538534 -0.0071639361995224325 -0.07031056755429393 0.0693647724341289 0.021653794247716907 -0.12177262166521265 0.007406916490169451
-0.025185249075086628 0.14899997574263302 0.07581381494567772 -0.1700975291922498 0.07594757955542839 -0.12686008665017912 -0.2151786030149348 0.03798631309775203 -0.06961380190096848 -0.07232640221611125
0.21217043916911954 -0.2001202295944481 -0.008044244642228636 -0.09156723390931405 -0.17115689829482492 -0.18363838047527212 0.032633128744943056 0.03963518030555499 0.178334990249397 -0.14045212417237624
-0.2097519773615602 0.22317389278412128 -0.3264083890365336 -0.06566643298490824 0.03050358320251542 0.045317233596895115 -0.1466260957774293 0.11689627263447584 -0.17021123445984965 0.07349377386006938
-0.1712894248410908 0.21319650929984113 0.13685489311043023 -0.2621292612433337 0.11856181653348806 0.03873959311492836 0.04195118091172158 -0.07725067026107282 0.10382242729776492 -0.0710072601069588
-0.054702364381713935 0.06555518813937553 -0.23950245255165034 -0.2276466151121313 -0.1490552066107771 -0.10051111784419989 0.19859111563273693 0.12905555254024392 -0.011720265234412438 -0.13512508241120175
-0.02154191034571995 0.030140525055550933 0.11779841120146507 -0.17760721658056955 -0.0618340865133833 -0.11513141325877481 0.20689848397335842 -0.23873192727213827 -0.01297867577103965 -0.04523706988384239
-0.11998334439303082 0.12639243074690878 0.10137819719592431 0.09818186908316998 0.16871379612396972 0.03965815318601857 -0.08592769753429673 -0.17805123932670017 0.0010755399644414587 0.007373703249197133
0.04547701197683899 -0.053583611462054384 -0.15671470347941371 0.19528065223459945 -0.031281198818592634 -0.07595243466133056 -0.17747415416625145 0.0492888840654053 -0.09181190030503582 -0.06294095883408952
-0.1412559936074322 -0.07235867351061874 -0.05361646425105968 0.027456463462132187 -0.015709366761547494 -0.03949990164855025 -0.03769455590352665 -0.11580058261780328 0.12542333902991576 0.11778072546837162
-0.14416753386453385 0.04584831903319127 0.09696563857435764 0.026799337788768696 0.0048703782437561054 -0.056335286212538076 -0.13178320045751213 -0.0854578156508148 -0.04814361057950174 3.491614469356735E-5
0.06342935188736544 -0.046683058475588894 -0.18878697781146522 -0.011306292717587305 -0.10460555856328006 0.01135170034262001 -0.23674848320029207 0.14066656469767008 -0.043287609395641864 -0.04461836649323977
-0.08501891713471459 0.26571408090196286 -0.20218057834067693 -0.33280529263504205 -0.07071701843795201 0.06126750171332357 0.22027919075155825 -0.09489967670230455 0.04020019657714091 0.011502128778659089
-0.13886257049926867 0.14088807519363802 -0.376423998756276 -0.14608406148119682 0.18552342308056372 0.04232165024266336 0.08468839967277214 0.028955344097561352 -0.05136433317058902 0.046545443232137454
-0.04296898603468481 -0.09424518729889057 -0.01632208375277718 0.14771232207397805 -0.007930365163606488 0.04765904785940935 0.05266638255374588 -0.2238422296707264 0.08460157907330086 0.08215274205305104
0.10058038672382315 -0.153678139132914 -0.029945429977462728 0.10112346036452352 -0.0395462096436463 -0.07465535499127356 -0.03815357814510235 0.14149191488726134 -0.14518384622235017 -0.050966338152205894
0.035782546996231936 0.054670493307120364 0.026396091716266983 -0.10947182258625439 -0.38194891252312224 -0.07914776457137482 0.1762344050815024 -0.19425487596105195 0.05709673724539594 -0.16006096559450414
0.08164111315633393 -0.3217047016560558 -0.016339164311163137 -0.007447892724349638 0.04057631882163256 -0.002297919103704111 -0.13360623376023423 -0.2511856976315684 0.15047741101426138 0.1369207172388593
0.2575421317988935 -0.0824364650862114 -0.20545878064339793 -0.18918735806133796 -0.25119657210026924 0.08249120381752753 0.0026656717202589294 -0.13017969260238568 0.15001690502131615 0.09786603797228359
-0.17971108390748475 -0.09752990205783543 0.005176616430157398 -0.07221065276556651 0.04913677210720173 0.0837990520606007 -0.167895775181072 0.05666862478581356 -0.06021895665108904 0.16143468144914716
-0.17575945343717342 0.32452053941294656 -3.8251787315348395E-4 -0.1819236812952846 -0.08919985529162062 -0.13850457470692967 0.032304722703325926 0.316298638406438 -0.04867025481405262 -0.2192789446157962
0.07174579707203227 0.004178064442634486 -0.288957017668674 -0.2575933746754658 4.549166764412025E-4 -0.025088094510774223 0.09705686029708498 0.04090188265432617 0.10136896576392194 0.03684336944894847
-0.22075470063710936 0.2362506361682653 0.015957742141002627 -0.20898532798556038 0.33033412048699745 0.004978530764428647 -0.15621632842787422 -0.05843598629224002 0.07050894785453167 0.01694875080480192
-0.10650539526172265 -0.09895061261079706 0.13669258987672867 -0.15179290250290692 0.11910023392689542 0.012315877886387992 -0.1137242052533394 0.019011816997719564 0.06476465488839968 5.440039550391539E-4
-0.013368377539052059 -0.08524362330039627 -0.19004353195136028 -0.026672887561767732 -0.21665776157099145 0.04170263456364646 0.09650617287670019 0.07566160266941184 7.580247797866013E-4 0.05687867626483063
-0.03918461475043137 0.014108154982275719 -0.07299373792601582 0.02421293570221029 -0.04320696608041194 -0.07527731800246946 0.0939503836224058 0.07420330063927941 0.04858874195246183 -0.06479796561340102
-0.07450505525203839 -0.09807465731984824 -0.10699718340788784 -0.01299360834444067 0.0833421114131586 0.07531896147384178 -0.02731266825399524 -0.1378871007715279 -0.16831476765955058 0.14074848140289334
-0.23992371619392733 -0.14101033661425907 0.0708683261632499 -0.05983699545561906 -0.06001941697093173 0.06475157875922366 0.08628649485278425 -0.23150179388496395 -0.04809810918029796 0.31161092672289126
