-0.051764704800656244 0.001699167392532044 -0.07669474735381199 -0.08299149717520574 0.015697359820752568 0.012466142480003765 -0.059191715391515264 -0.06592466887059495 0.020618056652973026 -0.01860647009610252
-0.018473970578252313 0.05825216705126276 0.13775472044493023 0.07980526063375329 -0.04949272947658421 1.638911397593315E-4 -0.10100097355562625 0.03648635764657699 -0.018921102781502414 -0.1239962599263057
0.023508028772157224 -0.11183019717078335 0.1662661860691181 -0.04876974808531215 -0.12716420883576401 -0.17081917652169906 0.08886742244014592 -0.0833819915458917 0.1632617777004296 -0.1479627095758189
-0.07421718255621904 -0.1290237447529165 -0.07871257658468261 0.028263962264834647 0.05156651881068921 0.0625481902739038 0.03565781710753214 0.021803235488763863 0.05102586797983759 0.04378659281125208
0.03877382697638648 -0.015211795850379538 -0.08467385272739998 -0.04804419392082105 0.1208276882900417 0.09561817208131587 -0.201095164550206 0.28918569821063456 -0.158693127788272 -0.035577880279328934
-0.036641481617434725 -0.07586996105400828 0.14765686110668713 -0.03620173750174501 0.05242348204006853 -0.028012429315624216 0.04967458997106608 0.06296399537613018 -0.04367787766047073 -0.040963444567534715
0.023118565868221135 0.08312993986628336 -0.01912420090910604 -0.10884606679285619 -0.010943424311526638 0.02471033875289963 0.06941990689105798 0.07212853508266547 0.0023138515999666363 -0.14710208389881282
-0.21282335822448645 0.040369499637956975 0.051118277674314365 -0.009359268081996844 -0.07436950256833809 0.08859735605133642 0.09134980266276811 -0.05489575862132302 -0.13416560824867024 -4.180296857731995E-4
-0.12302445350912151 -0.09008401144702623 0.07814980241559114 0.045298458297842445 0.02433489350972823 0.08141936825923647 0.024893171845889274 0.1267137547419567 -0.12364291942914486 0.07011336169668012
0.00672572573015188 0.019680573586598648 0.008226972642375808 0.03241864116057345 -0.04951364361180186 0.04985111596392069 0.007884317567981322 0.06333667987759474 0.04336873414173336 -0.12203925312837564
-0.09921308692973695 -0.059682643000682656 -0.07716234548274147 0.04257169982194128 -0.054530484840225046 0.06015271537298903 -0.03905454719100358 -0.21896926871526629 -0.06886921243303548 0.0022615310013229663
-0.07436096133179941 0.09143834910529923 -0.050312220199449344 0.04220983318276311 0.019407573396675037 0.02821341715025228 0.05527202254142362 -0.19191756036685997 0.09169365191848046 0.07105093140174698
0.07479943577400974 0.053761686878178665 9.053797330696605E-4 -0.005716345372648595 0.04467770753970994 0.05087787470985041 0.005620270837855577 0.31157636267386235 -0.13002650999438503 -0.16973344603736146
-0.07965014129406514 -0.05060441925490283 0.061908089583404886 -0.009558231333731362 -0.19197811069924187 0.04117707493637197 -0.017901709981798793 -0.25014020142687865 0.013654111574864354 0.018972702595985918
-0.047326049326914164 -0.05296982162740842 -0.06510088047764105 0.07505921955499863 -0.05974571058435411 -0.05054803726504253 0.007055752040787568 -0.07163819392910527 0.07841340627345081 -0.10120831057634846
0.08424019363867835 -0.06815193515624082 -0.14181754308138836 0.06599289677057872 0.05336781906410225 -0.053361313438666576 -6.218713606798246E-5 0.015291343931005476 -0.08142482483006074 0.030343159280894403
0.11860261721944955 -0.07114153377285967 -0.17197208310124468 -0.044823121523312644 0.1184550571299009 -0.03187369093862662 -0.07979686398720809 0.24085809652854379 -0.04194694294491848 -0.04059652652816345
-0.04912727825841073 0.011834288713623761 0.05221245465641516 -0.050923593481558796 -0.12925553029777748 0.07763894439615036 0.019095793901121913 -0.20756766296241083 0.08940661933417073 0.029107822489788993
-0.040323326076250485 0.15890834562618242 0.1872617594033378 -0.17986667573932966 0.17952699111667464 -0.10488405993150132 -0.0639467814390688 0.06936710743563522 -0.0024728181165217847 -0.18932534753480887
0.03495752615609568 -0.038783284964284216 0.04615861059781855 -0.1184701089690545 0.15140429535727434 0.013316052938542116 -0.02008704504414877 -0.08597179889362772 0.06394725913865539 0.08338745226185823
-0.048959356670135616 -0.035229254564712625 6.062469704660307E-4 -0.08893305877150358 -0.14740696536305342 -0.006085787917763638 -0.0684543853579709 -0.16413423144347505 0.10404077951121897 0.05341187295472024
-0.005343507453634807 0.23510827814434093 -0.060958051500734606 0.0054218559110855175 -0.024610871382617028 0.06146320580752214 -0.019747316838272053 0.15844423509761427 0.00890583171925688 -0.16121449557172024
-0.024090442990526945 -0.010573722136795867 -0.12414209227968281 0.05441796240392405 -0.08876988185808604 0.009110065573476916 0.02682246964090458 0.07732180603572568 0.0375165216926608 -0.007409841869670732
0.008907465210929564 0.04827829647099739 -0.1105221487733632 0.09713376191706706 -0.05018157900056153 -0.0075760314165503875 8.843141066836983E-4 0.08404506607947865 -0.04593247170106567 -0.056204039569536304
0.022363688511548147 -0.1918456907227363 0.01610512694835489 -0.01668459047417251 -0.14498919371189326 0.06247340871173558 0.09211501902063447 -0.22095231275133098 -0.087502719540738 0.09853833486312612
-0.06254603472088485 -0.05940521288006614 9.704851631412038E-4 0.049321544288964535 0.056812209285740115 0.038370755688552846 -0.03190246423462674 0.15219521322097448 1.3984374184739613E-4 -0.06409049846124011
0.15537668783973527 0.13072544740026168 -0.15293408963631203 -0.2854726510578114 -0.07275806948069105 -0.005704920731315881 -0.027547030462528106 -0.1023347645400717 0.05843043029713495 0.06481243967096015
-0.008306124613238406 -0.1462427715812205 -0.1018116455667483 -0.14876263966935913 -0.10694669130135416 0.1371805646887495 0.1356206999144734 0.008778391088897322 0.00618109748055047 -0.010086572106724688
0.03286524255306704 0.14373748089522384 -0.14748173374651477 -0.022818381998594477 0.18420822180214352 0.03935218386336924 -0.13446691356178378 0.17627809975236153 0.040084322750132045 -0.09268858355103896
-0.013666625115786783 0.08639350852780786 -0.003298810420298646 0.13000970288143524 -0.010815185974583714 -0.034151316694325216 -0.06803590535411914 -0.08944722069425769 0.044295407677209395 -0.06702986517108143
-0.037385385849862736 -0.11050454775388166 -0.0673207711186488 0.028585055209879494 -0.05245001199168585 0.009456217543750877 0.05309701798763601 -0.057571282740592665 -0.030045823215912704 0.11357139631003821
0.008784546593122713 0.0746444429076716 -0.14951003977344793 0.05605217077390882 -0.039525111891609344 0.12650731739836116 0.04643673804183332 0.1094126041505823 -0.09503357588225154 0.011918168376783939
-0.12580900482518118 0.158623519003899 -0.0578685993925322 -0.15963503047844027 -0.026154368660060434 0.06555153666754786 0.09159170863555059 -0.04622600391485992 0.04618011230436159 0.12790067326678115
-0.005059909560693677 0.01806182324761075 -0.028135969736609256 0.0874650522758783 0.1210173156689756 -0.09599965924981117 -0.10946762260737336 0.08193553487345247 -0.10485332743353792 0.023270335726284244
0.01274153833202249 -0.08094962410438504 0.03920740613431792 -0.06221749363600009 0.01183048986856037 -0.10068979967902214 0.006120644019558336 -1.8998986568171636E-4 0.036136697440124106 0.02683977742129887
-0.031046959411920073 -0.11697891993804051 7.878868688731812E-4 -0.19009236993964132 0.0477558144324876 -0.0907657735335981 0.05713109148774741 -0.056527854684960466 0.09982572521289096 0.06352592511338105
0.028956791399425426 0.05726992052987887 -0.14986655901974158 -0.02192127473509787 -0.04018771770880191 0.14055662722906798 -0.027203350066880745 0.07309436318354294 -0.1693922758853603 0.03463790129286552
0.00870155990602526 -0.06461289521534194 -0.05096930942673875 0.15095321606360898 -0.10037261265256524 0.008815090405339322 -0.054674656075764556 0.15859939556011324 -0.09116128162500965 -0.03075207062069903
0.019843238212162634 0.008011385106677269 -0.14726182628679016 -0.14275969939033184 0.27288928552745 -0.10259322378733325 -0.011449093949171032 0.1013586523659729 -0.05486325865023281 0.09609816508159688
0.017105246677665713 -0.014557592154237914 -0.05022416727698629 -0.12691225080683735 0.2882854286656849 0.0516164646721141 -0.1431021980542604 0.055413528848951926 -0.0015678498430120175 0.06745833087746078
0.11359819473610222 -0.1708150962189975 -0.1736231383017336 0.02279175739144799 -0.04728769826481415 -0.08419160386426573 -3.6922008764735136E-5 0.02659010598897965 -0.019457614615006714 -0.05228945340568826
-0.05217005798597366 0.18197523406630944 -0.044403643971640205 -0.18727876844454616 0.08356064155930745 -0.042446023302367304 -0.07483578550191258 -0.020968029095919997 0.06739068819295706 0.06734388830439858
0.06230261221788753 -0.07065849791832225 -0.08948425958483491 0.03153365017600223 -0.05516762860128618 -0.01550363337694114 0.10665115910811253 -0.026015942535846603 -0.08177750009895268 -0.01600160256691906
-0.07471072909122713 -0.08518875424439856 -3.970575852879106E-4 0.09978637707192206 -0.21587051012415043 0.06795228631077378 0.02701346865236081 -0.21690273103603047 -0.025177183836422187 0.03965005227056983
-0.06139855839512268 -0.019974518562774626 0.15286266617155686 0.061542182933108196 -0.19020858631066753 -0.044164950618246344 -0.051014059629825165 -0.12050905070454278 0.05852701839485026 -0.0738267494945613
0.06804397737405235 -0.08137253169701388 -0.04503236914981131 0.007630429737365197 0.15863191229232737 -0.12794722225040206 -0.1447579884425497 0.11287905597765344 0.06323991056105259 -0.11309300385343429
-0.09176732934858757 0.0992349718739924 -0.06325775429546507 -0.10437583542399609 -0.08589859653221063 0.054619433241689413 0.08748942760022103 -0.07136276396566654 0.0728898790237948 0.007039394769594174
-0.1577932796141953 -0.0018481767396714434 0.05712989009540551 -0.08131006245291746 0.041117249002172576 -0.005254438793239486 0.011313615069650841 0.007616996863267233 0.0567026416468614 0.024588117915686703
0.0433057797423402 0.0597867748512162 -0.07967612088948818 -0.12134605228219185 0.09464348575846142 0.03478992857222759 0.0673325503826491 0.1549946358391786 0.06428996440604871 -0.08210475910763591
0.03613979698734071 -0.10500856826064131 -0.04729350411287079 0.04072290821909633 0.017311458288519512 -0.09891668343486873 -0.039876338088077196 -0.09875460155598553 0.007549072309070741 -0.06481852584811704
-0.05327512518923091 0.14890507089204316 -0.08656190413363825 -0.1690420571004933 0.03489282203442441 -0.03220058702489425 0.015880690873473043 0.2848219646357269 0.025806580555655257 0.0385787248994046
0.00419172602997821 0.04426320709876252 0.09042834024580532 -0.1633182414873178 -0.08244845627462205 -0.010729993638037047 0.010392177975579968 0.06886916164327944 0.007331329703862852 -0.015245638455836643
-0.05939827654342035 -0.005119341416109386 -0.003207183491824064 0.14559355081145664 0.04836238536970454 0.009770062673918289 -0.09867749422819443 0.05344726964987664 -0.06149206530641752 0.023116870731919936
-0.018090804509796492 -0.06740347231362162 -0.09820918457643239 -0.07924517193474252 0.18443633795515824 -0.04282565106740106 -0.020767883785030878 0.07721973877307754 0.035391291700850196 0.12239628144771686
-0.006225271258011776 0.16597870583259594 -0.16453581507695023 -0.019776846998034888 0.1874976698020984 -0.04475653763196253 -0.03525411739818489 0.06499769959972922 -0.015276544583254234 -0.014330984522672088
0.01699678471197828 -0.14723729412738226 -0.13182193071797074 1.9450208648792526E-4 -0.2532047355223392 0.019776432939830255 -0.09430200801427842 0.0374231024126769 -0.003521838867729441 0.0014596987120347915
0.07733402604295603 -0.07499585023733646 0.032494731747399745 -0.15018693807604427 -0.0038185294700128184 -0.09051646914350535 -0.10350862505232539 -0.016372700523187674 0.04226020745091024 -0.14317006931263876
-0.06173515935048417 -0.08359920811939768 0.0977466260367957 0.09427456464546849 -0.10183159110630297 0.007492783314685848 -0.015710105303798686 0.035561548409485735 -0.04055053898532929 -0.1570132546832583
0.048049360217457274 0.004801729577824262 -0.08482120483715225 0.06710568811785561 -0.0026328028547351287 -0.04255378706288243 -0.08041405428359114 -0.015186753608207025 0.0345341305715834 0.09350299559238268
0.004749339716436503 -0.12066495466139794 0.21000586860202697 0.008685904321131614 -0.16607234730983111 -0.15180608646499977 -0.03351743227391886 -0.14816297409563547 -0.020440719042730298 -0.051241122643593616
-0.12586882358045248 -0.19602292232390042 0.01680847514201716 -0.07586867085665272 0.15218781149300112 -0.1194857460829722 -0.07825482156192475 -0.166948181821968 -0.0039052531095340962 0.0388942119322464
0.023174814154294624 0.061417356714502075 -0.04776238735766187 -0.16118052440700936 0.06311973315051095 -0.004414502627276742 0.09662487189801215 -0.07423174902904106 -0.05458578796848099 -0.016869843604246114
-0.13169162278351423 -0.10667239538142896 0.0749833944694878 0.16962951128123246 0.18231489711442614 0.021514084001896645 -0.10780232148880653 0.10810695923226318 -0.024612364704218383 -0.049185713336730316
-0.013847224076870335 0.01909112637646026 -0.030348615759809832 -0.200724940762322 -0.013548698315622136 0.03955118404228551 0.05452637284173789 -0.26540956325314713 -0.11264370851973711 0.16750957798242663
-0.026668157014643496 0.05212888408754119 0.10360193712268949 0.013163931073234172 -0.13824823386550222 -0.08355892212734438 -0.11509543321133738 -0.03910679134220002 -0.07774992851148993 -0.04875877459467507
-0.01879840427321508 0.0596245609633479 -0.1425192557823741 -0.20234297875565987 -0.04112218845406419 0.13360635699411802 0.06157484930671332 0.02851203997311737 0.046926568586536876 0.015647269844919272
0.07391302406516473 -0.08611644882384704 -0.09714246677757336 -0.12964436211339678 -0.10792318708103671 0.06143817757968125 0.07828570253022843 0.08443871909045489 -0.10403491532777479 -0.029541714935051522
-0.04075232591557804 -0.2228109669369487 0.1068088538087665 -0.11711093223858778 0.005551859338756176 0.04880338457219113 0.06574139145598823 0.023328555425557902 0.07669317829997783 -0.04806724812392487
0.12828837925847178 0.08531210010060494 -0.17537771408906103 -0.03817229664333609 0.15065861602344896 -0.06314644654018912 -0.005306806147909979 0.004703579348084796 0.02099195916726203 -0.059383057765256736
0.006346621214537058 0.040662268958122326 -0.032692161838851756 -0.08621318602531275 0.2017650197107294 -0.09844182219691582 -0.09494686924705942 0.04461519285530791 -0.0688095614356401 0.06823584558486855
0.028752346960286338 -0.05356795402071154 0.05710217978301392 -0.07079852337841135 0.002661561501905845 -0.029299498454629008 0.03432063947786445 -0.19072715639461058 0.07723255509170081 -0.01676544433090565
0.07724450734227684 -0.0033165246263843744 0.020236150948998725 -0.03821350675697552 -0.13524671192416285 -0.030971856382348773 -0.002835859079079965 -0.07384386645944531 0.05417067944686998 -0.16114115053790556
-0.013690036787813317 -0.10098435819419152 0.0401039430526635 0.23460870056041364 -0.06452835441033236 -0.14667173278767234 -0.1681577761123873 0.1712899619123678 0.04270947197840531 -0.08704689587224299
-0.08349873830605888 -0.028372680244541135 0.07538971474467115 -0.05298671815935891 0.12786931886542946 0.06706649809638167 -0.1314568419969864 0.07471663211323804 -0.12220690312224303 -0.03602401063979379
-0.016463957402427596 0.11277619441549222 -0.0025140453574118682 -0.05202224378610001 -0.13064650712429968 -0.07785554074661355 -0.04883504538329288 0.004872756540548315 -0.09120219525930702 -0.09529805475159224
0.12411679051098526 -0.16769439956763682 0.008414389706056328 -0.16903895016808013 -0.0387998980646685 -0.10199290336475847 0.025522313978069828 -0.015339589027300425 -0.01320083830661613 0.01748163784757916
-0.09782741888684783 0.11601028059835337 -0.11320218797547822 0.08171976593765859 0.02485512609254611 0.1354016847770285 0.03401473254019508 -0.11757077922415123 -0.14399528877464837 -0.044581439967709344
-0.018897513645275286 -0.14653981521101728 0.05109932970525483 0.026921534661007385 -0.035538183052870514 0.03087001187856312 0.03168419354476663 -0.11750248579668728 -0.05299500010290225 -0.0856591686620815
0.04426080573278257 -0.15878646291397025 -0.10125770110699016 -0.12058936892496659 -0.006120956411693776 0.036663479593627854 0.11835889294231236 -0.08961281253692646 -0.03305648061913519 0.018345403674769833
-0.03454648834164409 0.05709667994390465 -0.006585401896127329 -0.04330891350095095 0.16975652021054402 0.007807900309692322 -0.14208029407843764 0.04233063233879412 -0.055646812170732494 0.024047371368835713
0.015885876140471412 -0.012501349029875618 -0.14020832249022536 -0.0644647864451615 0.1272062630042064 -0.05478836477532165 -0.05255366284190492 0.058859831107226514 0.10965482324525591 -0.11937674248262849
-0.005611241837380114 -0.13018171036356593 -0.08497140420911539 0.12877717901209312 0.12749006935019333 0.03957640038631189 -0.13620716839866664 0.025535719493179964 -0.09371075482483267 0.07392512828460512
0.1271773966551208 -0.18457698853254498 -0.04552567263748111 -0.15601658698251858 -0.13663457392817965 -0.05479153198474448 0.09233382283764908 -0.08011922073533048 -0.05198324288442155 0.019297904376294747
0.07532725429168234 0.08408271743230712 0.047152189111033964 -0.18184812168570794 0.16685560096089927 -0.03970989667457591 -0.007836663713512111 0.20450100536878685 -0.10103537467450732 -0.12487991189294385
-0.04290097988291892 -0.012418165664607664 0.0959769839619034 -0.09340392919365734 -0.032116677598089685 0.013092538072023948 0.02474462341645656 0.17732685249820848 -0.051145000162452305 -0.062010943419110766
-0.0024468541070253734 -0.21937298892512486 -0.04087928265681966 -0.0817574209776636 -0.003288515125764189 -0.10234555296661312 0.03446744853274316 -0.1608154835023003 0.030520441264610343 0.0959651776355935
0.05744990891813292 0.004265420966888229 -0.09591404241253265 -0.1806614430638461 0.08091210628713962 -0.0642712880350289 -0.018180081020330946 -0.13186073427384756 0.08004752954762315 -0.009089285797443902
-0.07159365242625755 0.050826155133177786 -0.043167564080290856 0.008294331062259706 -0.04346896069275676 0.024497506420948903 0.05817086019545339 -0.14783261447506857 -0.0780175768208818 -0.04235268953811827
-0.1034620774673151 0.028887208524878263 -0.08229072551476119 -0.13748284112582776 0.14705949888154177 0.09586869879207442 0.013769203960207603 -0.1530132004669478 -0.021523103212173142 0.10161738137878595
-0.049724381343206864 -0.008908610327768166 -0.04566481129677012 0.1254675543903884 -0.16277428315159645 0.003939949670023663 -0.023109596308957873 0.011015938150118318 -0.034612859724987725 -0.08093394924541292
-0.0300018929611715 0.2283921466131308 0.00972941520641074 0.017449719555209735 0.07595752986669425 -0.03004669206012095 -0.08123378428723291 0.12667588222047663 0.03059897754512737 0.08512999890886006
-0.13802929966033145 0.07599897386593589 0.09623689419059481 -0.14525413062193898 0.20474410422963435 -0.06147050553173243 -0.041207392114161856 -0.04905249581768636 -0.10426676484725488 0.057845931047653655
-0.12973170934427633 -0.07470792682262833 0.15542360245677395 -0.02633699884776535 0.15909433456053895 -0.1755511982713209 0.08950280713350402 -0.11726985931654636 0.05282271089383792 -0.08491180331356266
-0.04285144606886104 -0.0019551455710197434 -0.18472937592211247 -0.027673850984251326 0.02070882672197081 0.09225859190772823 0.08195759871057802 0.012757369096712042 -0.030706893313841875 0.11736621949541959
-0.014811997755417111 -0.11436732496299287 0.21660316142278382 0.04478045587535986 -0.004618356691525222 -0.15096162818971096 0.03334274467922129 -0.18754840430702271 0.09660258744759839 -0.1562742815835703
-0.11938082418800618 0.009697107321486927 0.11108259137763672 -0.02770298807022316 -0.14131797424535916 0.03091239864386746 0.1310996929450601 -0.12110059371942963 -0.0606589399156936 0.07260850555839667
-0.11457759960653223 -0.06191449715358373 -0.0408409890175154 0.019074106072190667 -0.02837566093216698 -0.044520761706673184 -0.1326610876224287 0.021739073704978778 -0.12133995026716674 0.13742171654758734
0.05083881946947556 0.015083037623240772 -0.008791670162159865 -0.005304750207358522 -0.12301223409450474 -0.10875479629729504 0.09623090735012269 -0.005391605617100689 -0.026535771231273247 -0.0275594102093854
-0.13619988201099859 0.020579603821427556 -0.03980723839581897 -0.019737449973660223 0.09047144981319677 0.010882398971138891 0.03159759757574893 -0.10516116609710588 -0.00811517674391119 0.010902854078009802
-0.10458153796309165 0.06079104706431058 1.1186519984025047E-4 0.03913129770191734 0.0374032559703616 0.08518920874754296 0.0588166228342281 -0.14004985015786692 0.06055085571639426 -0.12591156992632224
-0.08428535096241302 -0.1389177683501597 0.06750630256238123 0.04488299537388366 0.020443726204321628 -0.0432526001350244 0.0338088458685296 0.00991779686498432 0.017136665431702315 -0.10221903427615793
0.025798404881804474 -0.13297689306721858 0.11411422768605373 -0.0684128385198297 -0.08707598907642612 -0.01565482433887717 -0.014114203878221286 -0.036483469009005995 0.025389424075930103 -0.05627156255904513
-0.06293912954647823 0.21690221292344325 -0.197286546458783 -0.18143132175522914 0.19646943333248823 0.14672516837637953 -0.006654335355042221 -0.0011709817026960348 -0.09113929949666914 0.17163068786498017
-0.06464247191631481 0.06519027814232561 0.0916500544064866 0.10958685712373964 -0.18937559826069977 0.042686690076900645 -0.11102808491322964 0.030980045186907477 -0.15824774526986288 0.020288347288278975
0.045627612293379985 0.016159345144839743 0.01380834094220908 -0.042910248942348066 -0.0617356631483831 -0.01291142728655836 -0.05254427176951169 -0.09625211800683134 0.04479919586719065 -0.12902387582011102
0.06235896096209932 -0.1674691963233814 -0.09582193010381271 -0.10316184020263655 -0.1094101630655379 -0.1224974517121941 0.11731352856066239 -0.10508318562671924 0.05480188227183514 -0.10456573568984676
0.06878728132416974 0.0473194159790134 -0.03887636890975913 0.07533845241137721 -0.10844279317376992 0.024834635993817376 -0.10284401484101004 -0.034155027524689865 0.041341942449183974 0.003349545595601069
0.1287361118135735 0.01021637252833314 -0.12787419448849727 0.048065342824979485 -0.004071775141722108 -0.16672100637688528 -0.08886322305583642 0.04800159163666678 0.037308005828167304 -0.021034567373567997
-0.007593253633201899 -0.008803411887470365 0.2112622475098004 0.024591352728556663 -0.1516939555573855 -0.1782885649579331 0.12709399181037945 -0.13602781122395757 0.006479282871772295 -0.17707650927584762
-0.10815403525370926 -0.028039524154908495 0.020597483149367535 0.15585487141758844 0.028839443042998122 0.01685755651583966 -0.13866844818671248 -0.011130970076575626 0.07054176398791592 0.049852328278549886
-0.07793943860155364 0.12767601124627093 -0.1745924872739826 0.07376572646220352 -0.06581143881065943 0.12872466824109 0.04835794214545689 -0.0274515897236328 -0.1236319953518132 0.024808767473002077
-0.05608251213266735 0.09231085502473413 0.2787273648759421 0.011379886448604878 -0.1194369242429781 -0.21697790952885646 0.045711062386032404 -0.10183452159667275 0.09042549813419291 -0.2391994650797582
-0.003767119846291614 0.03948038699900773 0.02044660672905732 -0.2230391104527734 0.19936906389786113 -0.03169316109664516 -0.02472549141644206 0.15131693342175398 0.03652843627274819 0.017647460073600053
0.07021088908663316 0.09920141046043959 0.013623538704594896 -0.13982481329397786 -0.04907327115447718 -0.0846426379651579 -0.08028188108096619 -0.09381746111153681 0.013985898623496931 -0.056518410254712145
0.018136008749118325 0.06426671590671057 -0.22614063465545445 0.10136892877279573 0.15290837139646526 0.11808160105492128 -0.06258359267226875 0.15755625725624323 -0.1182619120647432 0.022393466859932147
0.16829061784030075 -0.05297582821786599 0.006346392333935024 -0.10671500197815936 0.08250934397189391 -0.0741050248414645 -0.03035527162290948 0.008653746132506118 0.08656257361003845 -0.158479239330152
0.002024251099011614 -0.0700972494277368 -0.12737194773987112 -0.07384362739410605 -0.14122743497122167 0.06197205913383833 0.0900955344469398 -0.02908793993335987 -0.10101529048728893 0.11625541663081555
-0.0101653176052002 -0.1036802217763886 -0.09185839980450546 -0.10589947020944042 0.11224668516604214 0.05480572351127318 -0.14070959097626654 0.10221656041727245 0.0703703268109937 0.10489226688991915
-0.03622501937396843 0.1671481737123837 0.00772057399705799 -0.08385170426900644 -0.12449245583837383 -0.018877879187331876 -0.014593629092347942 0.09235204820693353 -0.03204597939320255 -0.1793201474584259
-0.16307096695684645 -0.06499893632205153 -0.011297289608183745 -0.012009146719603658 0.05837280761642093 -0.03208033173466669 -0.03476303236732268 -0.14652959729301543 -0.07211417227039817 0.05698681884191028
0.021645782578218545 -0.12303226693973608 -0.026413968699542847 -0.11713697782797104 0.1571312309635321 -0.17162659173796863 -0.06455370283997515 -0.14914482010270555 0.08804996495487191 -0.05828325849730024
-0.03722447092400382 -0.013862949546879139 0.05754724038103468 -0.03770215863737162 -0.02598512799289046 -0.08643663796125617 0.08322517164444798 -0.12973217463316647 -0.05015972092019977 0.09879484475527227
-0.05355940808167326 0.17209734850332356 0.16497165200825228 0.03927617010240329 0.028948948830729692 0.05267277614627413 -0.1540141935936389 0.1777036297225599 -0.056923244223406305 -0.13755452363560358
0.045190766140305184 -0.0019503507625534147 -0.028923441638509996 -0.20248658973073258 -0.08473665661670897 0.05676611801875931 0.0252983672023578 -0.11182750053400047 0.042413972087249056 0.06123255111161346
-0.093237033973174 0.039699433423511524 -0.08820153995312786 0.09978266386646834 -0.06617667998648644 -0.021506265923379765 -0.024110610403031984 -0.025015794449262066 0.04263668599794555 0.043180597794805625
-0.11287176741816168 -0.04090216154353572 0.08870631689975865 0.033228102436489715 -0.22140502077980068 -0.005492170601734654 0.0027272922898795944 -0.1394706031017159 0.09226020431566605 0.03418578029038684
0.022639412219646257 -0.10956388619345009 0.09197745947488298 -0.03814892307111441 -0.035986325570849055 -0.14244033783824203 -0.013809906146708588 0.12077391125068099 0.03199560809665799 0.0028218112995756412
0.12450225107712891 -0.05481931624525516 0.0760719067625819 -0.11347322501973248 0.11861019386995039 -0.16975484848190436 0.03251769653768172 0.11654489296481264 0.1092072424314497 -0.1922619523091984
0.06943900145948179 0.10235129183755723 -0.22795597820561758 0.010636750527781978 0.02845555858375295 0.17626889717225133 -0.05661187644516493 0.2942067600784351 -0.20640701555889807 0.03881552746860252
0.00854331386014406 -0.03378014452600028 -0.028650908702017818 0.130058705555902 0.04978690612031677 -0.08538504095701849 -0.00966605930256991 0.0445121243099081 -0.026523984930310232 -0.15058022380260222
-0.11062883359435931 -0.09842978859018679 -0.10613361932018471 -0.04831236029776885 -0.04583020843111448 -0.030734448843946497 -0.06427005402716546 0.16577341657696804 -0.055517077069272294 -0.019426610212267662
-0.036493826005896776 -0.07803195647348524 0.08880598324320427 0.06701962860603586 -0.2381492301262005 -0.01481180938832832 -0.0823438385230174 0.015406653155146652 0.038047018215007604 0.08882529111467906
-0.010821851269983342 0.029342723394225136 0.015887334665482006 -0.019874675543073844 0.04147312692712118 0.046669563190489295 -0.08199340875452975 0.03238416451377321 0.018714821509601087 0.08031975049413001
0.006098702044853516 -0.09056826666398887 -0.09219249004807589 -0.03126601975515803 -0.08635896449070439 0.07575409910630364 0.002401227365958512 -0.19499846801754364 -0.056590846470484873 0.07906408682431834
-0.016553428019733234 0.03616272742635129 0.09473531775184539 -0.06366836809436766 6.529684729865805E-4 -0.13812361492086409 -0.120825903196591 -0.07083548254267494 0.07325022679376879 -0.09489920337618615
0.016024192262118063 -0.0705667761689287 -0.04534709509602381 0.06568147221674682 -0.040855085524751825 -0.02630543421948998 -0.08746876817885348 -0.16902544172135828 0.012886157092381374 0.09002211459016639
-0.09970038445354004 0.12334137530347719 0.10877412009277636 -0.22179983302395584 -0.005809954015470254 0.029497552112007903 0.0967512241024958 0.03416525390184466 0.016495142710641824 0.025938182228959633
-0.06763044725397455 0.0964416033929747 -0.0718596827109738 0.2506006799256943 -0.01607868254174892 0.059624164423322044 -0.14917957667019474 0.15718087008275178 -0.007485166523198321 -0.019576749626107035
-0.09906432230612928 0.02096669915977907 0.023281948225810756 -0.07364307297165956 -0.05051582456820555 0.08677739391810149 -0.01873056985471003 -0.17896831578295297 -0.0986583184957641 -0.005583442402308578
-0.04444405866301844 -0.06680990663617985 -0.02194258593369238 0.09327349998285754 -0.13026769069290492 -0.14085687898441684 0.09036366220773293 0.015003010550986443 0.07558489438671318 -0.1411259241072138
-0.12407634708701233 0.05936451939902232 0.028676363394535304 0.07405576510265474 0.1549879206821529 0.0871735784320648 -0.007283643938094903 0.1600820974972112 -0.13331542255147444 0.04155209806972276
-0.04983908052509997 -0.04749211867709664 -0.06737685931585402 0.1326405962932614 0.015509087807795112 0.12228798944592337 -0.0790805797638749 0.05503096676847286 -0.11718310402488374 -0.0035605516082860824
0.17899956770150457 0.11277536978631493 0.01167082909928984 -0.08000768428298381 -0.08115271092809834 -0.054695850891338785 -0.07106857440890925 0.26337643133098987 -0.040408221247903144 -0.13991791411641502
0.03566956582724833 0.17187879565395178 -0.004158549496036277 -0.093602638870403 0.012133792930861108 -0.07259965987117811 0.0030676057229460417 0.1410772492824842 -0.015122664700194535 0.05006710624244267
-0.07942987441676508 0.05928648922931233 -0.058620207230802086 -0.012481476648514202 0.1593280048982325 -0.07461525772408102 -0.10817951847302675 -0.11471797241469069 0.05077527319359466 -0.061389124971712436
-0.1537777790017523 0.1065944327797729 0.1430376181072307 0.023598906122754615 0.14892149090423593 -0.07133802802650598 -0.12958803281202522 0.025088631585833326 -0.044374890520497624 -0.08332711959288751
-0.06216654887234674 -0.059214179792139804 -0.17085846634833554 0.10526275168310338 0.07221662577897903 0.03673440029063865 -0.11027547775085483 0.1447424286209588 -0.13094583967458012 -0.009842023261466024
-0.058826137940875003 -0.09523659203625294 0.16373296878095345 0.08196046199457345 0.1115452992806346 0.017543016684042068 -0.10264395418877405 -0.0382383557827541 0.10602883366095814 0.016693071223355054
-0.08368408440883152 -0.06282503305969234 0.09937465387372134 -0.06950433296365055 -0.08324031096437653 -0.05548733995137239 -0.057460088913137704 0.05443340795061924 -0.058741521679672 0.01197275359882649
-0.08558840134721961 9.128057760775326E-4 0.03175258142505362 0.1269713164601587 -0.21614500255221902 0.02587434036158415 0.15320400474873194 -0.11812494687862879 0.03527178722475476 -0.08405034648940331
-0.03848781682348487 -0.1441831923298699 -0.06327728704359753 -0.03709253170550436 -0.18211041970809894 0.041236695174795154 0.030651936992937664 0.02901684938513579 0.006981853905020441 -0.05707287437722955
0.06752253172835233 0.07232817321613502 -0.12854851072006332 -0.06707342248002741 -0.08144953365249492 0.03705018316233693 -0.09356009170507248 0.024662700141235033 -0.0558446585574197 0.027295618841610202
-0.051639287945579454 -0.060357128977033346 0.11978070556076456 0.10133980168061207 0.014758534068873036 -0.034281839898476885 -0.12583449881498993 0.060504965998948855 -0.012851537168414313 -0.17303866892459582
0.08410137320138324 0.16203701526144015 -0.12854412492092204 -0.07233796977688138 -0.21003837893856717 0.018297291798952106 0.0852050822506535 0.11577115278351562 -0.11471811833874335 0.04017920353385062
-0.09442661753857434 0.04381622234037446 -0.11059955879856873 -0.05551609822994036 0.17794381608173376 0.04406957622815219 -0.0013432549221746777 -0.05178561335270811 -0.12824118049023567 -0.046143666352301535
0.013298797109100936 -0.12255470942308569 -0.005219723754692914 0.03621542223469551 -0.05188015719387089 -0.03521646502797647 0.1502341080692063 -0.11202082370635762 0.11933781757756702 -0.043513710806124414
-0.022038658717324168 0.006954125485760908 0.10632182595362394 0.1682617041532605 -0.2547460654140753 -0.042654694732085184 -0.08132736661929205 -0.0017744030225035525 -0.1268952276065071 -0.12103138157650054
-0.03787910972843584 -0.08613562380399716 0.07829744650896464 -0.16114120517408134 0.0194763212632699 0.06274874601841447 0.05834851083377976 -0.17186882916737908 0.07846837173126305 0.08761803877615784
-0.047439145458470694 0.13327398948521782 0.06467202912349661 0.1371202013877868 -0.15017870547289983 -0.03110682895662261 0.05508549783272998 0.2855323236486797 -0.14344187244013815 -0.08172955283824494
-0.14587936759312048 -0.013605181504871852 0.030358131586454985 0.17706559913703301 0.12277198743128503 -0.02056731841034004 -0.13624054589533754 0.15018071215394804 -0.10717880034572361 -0.015441598060348501
-0.048642299030655006 -0.18538965255610845 0.04520181054749329 0.005065683782134053 0.03741344989528786 0.0739333139038811 0.07815081018420413 -0.011780088638647788 -0.008183354564851157 0.020720351505237374
0.0036961224880921496 -0.08498100894358071 0.02699731354133001 0.05591943945914613 -0.12541610971110467 0.06849234731775215 0.1192124366435367 -0.030681148882186836 -0.12164396101133393 0.12441473121428663
-0.07639796685099358 0.16330276559332157 0.010944697721171997 -0.03913227368480434 0.057252518930891366 -0.10655918742462632 -0.035967431779081925 -0.03879784443548201 0.04441336152912268 -0.08301160408439708
-0.04446596861681618 0.1682349085925651 -0.14251811657986482 0.16486100938303064 -0.09544917385105944 0.07073808734907074 0.007701278392613389 0.2353412688096716 -0.11791959384712397 -5.208608585222196E-4
-0.07494963723556598 -0.14835861461114036 0.1511903639255848 0.10631880021596246 -0.0035723931512771866 -0.17346536348309888 -0.06141647060053887 -0.06011960273040838 -0.012784367586031754 -0.009653397443194753
0.01479591019883319 -0.017304073874489716 -0.029714736675423174 0.08108078438197051 -0.034139533544593426 0.07031773621173854 -0.011758443717856715 -0.1112480830252101 -0.10998864678324129 0.038178274401980204
-0.11902566714906929 0.12305972077557473 0.1861368704267516 0.09419913719796526 -0.12256368034249475 -0.13507091077240171 0.053531474010219765 -0.045029332945879234 0.045568081189479796 -0.15120099650820545
0.003750410248740331 0.02016315305773443 0.004213822616632106 -0.1330475244974377 -0.11822103516737291 0.11071953023753796 0.08717824433863762 0.050885209871596636 -0.0777330219469479 -0.03704453795626398
0.01999977414208596 -0.1403320398593996 0.12124897696138745 -0.06779624471624053 -0.32867797541628363 -0.018907495671987625 0.09246743414567586 -0.11843021394262515 0.1092039313035034 -0.07854355315975708
-0.13751849114161313 -0.06376195634943482 0.16409591075608668 0.12235578368933843 0.03891496022911401 -0.10672965123760011 -0.046261127340857085 0.11153694016098659 -0.010428073384854436 -0.0961044476751245
0.11908390954689359 0.1485320022539415 -0.0914254996429391 -0.028454980602196537 0.060071182271774874 -0.015463751092966877 0.07207754246380951 -0.061884522471773167 -0.050334646207255404 -0.13487632526702625
0.05128462270415583 -0.1655625815179753 -0.01768742961717849 -0.14986582741926216 0.020015878511415043 0.10009987311007225 0.020427514089451995 -0.1722765050461057 -0.059164885072422055 0.11750196568669671
-0.19948462736063644 -0.022581053534904326 0.12508674728671898 0.07044856583649434 -0.0011493318756674283 0.036658312790621615 -0.025255722925571704 0.08123377197859902 -0.09998261160482026 0.08419755539316445
0.10672118249098235 -0.005478789000169141 -0.19653707499794912 -0.013828421195532486 -0.10825695172842056 -0.0320098027368102 0.1154533880255023 -0.018188824005187072 0.04814398640610666 0.03064260119195544
0.03312208343535992 0.14996367329008956 -0.20104163027879263 0.04462773544835821 -0.0928440435470104 0.1032029265871887 -0.035099241279937445 0.08262957463856281 -0.06074808717928784 0.08265700255179928
-0.0032098423199026487 -0.07058165317928108 -0.1493495730037856 0.1250920641274061 0.07725321370176737 -0.011259991943577087 -0.11906725416038427 -0.08957156900940351 0.021824931080826598 -0.0010474076846714376
-0.020021499623392256 -0.21824379000651586 0.00953596460787152 0.045093656164055626 3.5985188456108525E-4 0.08807717118888278 0.07536961704689175 -0.13743644711147712 -0.05898043315036494 0.13323016038239763
-0.03762191693524397 0.0023304603740145965 0.1502129224599212 -0.013284875899239452 -0.06261706172819458 -0.05383967198629519 -0.03664962190775839 -0.23466470847406182 -0.00971052737428193 0.018286101079374555
-0.12928863503948876 -0.09986331080489816 0.10311297261974815 0.15907267341815956 -0.11140800841008189 0.04837179468444894 -0.058495004803363976 0.10020854905740485 -0.11864998302396579 -0.11627781941259344
0.04283171844763164 -0.13345705879521103 -0.1571345236798696 -0.062165403388862006 -0.004111472599804097 -0.07134234549706732 -0.09260188991743518 -5.836993662921411E-4 0.06790183374666219 0.026932062019845944
-0.009297497463043411 0.09650188908632822 -0.12953421419991348 -0.15009620605780594 -0.022771808553239653 -0.07063866355477824 0.041062042393920604 -0.004040902674090817 0.05290540949259124 0.10087438842388845
0.04620699425768219 0.06247223154639834 -0.08186370861518248 -0.05511424317032706 0.08580495900608587 0.029572365064374592 -0.05330866566459958 0.012498974535033095 -0.01579849227047524 -0.01023183745769664
-0.033022848810826934 -0.10266172591238659 0.005346423484607551 -0.10214622589628533 0.13684651825597804 0.04566110193267347 0.057255455878971406 -0.09292442451381747 0.02216999773008397 0.046106037707521384
-0.08373362538830657 0.05360226626838323 -0.07218496620099608 -0.08195281474358986 -0.005561179944266044 -0.048694603467780415 0.1443940335997644 -0.13166077909963464 -0.0077456792362666105 0.1147070091647561
-0.03395457294263738 0.07216979550099548 0.01690539548449702 0.1657102191961181 -0.12344970949899 0.12762743614564448 -0.025649903502682085 0.09331101101187145 -0.1528684599947568 0.05477403515513203
-0.04344470579724785 -0.037016042954995 0.13706067516486214 0.1085231806167848 -0.10211867206018235 -0.03455858190238997 -0.12843502420560363 -0.004121751509687467 -0.041994076864364356 -0.08964923181071746
-6.61927699435483E-4 0.006604916694804141 -0.021659452944689597 -0.07275498817899023 0.03645078532213599 -0.04527821621397881 -0.07076029695235599 -0.1547033211015311 0.048328941287903354 -0.002686498833496796
0.029531071396564506 0.001617241663634874 0.028240033845117595 -0.13224872887521893 -0.04256893835571985 0.03630447384732563 -0.09659365416425597 -0.0702775195372698 -0.06836326117461188 0.07234028653853843
0.032288986582064756 -0.09099050805713628 -0.07666089055082384 -0.06447503178114959 0.1060748738542313 8.412424616233496E-4 0.015191330014494462 -0.04607630935938457 -0.022401654549834754 0.09609930386294481
0.11923940793006899 0.148558145389219 -0.2549852532743823 -0.18165039732622357 0.10888821221192346 0.07382899487932933 0.002987919978522983 0.0837216965304808 -0.13669496037113002 0.14219341842181518
0.05781882249434174 0.11210055148210471 0.07836031192421719 -0.1674834321349942 0.017291790683482352 -0.03907428362619988 -0.1305795130265192 -0.09110754893060402 0.07579769454864722 -0.009274624017823639
-0.07594302020040522 0.07072253420374065 -0.0321704754885361 0.029217577084167518 0.08631853643369304 -0.06161634116872716 -0.017032688696920734 0.028170052061166802 -0.039394879968192825 0.051055464488597754
0.07562992803158819 -0.220442923453593 0.013748819860486953 -0.01462958327827751 -0.2395940462646642 -0.14011193683121254 0.004464330727084258 -0.04495063046638994 0.042954374493463086 0.0026635742918392664
-0.008079887704281552 0.13067836107691894 -0.11932602685797689 0.04062501076448603 -0.01976963400110851 0.0134259057427749 0.03251168178813607 0.04134448754723417 0.02005452186643975 0.04955621813990893
-0.11476891640116835 -0.04640183284412183 0.052247939384574435 0.05851585923652794 0.07889542098190966 -0.057711923930903554 0.018831863572961755 0.05424776514881088 -0.10896456671175613 0.13100813537829953
0.11425819945576259 0.18565750348372334 -0.10822704110163264 -0.24622929121832662 0.10112000703639827 0.12056759023189935 0.06970935592305058 0.015676560583817185 -0.09316265789548886 0.027456769611371282
-0.061898990298701245 -0.0641191814005066 0.06474389923059909 -0.03224175588220697 -0.04684733026731966 0.05057816643794242 -0.04448063771376516 -0.03612533867733329 0.03308299615311086 -0.06836499854020402
-0.12549215225500088 0.03270670572332091 -0.06370581068141097 0.043834465303512635 -0.14789866035523008 0.06827589438208806 0.029270574691896072 -0.033333808868224214 0.05479075213372399 -0.04534754241451751
-0.019159877489742308 0.20991138925147 0.015294878406068555 -0.15237815775086896 0.06704438456874862 -0.024045477171385252 -0.1605961430186198 0.1690099400688112 -0.08112395866880126 0.030657436021556333
0.018987463035542357 -0.09485174039697056 0.005671715687039958 -0.20791613871399928 0.30398491509186737 0.01129422907409735 -0.001452860366014882 0.18578012179489453 -0.0941696614641541 0.05272913064265026
-0.07048768196267252 0.03965527128480496 -0.010302455095188845 -0.07337512823587869 -0.15158459252948756 0.027868866699302056 0.061873553060227675 0.14899962295398556 -0.04349969361110552 -0.01647229449281586
0.005042472782669122 -0.06907922413282093 0.09397811995217713 -0.009776650310706694 -0.08447128381431487 0.051656574360753056 -0.09028322539693327 -0.06444126106873939 -0.07856203220054105 -0.06635010972815787
0.11321937318378572 -0.0702041786178756 -0.02367545309154921 0.13736637322948625 0.02918051350966376 0.05628222941212205 -0.1920895886793713 0.26020027814197566 -0.13929991246255805 -0.12237724432952066
0.11385295017308172 -0.1443578069664343 0.05775273632531503 -0.15533520592207004 0.08335685789864823 -0.12268928557194074 -0.00204303153629595 0.1337032277529249 -0.029866516772852104 -0.1722200750399316
0.05016639758299647 -0.11126869064579871 -0.06555865773234419 -0.13475308801541713 -0.04405607524008944 -0.04095675388681065 -0.10029900514229052 -0.14268331927513944 -0.032107286480034795 -0.036790337915364214
0.016335233316621633 -0.02672911524285217 -0.09808801155369576 -0.227673475307073 0.026985624993685082 -0.023654024550726925 -0.021332821542617324 -0.15936339471934552 -0.01319708971128481 -0.027733190184528484
0.0784944743308098 -0.10109671973844662 -0.12597899297928916 -0.09266463768501382 0.024871360084997834 -0.07671111910012055 -0.1465968968458209 0.0077913548295879985 -0.08243019831755823 0.03683320866846845
0.029116464876830513 -0.1790469225634469 -0.03706251328513264 0.1303263181005094 -0.08992079581380202 0.012784111540578066 0.01194204645483006 -0.01816405023511773 -0.007950828345021858 -0.02276448643878064
-0.011475703766915769 -0.010599726561323823 0.1253148754442396 -0.03233316937941873 0.08167781368442516 0.02188343293248142 -0.01823154829713294 -0.22374914303873286 0.012954584564942789 -0.13614439161577077
-4.249055289123004E-5 0.0472287393862865 0.0020808123014689718 -0.12924804162312373 -0.11347098049373981 0.10987552210621333 0.13264346242008457 -0.135407226023087 -0.05319031463517802 -0.08976451237478358
0.015565307966135315 -0.11185140052906169 0.05016189204137804 0.10351617888360173 0.02873788638723816 -0.08702702116633537 -0.10691927770095154 0.15494340922718464 0.06654268870517133 -0.06549049755962155
0.016325695414585117 -0.20704354568194475 0.1413360426197305 0.07103926982819479 -0.14669242935589985 -0.13278991263187795 -0.007151958353439952 -0.0011148999786953523 0.018461157812235153 0.0065278472868870886
0.07088457605246784 -0.023379152764880583 -0.15131037695743735 0.03843871368819233 0.15573236459514886 0.0075915800023051115 -0.05271890296295296 0.1298390140980523 -0.010448327297312453 -0.04291185184108336
-0.030625402474785884 -0.10927439039527935 0.0033107583571279613 -0.1505452281373839 0.08190525787326186 0.0308817431837711 0.10293931215764622 -0.2233151389612428 0.059900768372190064 0.11332669022723078
0.02292604872675286 0.02079906391523217 -0.05413763358139983 -0.19234507500265555 0.08826660892585061 -0.11784052448127598 -0.12259731438329964 -0.04204875493588033 0.05299802283091869 0.00673932695778108
-0.10553912495997966 -0.007427564319097052 9.025703249654412E-4 0.007897865156219904 -0.07434856962303069 -0.040385880268331335 -0.10085871311095829 -0.05283743526238793 0.053296252127515126 0.09622090857855448
0.01306770831965428 0.050264531343249014 -0.09987926268904723 -0.06430048886506541 0.1035205404548046 -0.019538280471313316 -0.10403210382985505 0.046001969439335585 0.01544718635385563 0.0046371740473504335
0.035576353652915844 -0.09883775366900154 -0.058201433468400114 -0.0512398506746623 -0.020775094438610926 -0.06031601164283889 -1.3536408303973613E-5 -0.13579846703574908 0.10481505013572427 0.04924218426073303
0.03620008192704097 0.0789803168488199 -0.0376107899741005 0.11218697522220016 -0.1798248815484104 0.08248598193995457 0.07622315744300276 0.11514200110160923 -0.12371976182797365 -0.01810455002010712
0.036755179308484556 -0.03919031537050819 -0.026635565983285505 -0.03957233720735347 -0.12089430983839558 0.08174215350528986 0.08572738460437195 0.04160071069079475 0.025400150524508117 0.010504408397349781
0.019867187163623675 0.03275199351743207 0.025248762837608893 0.08821873632574125 8.407870262663829E-4 0.022884977835844415 -0.0165243008927346 0.030624657776160757 -0.0902957035132741 0.01191633597867754
-0.032104173561596686 -0.0040786154945278985 -0.01122901951167845 -0.11616574840843741 0.03584638179704691 -7.234677358070474E-5 -0.018295005615372825 0.030570856522877728 -0.13563758255585132 -0.07790562368618152
-0.016108920805945795 -0.08031488906993962 -0.026718123796380496 -0.06374613840808988 -0.14224210363831036 0.01753752216931633 -0.10940823276107452 -0.05005865481216444 0.04082999251720573 -0.05802126231204417
0.0721544275128106 0.012547628103036884 -0.019669543782289564 -0.0991809250567873 0.2617297723934971 -0.001637235305062661 -0.07717131927003096 0.31465393121659546 -0.11539196431624875 -0.1935395649402729
-0.02778872932066815 -0.15232526668296248 0.19645156221113017 0.11894959523529605 -0.025614415624136386 -0.1627759438246324 0.03570479237585349 0.020406386043604684 0.05058503151313458 -0.09152079799595579
0.02752576230481957 0.050697660223616506 0.16853547359910478 -0.13553337449726477 0.2136792331417105 -0.17703345491256448 -0.1257605233665038 0.07762345396662589 0.021472136039806498 -0.21825164451704337
0.0886903815009786 -0.1799723622979965 0.022494257943304355 -0.0475557308838868 0.01985176851617758 0.020194386113374006 -0.03300414743534153 -0.1354867639772826 0.08740127302880457 -0.0752674554350014
-0.1106667880243305 -0.001677966719258699 -0.03003272666858507 -0.004068462772736069 -0.019338676713138717 0.0050023926263006845 -0.057319965391648374 -0.05413927971722926 -0.05620762132915041 0.05174530233652659
-0.031239148514082146 -0.025516269897334985 0.04820365619545598 -0.15473830352030246 0.1837331805938108 -0.036512155097840254 0.05202639739588814 0.06993242381983628 0.06997208828166719 -0.1400973029335308
0.02045982311316379 0.08303803700201594 -0.10460370238585975 -0.19533541391214357 -0.13028848449463376 0.01653435579566079 0.11995127851238734 -0.07576246059125051 0.049664116468088756 -0.02835439257022032
-0.04301170709503228 -0.04164134922214406 -0.1554701410459501 0.05774119165020968 -0.048825405904337586 0.03735227195064911 -0.024772464154891982 -0.05474321417128991 -0.1028431704855314 0.07340796575560903
-0.02773289119624026 -0.060474361932259815 0.14397473118704182 0.006807765422869334 -0.08136613036635972 -0.12283543999124626 0.07127373937032329 -0.020126123625169124 -0.0354839135689076 0.02714361160154985
-0.11387428276081536 0.13733848268130028 0.11517059763622213 -0.20006456822624075 0.025037535882310363 -0.046679050707393685 0.14712779353896974 -0.19187839281022692 -0.12021147145014414 -0.07135121470916174
-0.03989747447275457 -0.0336122610359141 0.21703677823524847 0.15067826607639234 -0.18217184331424177 -0.11940630362535028 0.04936766030573805 -0.08465272087706803 0.11202471226271919 -0.18859769808506974
-0.04111126040580772 0.11701611581534534 -0.18938350261469733 0.0774774744386823 0.004004635470168159 0.15580247644294054 -0.15255765489263826 0.2119726454981672 -0.09932334252748642 0.03196184867825059
0.015722014332970834 -0.0012073149012199133 -0.2085164677379153 0.023188177402252902 -0.04754416282890299 0.06601556664954712 0.030699782341256497 0.13341565546784656 -0.06166841294217383 -0.1020390428598577
-0.1967456799116827 0.035221001269094526 0.058224283931268446 -0.015331756644394462 -0.012507837961794168 0.012257620743291064 -0.048460735505855806 0.06429249179184726 -0.08024137882055286 0.09016430103471865
0.06708663934151468 -0.12127721957950026 0.003355700500921682 0.06666982553537788 0.08602681017090835 -0.11281287478014809 -0.08222421733757476 -0.015501119248724363 0.08745584217909433 -0.1845946777775441
-0.07537285541895011 -0.03475521989979148 0.11570531502490886 0.18694575030681398 -0.15481594257891076 0.12024359062186687 0.0035522825279927232 -0.06103800053481721 -0.13228330072860037 0.08548990783840973
-0.0545556117620552 0.03394883636298045 0.010491784251815852 -0.22428376514206658 0.14684573318927555 0.09570176454161557 0.01805736254011947 0.10888049922894905 -0.028981877488626042 0.08341699029288686
0.05525112558524221 -0.19668618036721777 -0.08921501259404242 -0.18676276370441497 0.07438754553993672 -0.02893394861239127 0.08721889228846896 -0.012119823416366006 -8.825204825554338E-4 0.056074429186200925
0.0804426895855547 -0.06613128302154196 -0.08164618741866493 -0.09665954692820083 -0.08604405832746868 0.04209081232393475 0.012186868282472379 0.008749993067578055 -0.1182414521329996 -0.08164909514871727
-0.0818665529157981 -0.017926886800618314 0.05351965121596621 -0.1515504658985531 -0.1106571537803195 0.023122835666407864 0.016057380639761133 -0.19145330664312774 -0.08630130645557745 0.15158330034387713
-0.05187543531647501 -0.11334153828950344 -0.05175427446045528 0.1689073058461758 -0.18100273965879682 -0.026428436692720925 0.08131088276357361 -0.12691787798680512 -0.0673813881723995 -0.13285938773833775
-0.13982467549303804 -0.06971582982805281 -0.12694396662989024 0.10768820033561036 -0.11572204299032528 0.08147519776713341 -0.04528951875508654 -0.07473171154931818 -0.05413189345565396 0.08491405690269709
-0.001357492707590066 -0.17576788149101114 0.036561054775213174 0.07757540054464565 -9.049069640130946E-4 -0.06602861079372807 -0.13052048866755356 0.0117875615392562 -0.06888901116633375 -0.09676243585598704
0.05920720936374442 0.010953639548891276 0.11674733772338944 -0.02950530692873264 -0.148878386567956 -0.10360011445191505 0.06135759162839045 -0.028475821926612598 -0.023292791520776675 -0.13353472825960055
0.008989861472466236 0.026926813194935853 -0.02852140881916029 0.04893721141966673 -0.0612205167523337 -0.12109268725003718 0.051015681065270324 0.06348012986845028 0.03845970582142576 -0.05372632916638317
-0.022526839450046895 -0.10707066482556339 -0.09216385903514367 0.19263750502457475 -0.22402548180202986 0.0521611575438122 0.047877617475537704 -0.04583279124227996 -0.02076624105653703 -0.09880079378416297
-0.08926100663052625 4.823403714856458E-4 0.14047192847080592 -0.15316059003241675 0.021465714685258493 -0.12912213487070068 0.07662467994214313 -0.09385137296768965 0.11070449235429061 0.02771263010730401
0.018190998368713282 -0.20028712449835756 -0.024453805234566278 0.013435089972060985 -0.07980182161212841 -0.06572632683947341 -0.06383805521132001 0.01356945495307009 0.04338132328865617 -0.0868309823612291
-0.08368251669339336 0.017377125237594417 0.038066606525680696 -0.18568326572568228 0.2291392495894398 0.022722991568570758 0.042987549760057184 -0.13203116562299397 0.013721216210034816 -0.0899850872407228
-0.0784396947777555 0.13124824539490448 0.09043644103097094 -0.09968703273379784 0.04788242086161898 -0.057776363813767814 -0.015124455422781052 -0.13370982569181528 0.04782317769742595 -0.06845235179017821
-0.042240329147423886 -0.02230877208938366 -0.033897864924788246 0.0365071135364022 0.004013414491152814 0.10151366773003404 -0.09535409955399822 -0.0897866576439849 -0.021235556412203132 -0.06678171770710546
0.09489981822508044 -0.12119123064906906 -0.06255018658307368 0.020113786967862878 0.0949534212217585 -0.0894081462578744 -0.08754514334494391 0.04279879145157738 -0.0675010310085512 0.0030858671186065898
-0.0698504066762696 -0.012293065363164471 0.14975866021957948 -0.1689570784148607 0.02489661162208143 -0.09489939693016487 0.009501737550112091 -0.19044925398456908 0.03581812984358787 -0.02611563479970836
-0.0771696744752916 0.19630043213772436 0.06771015491074488 0.08944222250136893 -0.08122828354949702 4.5201162050296324E-4 0.05422611444166544 0.15343678608666012 -0.1091510980597475 -0.14337660140517267
-0.0465967405034167 0.06364001698623967 -0.024043755566109836 0.03311954255199453 0.08147013243104247 -0.12709882502919903 0.042849697731700886 0.11396222279608333 0.11961912433915095 0.026139757839615026
-0.029144374811634767 0.007349120080906552 0.14150848902183824 0.06536131204938807 0.21205053016584022 -0.11953872964689859 -0.1954408168615174 0.21237562813428945 -0.030800967719452427 -0.029640585160342205
-0.01558706817040974 0.05414168287683972 0.09195582377308942 -0.16721482865004525 0.1280752348068057 -0.0792783222558983 0.08403515119408098 0.006409309640355776 -0.04676089698670674 -0.10622490199293395
-0.09134788297638168 -0.07967496330880633 0.14601762968123735 -0.019006351198955624 0.06335997776699595 -0.0738468670034245 -0.02820274049701868 -0.04894297900816752 0.014977055053875272 -0.10815342819076088
0.03389826098559625 0.032215127857697194 -0.1444962230042579 -0.06454187571920308 0.1390836848633838 0.04862927265451434 -0.1091971720707583 0.06927329638829274 0.004344781780168229 0.030174055792844393
0.011020109137482076 -0.033183258763740474 -0.045135632532005386 -0.02400399811897828 -0.028453311910467544 -0.019524116360790832 0.03487929970180343 -0.03370755505705598 -0.11857153678533268 0.1380420546266868
-0.09586191526067461 0.17619293716282444 -0.024563775470775318 -0.012436776960752377 0.018051258886251434 0.04800271646541914 0.03164981699060659 0.09687534817499313 -0.13591818054444246 -0.05032736168820989
-0.02568589941541339 0.16406180506404233 -0.19461856682209086 -0.03217924382694016 -0.0676815660696858 0.0328466720765897 -0.07646186879597544 -0.02510695369784147 -0.09707919957787274 0.16346263565897562
-0.05390606570786497 -0.0143749806808437 -0.14854900226332476 -0.13452094871818832 0.007180572895365496 0.11350510997998342 0.0805057088590976 -0.09487067607798608 0.009507486374086833 0.02572527143021833
-0.07400017553010346 -0.04075276779021141 0.0191904308213839 -0.12670955692970828 0.051449871382135276 -0.07158460088205477 0.08788804621319955 -0.07089138981244417 -0.09083374323900113 0.06306886350980118
-0.07373568899988052 0.0761787686409116 0.06558511963854895 -0.13328468206408875 -0.0025494045168972276 -0.029085460533450264 -0.06685202499166792 0.09036380222851664 -0.06545303055049467 -0.062190127674753376
0.007985379643279712 0.2049578373701087 -0.16575180976176068 -0.0543205789063849 -0.21947967419305095 0.1398341246584242 0.11502253205131102 -0.10190367113374166 -0.0668336498168435 0.07219782736658358
-0.026506186309758366 0.034892068868201474 -0.038492535438513255 -0.004957946973392841 -0.15349127382450645 -0.15457569548240127 0.006971155914238749 -0.07063797452713427 0.12246906550319686 0.04560568481141511
-0.0774395228305115 0.2236428065765389 0.16466737490941905 -0.21529769526625844 -0.020864727552912497 0.047761886397066744 0.03380489941395544 -0.04143373646095456 -0.009981000390856337 -0.15984095631194872
-0.08556414133513013 0.0014884261269512808 -0.13521685643651468 0.12633546474525137 0.07715162129111627 0.06315343015485307 -0.10372828196994677 -0.06433444066037898 -0.020648922870654715 0.04917199950209198
-0.06742567414566687 0.006702564994811985 0.17936064432818272 0.08275909834129117 -0.1648054390155221 -0.11460582877183909 -0.04374151590114649 -0.16058734581756598 0.066789203862289 -0.12399154093925223
-0.016161297156677187 -0.08148072794176645 -0.10849722039836958 0.07954074277610562 -0.015739627481472018 -0.043422360821165865 -0.08042722663596479 -0.054053574218271054 -0.004780991626175118 -0.04837535886166267
-0.002664346198532589 -0.0575076540218291 0.167025119613764 0.05146438282542536 0.06968236114057551 -0.17067146051276025 -0.1008591267054597 0.10823321989772834 0.06190855319813167 -0.039494895462079856
0.005115883765951184 -0.024792462652557384 -0.19530511247572696 -0.11622702666889306 0.19233369446688947 0.011880610215716897 -0.08892112828275033 0.03919243348289216 -0.036893985392941926 0.002377369536490567
0.023315247795334434 0.14788306778819768 -0.08837711534049614 -0.16250372816142192 0.09242432070692687 0.05942187552241771 -0.0023829605097127377 -0.0037670960953015485 -0.004670180751399658 0.05064745342866372
-0.06462244808321407 0.05021063408389399 -0.01917104994824251 -0.09704777152638339 0.2187897426509058 -0.08431729442934983 0.038039114596742765 0.0353034728674299 -0.07692839148126461 0.06709024379172104
0.0370391968166558 0.059420820396713814 -0.05157878364909297 -0.08750750099923181 0.17744019919299786 -0.0661803485280855 -0.15084374077643986 0.31552102134305826 -0.10681165449020662 -0.047543243802874516
0.12618961108192783 -0.056114459355661936 -0.0013573759094660646 -0.05228210459993989 0.06084613306616346 -0.14289509039026382 -0.01793669974013783 0.08181935804495181 0.012634342991680788 -0.146422012863513
-0.05425821097260465 0.2126595309534747 -0.013771247144505547 0.024297001506454172 -0.09532562943901819 0.006205478118393304 0.0649422873792863 -0.02203307408257789 -0.10812873990904388 -0.055155563581726096
-0.028102131978783654 -0.1308934440753392 0.03995984632124284 0.10935626142382861 0.11310852722152336 -0.007438788373419455 -0.15479028420480395 0.1223663352921995 0.02557232165708294 -0.03707803633765696
-0.08344454126114469 0.016181691049959646 -0.08635199779020317 0.07071894104267307 0.11504000202482685 -0.010036777614515489 -0.003573841447590448 0.07682372588356888 0.009995033365489162 0.1158300527290494
0.010473264291501333 -0.12340265746778288 0.05136249146920854 0.0885771547597778 -0.1355257940809278 0.08355122505075908 -0.12196253143728458 0.14350494402337138 0.04400339747254801 0.06581265840074768
0.019094438074378654 -0.026849419951363966 -0.10827438311580696 -0.047917979300207796 -0.19106443926535166 0.10341292735716905 0.06664266179524395 -0.1713451832825336 0.06855559607518832 -0.03966139314021118
0.04801740690335837 -0.17156609067143247 0.08927908673166181 0.05335062327080726 -0.0469353773127467 0.001244120179073529 -0.10468521417529225 0.04979975921128265 0.04982294998183885 0.0032447029242757925
0.013049388963352905 -0.10928203013351499 0.055543854925770283 -0.09522557148765295 -0.059154609134140154 0.014951013314124685 0.09571717726630184 -0.20259259346606823 0.00491147320529543 -0.115487366987296
-0.07927801944146251 0.0967102767747722 -0.07154785470959525 -0.05973602625245037 -0.03827592159328459 0.07027929058502279 -0.012483704601973783 0.027178579547579535 -0.04304048216311538 -0.12448960697417928
-0.028510059597026627 0.14249148301654643 0.15081991968231476 0.08131059167040501 -0.028948435550358254 -0.1609186037839952 -0.08217529990136956 -0.03410748382578627 0.04193160963083864 -0.13379771844874608
-0.059775702023934396 0.05367574705436387 -0.12677954031753683 -0.11218701770110603 0.11657012562909808 -0.014773542868148491 0.031135920830565617 0.16327715921291996 -0.04983421285252957 -0.0538105952111888
0.12971489964201197 0.008247050899756084 -0.01901173170284832 0.05521983721561263 0.09759830000665007 -0.004696229541810537 -0.08267950572747935 0.16932251704923965 0.024787139293154695 -0.04470985299938345
-0.10372496263994181 -0.11316428510213446 -0.012696671929756188 -0.08672550923340763 -0.09744677953865297 -0.05858163372796823 0.025547490877556454 -4.655135216166909E-4 7.397129019666482E-4 0.04235136493368128
0.0029848865208790495 0.0457473792139837 0.0666425659163831 0.058053849418034445 0.0741061921781983 0.0618047989183456 -0.13304035507769643 -0.02021554673596839 -0.011731256490349187 0.03158235267727587
-0.16378595899240528 0.07403202049041188 -0.0282859044149934 0.16226932172504546 -0.14524969716497318 0.121893752744721 0.01005276816226956 -0.0895822801334118 -0.1258746451183529 -0.004666316366013102
-0.008402758333683277 -0.01796614784944665 -0.004074324351318877 0.09085498842017485 -0.17220586972249452 0.03471214673909198 0.037549319891783464 -0.052339451872431636 0.00810265834321875 -0.00933428940898726
0.14379735880822794 -0.0013641545755382655 -0.10707732501230789 -0.17943446981531377 0.07380865271554862 0.06475685968584177 0.007576215053666444 0.04373310195794761 -0.036867570759713184 -0.13099379496995703
-0.14250446119392637 0.15231555298695604 -0.13044824004722677 0.2089077866276683 0.12624478554323018 0.09987899309045747 -0.10609954838772566 0.25173403693506485 -0.1828028839632062 0.022103044590085313
-0.09124165865096262 -2.1311017100981435E-4 0.08930572278743168 0.125149649195406 -0.2206985143803384 0.02463476576069708 0.12058861213510616 -0.03305327763186199 -0.09401478250976983 0.00996123524713247
0.009288515001172077 -0.07963523114778878 -0.06840686102335608 0.0075831060110616265 0.04719815761458846 0.051261947895996605 -0.09789190481748679 -0.08885975296591954 -0.005710593020491746 0.058686842121795674
-0.004918084329514861 -0.2753115406951165 0.07917394683822183 0.08895312009305592 -0.05612249447526908 -0.023653631895659676 -0.08226953101261372 -0.01038990885798801 0.06441329422827405 -0.001771747297467918
-0.002558345251033399 0.09850278678243427 0.040953140876188954 -0.07669691994048464 0.015202542414059715 -0.11645382140709469 -0.05476552295870434 0.13918302016163717 -0.06311809827296938 -0.07082955178953727
0.015751527627653732 -0.08163011592844995 0.1720770360785884 -0.03202995517016883 -0.1350515005657086 -0.07406122712733802 -0.05880372100721568 -0.07061317621845298 -0.02382055210608283 -0.04174294660498032
-0.051765088442609186 0.07276602233469634 -0.06261943612807375 0.046535715671026615 -0.08161126589725566 0.04778117423108387 -0.009473830851715942 0.01171478317134012 -0.05514927651861286 -0.020121358427294966
-0.009233823614330984 -0.1228779148643074 -0.03875040985301445 -0.03150224892462894 0.08725907398502879 0.03237127644796426 -0.02019278612875691 0.006190319359761407 0.036986712006333466 -0.0021127446455780634
0.017702017841263955 0.06529650103048684 -0.0664889870127039 -0.16033117783804735 -0.05132929569737496 -0.054334824429643 0.01891171269581232 -0.09674637812023923 -0.09625472404678913 -0.11278048968889554
0.0491378616306552 -0.10646315309507987 -0.07984479992797237 -0.17708114322473328 0.1141970522766876 -0.05928919768237627 -0.044890762095298846 -0.05479742296196012 -0.04921046474322949 -0.0813882571229186
0.019263540068010482 0.1224395381782055 -0.010547411387710832 -0.16342943166570628 0.03705862368095836 -0.13742272140032097 -0.11026053862443139 0.05393816131451774 0.03468327642987917 -0.059098037433763455
-0.08846748697265087 0.09182790168878191 -0.011280674661597332 -0.15191021536307586 0.06905034779117697 -0.0168074693463331 -0.06267081180864768 0.05483167382402027 -0.1324895187845957 -5.248540018755368E-4
0.012409680351294607 -0.18044150369351658 0.039338710267644995 0.09959197425778868 -0.03928943753696091 -0.10450377536204083 -0.12176897424698178 0.16267980037194596 0.011200306153563551 0.05690272635181327
-0.013285606111114316 0.13979026238909587 0.14485301535483416 -0.1493426008622697 -0.24423577307864905 7.465236223666376E-4 -0.017464584737889016 -0.0772436417890788 0.046185170969195284 -0.03310693391458906
0.01789453701714881 -0.16815653186090465 -0.02145230815139317 0.07516972831065565 -0.11917339664276891 -0.11635237551818627 -0.06389073437959969 -0.05375643447569748 0.07732064435406692 -0.03933843621226728
0.03867423772027407 0.17361904855710086 -0.07758877411210918 -0.12244814381583374 0.03828726552672238 -0.09016733980976803 0.022829312719312645 0.05716335114910065 -0.12629854601878188 -0.012949568449368096
-0.0911003437638902 -0.05922997796353437 0.0589945310779565 0.11949399188905388 -0.14600805108203493 0.04406237893153168 -0.030139691241316532 -0.06912236340515138 -0.0766060004478624 -0.060584149856033116
0.032824492566665496 -0.10752344026448911 0.14257482161042404 0.03403574083408794 -0.22993630730533665 -0.14832512438604595 -0.06297805802418377 -0.11051484637844741 0.04152881327125384 -0.1537957333065765
-0.08608927858629668 -0.092775314622249 -0.08796209388098146 0.005707042768247174 0.08677083225831293 0.02016884828925532 0.09928241923496901 -0.03945099167965577 -0.02891288486850743 0.0935085278254017
-0.12114598497037028 -0.1646345596908633 0.06388241374738951 0.02528987758990311 0.2166451853191308 -0.09333526198294188 0.07605153421400429 -0.016892918351474953 0.12730890623604496 -0.030149771622588646
0.019492349345731276 -0.006117150502835202 0.04391775148708511 0.041818438199967854 -0.20221273294301514 -0.04084261396493166 -0.10069291714421089 0.0020679259730462906 -0.09217169383719076 -0.15963387417883868
-0.0929605595483761 -0.1326998204150173 0.11820826962208454 0.037565791722850975 -0.21299409610308906 -0.10033424530739826 0.019444646252133276 -0.07680867305964259 -0.058947493251082075 -0.0742404222921812
-0.05882359751500632 -0.07452544507215167 -0.07285750419805538 0.062327479393320735 0.056945601520396974 0.12770511677528007 -0.04205402892194453 0.03537284218658642 -0.1047757560611617 0.10962996393075916
0.09923480412433291 -0.23705609163265493 0.06133204590271534 -0.12618935141617213 -0.0010377855116277706 -0.07384951448714663 -0.07067370277206059 -0.025879290511144386 0.09180566258758992 -0.05327391130481927
0.15306530196132423 -0.010290744011821869 -0.1514695493219101 -7.146321120420425E-4 -0.0484775277915702 0.04620096061449656 0.016414688662015973 -0.14180163751391464 0.0174212624398587 -0.10436213695084458
-0.047013776803780126 0.0699439688512307 0.049073429876108764 0.05698291997023879 -0.11316489720723892 0.03517664606823784 -0.056928500609197394 -0.07486355506098608 -0.01630886038449984 -0.02196265523869324
0.2068197186973128 0.033065097798935024 -0.09929969125098181 -0.2510300298007158 -0.05263850431945183 0.004390683375055606 0.12938147987956017 -0.0673230511211414 0.11135996649969562 -0.15084126025112699
-0.07839287620727092 0.09781089131829267 -0.033407189880213864 0.07392753135523392 -0.05503954611683143 -0.03014463618624834 -0.07462355846777154 -0.013722582870944411 -0.1434998620076428 0.034866415369650974
0.05543057222062141 0.018396038401742032 0.08271841891782654 -0.03806649311831015 -0.06644714034253842 -0.09160346219179194 0.024871243651019073 -0.004177340184747117 -0.09295284537374929 -0.10258686082021444
-0.1223839121661088 0.09199222137232684 0.10983522194900572 0.15700547454671257 0.19267236566068108 -0.05756884769908472 -0.12303012196260947 0.11552358723898604 0.05284946054447152 -0.15385461581881696
-0.1457247303881197 0.09882127436665147 0.11642721467120207 -0.05424131610003816 -0.013379528657400084 -0.026190271058141958 0.03487382130813713 0.10305110859942881 0.04834071059489984 0.05539151804053193
-0.032004020059613315 -0.03172775563450472 -0.05417438200620189 -0.0752415618957403 -0.001297076163605788 0.011923098120795587 0.07589466343699995 -0.05165664819164403 -0.030347250244577257 0.020233934632503607
-0.08501035099548937 0.18069703200150408 0.09734327265217256 0.18768328432791995 -0.21309167814738128 -0.027077093979354577 -0.09854681619211988 0.18868392485496452 -0.11624310281470389 -0.005982443548577327
-0.034281604307430526 -0.07924525481196061 -0.0795895443777691 0.11138215175422042 -0.0382030010485464 0.030743911208261487 -0.08573174173962696 -0.043939451886026215 -0.07516647199532049 -0.05372729110642528
0.07644497989030703 -0.09119984688831878 0.03722329633207867 -0.1325230837541193 -0.2369000860795108 -0.04539406772617329 0.1276818769738623 -0.22872552600002147 0.13351748538430636 -0.09322493980293194
-0.014294387191671282 -0.03583771298168643 -0.0898244404425766 0.07845262405883441 0.04351188185240332 0.041806737319405214 -0.052756495176475626 -0.03324804885174361 -0.038300786935252074 -0.06894475126651721
-0.013692995519995083 -0.1651994977383289 0.1036079049650785 -0.05776517801930053 -0.05484493242722173 0.004408443350787631 -0.04221556348056055 -0.015536361910788256 0.03171425872864131 -0.09770500450047523
0.050755072956784705 -0.044395508014123834 0.010274196517719346 -0.10012444914585798 -0.1973868139883435 0.055700639569565565 0.007132405776083112 -0.09048019784621616 0.01006454347412584 0.05119619425123074
0.006884768860875397 0.07895795853374518 -0.1353865301159321 -0.1331239426459099 0.21322030961216162 0.10483188367779607 -0.07672001185671956 0.0847109272137871 -0.021787914295051156 0.012554687626246477
-0.012802273896624703 -0.08929528128043981 -0.14964983787762332 0.15346860825571815 0.054624450284435085 -0.05389883978671364 -0.156480124993089 0.18106216825145519 -0.01623847814324075 -0.06306734914255303
-0.0755970536822107 0.045122019725158086 0.019392380016773948 -0.13006195317439712 0.0811007253863617 -0.0015031409376284935 0.08973645116252245 -0.06920036224601324 -0.10732440468923261 -0.02094842567078471
-0.07987471580363868 -0.16329831267602338 -0.002245883162564308 0.16057408088826994 -0.16001010247114347 0.01064420580953375 0.0514614648981939 0.041349701669907854 -0.022314020604647822 0.030557350854285337
0.12424452925392766 -0.07631669719772587 0.057512569519450364 0.08730319711007047 -0.13999062970931211 -0.0752412785460939 -0.10970405848367983 0.015395018306326625 -0.08843846270897832 -0.16095397053476954
0.0144607780323956 -0.024678955228030132 -0.04830995276918389 -0.06428821259370018 0.06527478785652441 -0.049206680840554365 -0.037358365785950476 0.016250031132244866 0.004475497469511003 -0.021586467283007938
-0.0410263296322224 0.07943090577810195 -0.06047365016471062 0.07020581399755577 0.014717130760949427 -0.053915383649065014 -0.07449512785066686 0.2178570624891771 -0.025975368127019522 -0.04264653769116869
0.006754905259893905 -0.14584107971553587 0.08019334724466357 0.09468187346775825 -0.008659122647529634 0.04206916953681291 0.002671552208642205 -0.09122885501818354 -0.09151177806032626 0.025702887219992355
-0.13395510528141652 0.16250058669313353 -0.04615371918500942 0.02308541604134668 0.07419002161774517 -0.01689985464973727 -0.11578582147920477 0.19918474091253022 -0.04997437248112606 0.0548398845195561
0.0397111709927678 0.07585893394316136 0.015061316028618496 0.011348197323396429 0.03242593081814206 0.09835347563984514 -0.11863701802624771 0.0791820946330394 -0.09269715486658144 -0.061271882256755825
0.045944523809480525 -0.16446598370399873 -0.12013206154860785 0.04643865332034838 0.08467755071524717 -0.09085828952930106 -0.10333789035843959 -0.06978255527094664 0.0669231158845041 -0.02971388535064344
0.03527576979340179 0.04174977728375009 -0.1774288518700408 -0.00349937573865667 -0.11354641021611894 0.10223093036026536 -0.006713654045872115 -0.15620766002656228 0.0201031908368124 0.05412585934688715
0.004824459028559397 -0.15484451265757468 0.029539982059770337 -0.06967092192704227 -0.03247540932527897 -0.16519112364804192 0.12198345625888178 -0.0605812679813439 0.03039140200692936 -0.0362517090960492
-0.03706868719729619 -0.029773727069734284 0.13994149387309773 -0.06887659484605463 0.07401689161792052 -0.1403312808222441 0.05141439766085757 -0.12641576003100088 -0.032350806449303125 -0.1181977169709432
-0.06171473032784463 -0.22515951120401365 -0.07430607406738508 0.17770930126074486 -0.1258235187627504 0.010269888734420033 -0.030395011207986034 -0.07746705101726903 0.047342971964266393 0.11265326905710049
0.05504530336331832 -0.02575045661719781 0.02170292263001641 -0.07833738593342576 0.13859791883632755 -0.02216525843249104 -0.1578991996741986 0.16162441053980853 -0.11032740615808828 0.07697089804243037
-0.05395591787559876 0.06551814910958739 -0.0074940005631858216 0.2063052641702731 -0.003627007926549711 -0.05105827368412165 -0.10981932780295517 0.059788582960140606 -0.05775684832022263 -0.0489220819049887
0.010290047078821923 0.06374960605835103 -0.0028818091488849156 -0.13703642896328017 -0.1482513523715129 0.08269236937199834 -0.045031841548880215 -0.13347170804645203 -0.006767563639523672 0.015119952350400213
-0.04539149473619439 0.08682509569136626 -0.10785677009946829 -0.12477515283003605 -0.04694213317313344 -0.05807062912136078 0.12403451390012757 0.05278407646128639 0.027334689928989752 0.02178873205746435
0.056191047774037536 0.0912185370598909 -0.008300893108209365 -0.11080297488881233 0.09928566636136023 -0.17147655057101022 0.008381136618285897 0.13529525555288385 -0.07100142109400012 -0.13443981221587042
-0.11157389973124746 -0.1494584043949327 -0.07050164550992696 0.10988156005909319 0.03336744440882163 0.0515775150832469 0.05023898069474991 -0.061801795449186285 0.08253751454382896 0.07141676208201503
0.01308792553712731 -0.11014269342985564 0.0035483435594935325 0.12096662096049425 -0.1900670374160585 -0.1330699489065086 -0.0048747534940687875 -0.05024843778158579 0.06683023031699652 -0.0675771263289387
0.05300278654435117 0.19062191116707294 -0.040249393962976075 0.06543838639763984 -0.010907553770161338 -0.08238861048961947 0.05089712077085749 0.060592046719352005 0.06360350537045359 0.01171884873327034
-0.08888204700231063 0.10913122802906484 -0.05180605317797317 -0.09101839141471024 -0.022782787905522735 0.10384279057355571 0.04381263759077906 0.07630688026284618 -0.11459143526855427 0.10179616986886195
0.0321325026732468 -0.018110194958164575 -0.1454829001846265 -0.058434064942119356 0.04788229267504651 0.019604833314563114 -0.1553472832671142 0.06072176938593737 -0.0968748223264158 0.07269396668264204
-0.09888169373644706 0.08277987852135375 0.210595588763082 -0.1711801205573996 -0.022638002635947493 -0.11453590959670981 0.06873624822152535 -0.17832354950774248 0.014774710850636167 0.06783455497287649
0.10407093357053007 0.2116948875077582 -0.31891649849112275 -0.04492949121973627 0.023208180624557442 0.19106063539478055 -0.07717287551914483 0.12100382284915352 -0.2068734073555268 0.016792897985387377
-0.10604413174584118 -0.0207470101369187 0.06042066503862997 0.09069459456761439 -0.0384195293158323 0.055620584499338155 -0.11983071657690988 0.11004362280282591 0.05596281806785884 -0.07493163979494576
-0.03544760098650459 -0.0014774285493118341 -0.10858980971389377 0.06661350303976647 -0.2684847107424256 0.12684158095044837 0.0026320093472251642 0.14260828875402512 -0.07093184071635113 0.106443832068354
-0.03302228562895996 -0.05045046108634674 -0.008682758695202799 -0.025655033921645864 -0.09617727171667054 0.0946872305541271 -0.06085824625083676 0.07647741628072811 -0.11426924447916202 -0.04193555288719593
0.03733821178610584 0.09599409793112768 -0.07220420259176251 0.015731224200609465 -0.10604464243534877 0.047745473661346474 0.07529209196561527 0.1697493553483657 0.0394205408716525 -0.07673053980121534
0.13341039428734824 -0.07570107644685976 -0.01986410117991562 -0.08521011863755194 0.10726987461777605 -0.062279058123394106 -0.05712123889179759 -0.07489836812779974 -0.04600793742343081 0.03158975023979837
0.011749788886390755 -0.17274841597874885 0.06838675436815844 -0.006394278200893663 -0.014758604937613953 -0.16202411316949733 -0.11088416543963707 -0.12244482171012509 -0.020070021453490936 -0.09835496582017163
0.019347272708936363 0.04289818932352825 -0.052315426463997276 0.14150242322231932 -0.02219287256263373 0.09924707939519145 0.015215537209767916 0.009561734565060572 -0.12267286331114396 -6.553831965091007E-4
-0.051647293440239085 0.036589555584287385 0.01836630846743629 0.017410006608783075 0.014546806678567193 -0.0770277159369701 -0.07933195787656391 0.06862618891308893 0.0691187103443947 -0.14531932823956595
-0.09923393955425562 -0.015297067546703546 0.21745543085648525 -0.08081218632926328 -0.034505692163387176 -0.05785049556652409 0.055577809163099005 0.11172447794951088 -0.038608494054888455 -0.18735018971835457
0.13781329476017834 0.090758497346178 -0.17124981207604728 -0.057930536643703116 0.0509319004790236 0.0620307352360393 0.07166110615194586 -0.02468677475068599 -0.05675538869407404 -0.0311364286004242
-0.06094211870760195 0.05567313422650706 0.03561349415124874 -0.006815842562668352 -0.06021717828827236 -0.02513514733425109 -0.019933989222960642 -0.10417481131123016 0.08845080733831966 0.09153140996715915
-0.02728454904984439 -0.056184865966499416 0.10071396976169152 0.06294297278234218 -0.22045959117817054 0.03780028337826275 -0.07576383743885087 -0.04584497367399157 -0.01218339398093898 -0.059678889359850135
0.02353664267123161 -0.08475238589725026 -0.015585778999800041 -0.04141957516391207 -0.07192863160606097 -0.06077184006615193 0.08474774302779864 -0.12251879358770833 0.05259123129709566 0.08092115076307492
-0.07393398333342438 0.02792744667816507 -0.13876918439060656 -0.07235454878962938 0.08827523787779448 0.14271696756584293 0.05743595145186366 0.10578458702063559 -0.105287292498727 0.08572191846159817
-0.008956426701091608 -0.05345906058890993 -0.14672134099858025 0.012703751465219971 0.15594870078083645 -0.04731756136590311 -0.09432541640796116 -0.058003627476058604 -0.11486280846585341 -0.02181474332374963
-0.12599539217339292 0.10326544647712627 0.05830694133729941 -0.09939758535285255 0.14688270938962272 0.05252609014606793 -0.05917060118090803 0.14068727616298227 -0.13844265706193798 0.056281719464083106
0.12895740744363954 0.06145882167257037 -0.11950047320545104 -0.011310369756977775 0.022892875139690936 -0.002553727197586824 0.04461437107784504 0.12357585215899308 0.003325984731871785 -0.07210586765755593
0.05516834801038775 -0.05320746363706907 -0.23439783382547835 -9.292782055359253E-4 -0.07728056366730386 0.12353126061161739 -0.10227199681845843 0.14307476473905767 0.0021433009636650886 -0.00776991444887183
-0.06573564757514043 -0.10099658982276309 0.1466256457311956 -0.08085593715457697 -0.051208969959788686 -0.1011856039397737 -0.04761509596891639 0.027040070037982707 0.08717232117427741 0.012746714370338775
0.03278521008528532 -0.09820408407310242 0.022395159670069012 0.060312480963811935 -0.15192809954361883 -0.14346443365058342 0.012373438896412863 0.08363110314731972 0.0677036310712638 -0.03055095391529446
0.06040687591873168 -0.17486735968569342 -0.08228383461659008 0.13209736975396863 0.1458477095870608 -0.14202372887155665 -0.197133490256953 0.06924809620197513 0.05020692783481611 0.010471556087361132
0.03869666742790544 0.06905556670459238 0.08046928352902018 -0.14747066781424265 -0.0473757641820269 -0.0241276283257654 0.04522198764754072 0.12282759531744906 0.07555347886008963 -0.0029325207056713704
0.029976118025726868 0.1476358927718778 -0.07892463677313677 -0.09387699364717952 0.006185760111980019 -0.1183045723140038 0.11799037465441962 -0.06567365099603792 -0.024362996411232317 -0.05777473936773725
0.008167351997083091 0.10410285203797875 -0.1661919711626203 -0.005813761895794717 0.03858616462576812 -0.04816540841304285 -0.011228642624184486 0.12365246214725802 -0.10162745622337908 0.02324710130742526
-0.019421317297084913 -0.010710774097231172 -0.1358320825239961 -0.07266307013648672 0.004458926558820522 0.06662153701288495 0.11448191393800457 -0.11471616464524646 -0.024088549425512057 -0.016104679595593772
-0.008089522258479632 -0.1101679918737066 -0.005013667223036783 -0.021989148705628396 0.09930052377037281 0.003653291195941294 -0.11638907243211499 0.01363857630483195 -0.04601044427217709 -0.10431831383300326
0.07720104054872509 -0.08578218197026707 0.03520379345376457 0.008690204842913267 -0.12895196536686507 -0.09405222627464102 0.05373268979506122 -0.13580158826027 0.12016204531345134 -0.08330338371981852
-0.04928025091611008 0.009246484871165087 0.10537963129510075 -0.020015346887977698 -0.05143046236494969 0.01151365452793789 0.02195810299971366 -0.15237970970714734 -0.002499578784095075 -0.11451286728186853
-0.10445041227898642 0.08927427151170318 -0.13648093647048126 0.05392312951629098 0.15254492161116293 0.005580628300139409 -0.12143851225162196 0.17229611530750016 -0.0341190882756329 0.06462249865108398
0.058832920712291924 -0.12658157100375822 0.014762534236044084 -0.11918863225816073 0.06451774949400228 0.04508560660983601 0.00553156577736704 0.02565827559935068 0.06891576236982813 -0.05652563727078591
-0.08774790238290008 -0.02746898990797817 0.043082758905426746 0.0659221708460171 -0.18116147697879817 0.01875643480840639 0.0798362926628344 -0.06726667106761608 -0.08940035851318416 0.022720964191912697
-0.004064786412138645 -0.12758211458178378 -0.010270275840009583 -0.11501593942989095 -0.20489853966237281 0.018041567887289535 0.07784981150899377 -0.2170989273769169 -0.04268891872312461 -0.04999541922259616
0.01630440278334099 -0.0929768861401312 0.01515601853219579 -0.1310801574127452 0.048776886091511235 -0.1682214604856246 -0.08817289791042782 -0.01359040606716922 0.08790196245042084 -0.11940425935228187
0.0017565735184115893 0.14287139586556974 -0.08339201860713415 0.1641915033550406 0.15529141108161923 0.008234876205315463 -0.18998427622212213 0.169861943269285 0.04897431586663691 -0.027722708182317604
-0.07898726309897426 -0.1514007125054327 0.20303146584239276 0.09750297124938413 -0.07583886846743754 -0.1544598817716602 -2.7990603370285443E-4 -0.06566810038391106 0.04215162540347326 0.05937644487837299
-0.10617495502470137 0.009333185335396923 -0.043933959188301834 0.17374493385127754 0.10679900931654258 0.03186943800894663 -0.11365319543180018 0.2000541790960163 -0.06651689832558748 -0.07463602084478284
0.034477588476778676 -0.007350720492709103 0.14135594761084122 0.06011596444493067 -0.03344635134545064 -0.044470212709354855 0.07312768169189557 -0.00837680304431993 0.12373983225118494 -0.17239465296917098
0.10906860927981038 -0.3036004810354701 0.15544719814612457 -0.014027728788976911 -0.06977000508483801 -0.08760438853479735 0.09808071925310863 -0.212934109707433 0.11125503041826276 -0.010983289461402526
0.052174750263450746 0.07197715248688463 -0.027049765606652683 -0.08881850289459785 0.07196085732995024 0.008478205030241808 0.10536634603711846 -0.07081736981796351 0.08002218125551624 -0.0887727399740411
0.07703986758861203 0.06560015088162358 -0.07056872968728636 -0.07856012953835903 -0.1804397798533138 -0.01989499040756084 0.03403193659030058 -0.11107977632735065 0.03442149152183378 -0.05680577399116944
0.05166142990101979 0.11702654947893273 -0.05554484513725101 -0.20671783237701594 -0.0921590614503919 0.08129521349434121 0.14008337143504532 0.012000085436533319 9.182809695706695E-4 -0.04012902947732364
-0.030228033680585884 -0.046568229954621884 0.03137106368292256 -0.1013286971496088 -0.09655476262251911 -0.039395513090247455 0.05231456703823001 -0.10321693279771335 -0.033954448207354625 0.06890332250851809
-0.03562252988475303 0.013025224558513581 -0.1278962158173078 0.13610030331530087 -0.07120124603018277 0.08017905737394924 -0.09415352636141847 0.11862706652986119 -0.056760713436318604 0.018376382818474094
0.031116874580862285 0.05898187336585477 -0.09474197725149282 -0.09752875029907158 -0.03834326275437504 -0.09046682065821697 -0.10802967490551499 -0.04884521195115083 -0.07729134456139286 -0.007083037595904758
-8.876329494149722E-4 -0.06419766739225553 -0.1214995364829727 0.030097846735684792 -0.04792106314702743 0.019564178564086328 0.0763812968419415 -0.09741494518128843 0.09606788951807065 0.09649161097260403
0.12339734922512802 0.03859616510245733 -0.0037029744423962927 -0.12437914599742661 -0.08803769274796983 -0.052418759442828144 -0.12774974703598913 0.1795800871060877 -0.09503478617689151 0.05573711236903274
-0.018725190694327085 -0.09480013023600285 -0.13733849420902527 0.04670446908718288 0.02577159994132992 0.05666770619857645 0.027811843745980138 0.042656969641780326 -0.061006123322643956 0.05343222459790107
-0.03258455763919447 0.06299417025617805 0.09962404960988328 -0.03377995326954015 0.19973496176499209 0.005766237865294291 -0.06260164500743466 -0.0931512216519847 0.013710381356964112 -0.06798087589217153
-0.13755943142589994 0.03324331589708846 0.12747826268203977 0.051258791644354956 -0.08373636722530234 -0.04429794833889221 8.369742202805876E-4 -0.226221744007347 0.00339622897693316 -0.016272395008111274
0.03771006626952 0.1439612217339023 -0.22258417139863032 -0.12419722264057129 0.15340238714641938 0.10710315027024793 -0.08764363623013408 0.05170954684879733 0.052392440276390964 0.07011630934020077
-0.1032018841016428 0.013180029155619027 0.17007402754266268 0.02247040737656791 -0.0372001373393649 -0.1794953143729016 0.05495719019798353 0.030448281472579525 0.08454901358179363 0.022440291179021323
0.05565542728414083 -0.04271406725718537 -0.08990808729487859 -0.02812095884875131 0.024518618281363338 -0.11826108259819611 -0.09668795756232033 0.10653294890257055 -0.008222903515260642 -0.1297038325096788
-0.09480435242792323 0.03944933149497002 0.0249384191739264 -0.11192947287195928 0.13318709536579895 -0.07019923590381147 -0.044207166061528025 0.12386347912857074 -0.025074092950920297 -0.049344556655683304
0.025665774019012513 -0.029968790573206155 -0.16577402194418056 -0.045558277847665134 -0.09279931508684865 0.0016858886373644524 -0.07700957539630622 -0.11784238665858639 0.029920481941187592 0.11871068809526637
0.01894852783121791 -0.15672309583594154 0.02033998425232701 -0.025757035563457483 -0.17509583869082862 -0.07111782875672713 0.12851402445058005 -0.21523570012052515 -0.03737043804664922 0.06102588343815014
0.01455512663852294 -0.07948520828883648 0.05202944273370826 0.029260746111086828 0.12296415375027385 -0.12863526591115773 -0.09368150904353653 -0.11550843310157226 -0.05996213371801962 -0.04113705240343171
-0.008049063700387587 0.09573988417452688 -0.05532678405800883 -0.03564528940502623 0.02142454615333262 0.07465873409016577 -0.041529319028341526 0.013651097244853742 0.032653907895698726 -0.10831855224509677
-0.022188040530455828 0.07349597849123643 0.07950309791609442 -0.19771524693594342 -0.09722444002925937 0.01837770114317777 0.05723062245103592 0.004746426945321925 -0.002381448935283968 -0.0999546404015338
-0.019287503763772508 0.07104977943241576 -0.07629682829320403 0.04277222073760415 -0.030050104060819243 0.1414543858476567 -0.09649216679705616 0.03582866837332951 -0.023231369155013337 0.07095666684218267
0.11968638120339882 0.02529400990477828 0.09719251949587061 -0.05696809098484596 -0.10647373663026218 -0.16207981766916024 -0.029968495105015435 -0.026575416885115315 0.08047374785076049 -0.03027824727830153
0.08328498795734628 -0.0015760592906883097 -0.0045316820730145636 0.050300732240253346 0.04064922833236588 -0.0545476723517357 -0.18267593396100834 0.15712961064631314 0.052916867812067295 -0.10162101873708133
-0.04054119107715223 0.08364957640983636 -0.11773637991440693 0.05550981679923921 -0.002543770628671611 -0.08022860357379342 -0.1266986038934939 0.13916062949261207 -0.016521821725577247 -0.09721759468029512
-0.044810526089257285 0.035144145878313465 -0.04531091062911891 -0.07251485419973594 -0.0244966210640492 -0.013294189759509847 -0.10159425394600131 -0.01015191365635338 -0.11314389160323589 -0.042902388770189134
-0.06531846752906091 -0.0910364454910805 0.11454314730601846 0.026224986442182085 -0.11550486681052476 0.0075809374550628375 0.06859332517206497 -0.16870366567632925 -0.06524610821942851 -0.039042415930015874
0.02084203091581146 0.007657014741320458 -0.10866886495927748 0.09104259974265401 0.03285758486373891 -0.13025324061465848 -0.13578971915332883 -0.045176853984743574 -0.06206505698549992 -0.13381271689749896
-0.07040117832803075 0.08388837414262867 -0.04510212197141213 -0.10446682158704108 0.0922230573591961 0.02160861473010849 -0.062117269326220886 -0.020994181420077532 -0.03761531348727662 0.13998259528245052
-0.07102626677167044 -0.17273704147660607 0.02271193012245699 -0.018228688838542062 -0.01494556699690787 -0.11261720360945403 -0.0368684923370222 -0.01707388954641431 0.04716863329420175 0.06816486828089652
-0.10034838334828475 0.08141386877259574 -0.008743235890104204 0.013040756120618394 0.08553283400739031 -0.057043481857646294 -0.04016746680470963 -0.0182309101399413 -0.030650247523045945 0.016259666058560645
0.012876661979862472 -0.125081215294786 0.03868686747178359 -0.03056902766290424 8.45160698949015E-5 -0.028044279844884477 0.09563846814585522 0.005692736401885053 0.0648986116368633 0.07681995806139069
0.10943004656096696 0.036870910735276784 -0.22001047986695887 -0.24193357453827893 0.15024285651483327 0.06794052757627762 0.0935128432151056 0.07595654123493398 -0.12385329853057389 -0.03077020853536237
-0.07361741691388993 -0.05316489546321426 0.1092475091651237 0.02232391205541256 -0.22109699093699603 0.011318264512147683 -0.07935420046764789 -0.1044736045059315 -0.043898470757417915 -0.06767355813996706
-0.03837952492583722 -0.13367237873159823 -0.13589550669112593 0.09667874095192375 0.06644523809957166 0.1115742739313905 -0.12463098881344128 0.15746587972725187 0.006581652460366283 0.05349906185221457
-0.022284015186992953 0.04271380781357811 -0.19730344600475339 0.0362826998863397 0.08892840593966116 0.025633975898672046 -0.06629882345323151 -0.052985262349002436 -0.10781961985085721 0.059745224451145884
0.0637162777288981 -0.19643579449473833 -0.09404801543553677 0.040692242518177144 -0.030950311974485063 -0.050851283985838255 0.03746882441775111 -0.15146035244921305 -0.05060504989083934 0.0755405808710812
-0.04216467064330264 0.07750073181388462 0.02048299095263164 -0.10180761270376974 0.1070275662286157 -0.01816953875783984 0.07882671638716539 -0.023298085274644244 0.0336357960380194 0.1061970779455428
0.04459937489051034 -0.08337985553920797 0.0440773281735802 0.08235080998310833 -0.09426732388469225 -0.03830297455245997 -0.08349106947371204 -0.08437068863841508 0.07303307827617644 0.02055939477545121
-0.17341820912462289 0.05942435676121892 0.1743744983540228 -0.021700376028499165 -0.05940941728797342 -0.020406399568214058 -0.109136846402375 -0.0492219939719845 0.059250291989903454 -0.07593054639160474
0.005847436749158123 0.09007949329918427 -0.1873961292289256 -0.05858507579998938 0.20505557294180457 -0.02142160517021273 -0.030391610146420684 0.02855676502798238 0.056563987321695514 -0.01910616462779746
0.08694125149961122 0.021484429381116575 -0.02341290690843721 -0.003983429231135289 0.07636704933412371 0.037949766220213545 -0.09439213033348612 -0.046120201770795996 0.07644609424562325 0.027031350490098097
0.05216595768880768 0.002478841815573437 -0.00739318756957977 0.022141995607300558 -0.17087850968484658 -0.11329702159798644 -0.008975069737779902 -0.1396489554179676 0.008410321564528042 -0.0773777408605352
0.12318843994192144 0.1485262156669753 -0.15758837273377774 -0.17869118940370624 -0.12784964100884977 -0.051762169897368496 0.1490070380447998 -0.14107315397328785 0.1009914956847244 -0.026567854286537705
-0.09545177696263597 -0.005755621968672731 -0.028147849694503554 0.03598972222299671 -0.05614273390663536 -0.004223827034384661 0.05615775419089006 0.08577504955211021 0.005908453976068234 0.05630557650140628
-0.02866821194145409 0.02815118918504392 -8.060096705586359E-4 -0.10981071970649185 -0.08183152893446183 0.013667030682968694 0.04440079007831592 -0.14132409254929093 0.0853138834870329 -0.08383938769619857
-0.0014128827822789648 0.09197470829163594 -0.039348899866071374 -0.2453959307992205 0.2565550895486196 0.040248552605008446 0.07240844687091777 0.08919956372830803 0.003117451229879419 -0.004762049213546992
0.006813397267049581 -0.1600682752385949 0.04008115483825742 -0.04913339769893926 0.16127094951990598 -0.0500280768191618 -0.04145736751771685 -0.029451271082307735 0.1059632062329161 -0.03464130069601359
0.016388672132457215 -0.187806104914388 -0.008095707471182908 -0.06139510283162257 -0.15250806037318032 -0.03018037528029362 -0.06504229355213806 -0.19199927245733528 0.10342749322456853 -0.001788423105546407
-0.026079695362287842 -0.05095168996305195 9.838738338844716E-4 0.13442654429206016 -0.19749564185983046 -0.07304839457505885 0.02773039408532828 -0.053387114744304215 -0.052353010347691194 0.003321566331930282
-0.08045900438176731 -0.0436291167675142 0.01187828417939332 0.08333112236964856 0.10139983713101253 0.04143054346351656 0.04805291079170597 -0.1155818085276749 -0.09648576357151172 0.08462822923125204
0.06353433553345227 0.016947911408487573 -0.07542260325442528 -0.13344346941770566 0.1801498840415383 -0.07852030466545759 -0.14714572968242032 0.2879546940906907 -0.015970826692905137 -0.0016769306825813834
-0.045320437775250334 0.0038566177806574043 0.04375370541930085 0.10901879094862497 0.08252096709604104 -0.04095105743242843 -0.10290799846815742 0.03816437178130039 -0.06605916379950887 0.10937029342623811
0.010773894807871293 -0.022945858985377366 -0.24286294545897552 -0.13665561576005708 0.018677710936898323 0.04804676100841537 0.04257858478359321 -0.051853341072123124 -0.08984877938429571 0.14815523420331553
-0.0573564251077595 0.08946796876243106 -0.09870476014344833 0.18745763062142945 0.11714387448931554 0.1563534380373166 -0.1742538229314594 0.21412065776523564 -0.035544178728043684 0.06991536796493537
-0.009340585308137644 0.15904839819903646 0.068804690117595 -0.10735630660279652 -0.17282183983966184 0.03804061940662063 0.06741981177160336 0.0014658701420625774 -0.13256648753619465 -0.05568639741352852
4.73208334679016E-4 -0.16159219602300312 0.00461770734048791 0.15114554601117267 -0.059106460294690646 -0.09196625204577015 0.10050707435844736 -0.03715683637029728 0.0386952811553354 -0.17195907909842556
0.02902139423611546 -0.12884151434575328 -0.0829119819702543 0.09392719364505146 -0.14909624661464782 -0.07817682848291534 -0.11472826084597675 0.06316520972576087 -0.007032419631939759 0.09232975905105319
-0.13847605361699702 -0.026411123305865845 -0.14324173139551763 0.034886708347504 0.06948114719744687 0.12541775335301883 0.04418877082528522 0.04761380155202767 -0.11287795126290082 0.15093078723214776
0.026914657809760843 -9.13528625078626E-4 -0.1194099557900991 0.03453323045084162 0.053268296230702 0.03933566321434977 0.024538221982257823 -0.15173075136438194 -0.09932747231624647 0.09397121619250778
0.030229835284204334 0.15561696775762904 -0.12048455413084853 0.0427249081285621 0.01131653533154586 -0.05078513762216071 -0.09642397063784744 0.1153254512942785 -0.07715623128207254 0.01060402695439835
0.047333658023434894 0.1197656707058177 -0.2056882050511094 -0.012501125298830119 -0.1409562644572815 0.027920087474630484 0.045754954301081285 0.031474290661850875 -0.018636787725388067 0.0687779468101634
0.09602149461194782 0.08369644737865263 0.01073511269241838 -0.042580001662156274 -0.06346878296807344 -0.04823473158708016 -0.08738947056691197 0.1663263578230055 -0.02925895349233669 -0.026698194397951278
-0.09500601829107372 0.1282007723082427 -0.06879588809764337 0.03170493981453133 -0.05124580757479451 0.010075035238388602 0.10755972543780663 -0.13016162338985449 0.04217928818205896 0.03345091239237489
-0.053727613065430266 -0.03988965942330153 0.012436214236736054 0.051721884540541864 -0.05550281409239618 0.0026011623407303694 -0.12558652046935692 0.022702439612654342 -0.09379662948462808 -0.092356957581912
-0.0019400452372368398 0.12135511877788142 -0.14792391535380353 -0.05115896362566969 -0.07550222556297272 -0.004203690577087251 0.042456107537837934 -0.010655952773553584 0.015473479195990717 -0.04520325197285361
0.03398327662151068 -0.05446708279980743 -0.02656195338813243 -0.03465672404183603 -0.18627062083344656 -0.07486371236209571 0.10384042968418562 0.031947563158200576 -0.06029393003857768 0.003525667255296702
-0.052496044725395236 0.04303455628545419 0.07444482376224999 0.14675248985939207 -0.005112022981510213 -0.02598501459309897 -0.07647210404534589 0.08645858658141899 0.08177338117211488 -0.14477570335664477
-0.05205295447040378 0.09013619290687674 0.019891501728653567 0.04204851314018549 -0.23403371561659222 -0.00375295319418293 0.09259210531674751 -0.2459501324439265 -0.02152292174682822 0.12463257719236062
-0.09304571786623544 0.12257566744807155 -0.047534179372941104 -0.10293198698741925 -0.15915810339324488 0.07906161939047088 0.08748396998556666 -0.06859384583138863 -0.10801294218411944 -0.09763091280382075
0.04366243261948182 0.016558963231283613 -0.02412872129056059 -0.17752053473220947 0.1142576646298775 0.08937927199094262 -0.032430017442606006 0.24835196366612458 -0.1281524600708867 -0.12203074260787525
-0.05453268405132126 -0.03769185134139426 0.05322055460596711 0.20044562439913174 -0.21616573167257577 -0.032000150276842526 -0.027621868534847903 -0.17421030386027217 0.035385029205512945 0.07411273194749313
0.07250183302214903 0.08585140171311628 -0.1863246636913713 -0.03800589656934415 -0.07323600076338246 2.108057822347107E-4 -0.15470236075252317 0.1721353139427185 -0.12586502367898583 -0.014094081659284871
0.02274905993988196 0.028894583615448655 -0.10585287582093289 -0.044494886716887186 0.06973263674522227 -0.007301056926941599 -0.03038904019428483 0.08334228863843035 0.008142159417735637 -0.08141722300055343
-0.028755961732876468 -0.13637097405316156 0.056367961010132306 -0.0025784039771535277 0.019660165053232377 -0.00891547701914295 -0.09679086413059462 -0.05396946542420832 -0.08666880519562954 -0.061596353637587496
-0.10010708173945607 0.011839715526988684 -0.18909660103158174 0.08496851327531103 -0.0069446681310100485 0.13783213672700864 -0.025918809366324846 -0.043044287043014245 -0.13474456545810723 0.12296181981271682
-0.1407096069793857 0.023670084522556593 0.04272042838534691 0.023363175385075895 -0.1737811133559119 0.006559418093599535 0.13125787886951343 -0.03176769436256824 -0.11802392513304892 0.07940445504088615
0.12547922418480445 0.10078374013345406 -0.18630249016544093 -0.27517154863036025 0.22750443467532924 -0.07937833023993342 -0.07883139104363354 0.023775629381587542 0.03941190561390255 0.056919407716899816
-0.1108412936856817 -0.22303831490736947 0.22404913843707128 -0.030641868266985058 0.14138939798299655 -0.07780732869405306 0.012277539548691858 -0.0727500537956577 0.07730536564404006 -0.055094927900408174
0.20975383737308773 -0.014091714866993536 -0.08584761305476919 -0.13207569957325102 -0.02385555982734504 8.441300519131697E-4 0.0707595094781947 -0.06454982808266264 -0.010345968807674646 -0.13805545562973412
-0.05470226807378281 -0.18599272980553297 0.061544964798592075 0.052597719612331416 -0.02001860422291517 -0.015389973557545766 0.10008544855423233 -0.1504282958103613 0.12137341881888754 -0.001157611599666969
-0.030932725300678775 -0.12139920437136366 0.09445103716195026 -0.14385676695836502 -0.01088187050570187 -0.04813405171801802 0.07676646349429253 -0.11776387987432593 0.05899005442672092 0.05540105851734887
